{"learner":{"attributes":{"scikit_learn":"{\"_estimator_type\": \"classifier\"}"},"feature_names":["rsi_14","atr_pct","volume_ratio","bb_width","recent_high_dist_pct","recent_low_dist_pct","ema20_dist_pct","ema50_dist_pct","overnight_gap_pct","max_drawdown_recent","htf_pass","score","hour","weekday","day_type_GAP_DOWN","day_type_GAP_UP","day_type_RANGE","day_type_TREND_DOWN","day_type_TREND_UP","day_type_UNKNOWN","day_type_nan","stock_type_BREAKDOWN","stock_type_BREAKOUT","stock_type_DEFENSIVE","stock_type_FOLLOWER","stock_type_IN_LINE","stock_type_RS_LEADER","stock_type_UNKNOWN","stock_type_WEAKNESS","stock_type_nan","session_afternoon","session_midday","session_morning","session_opening","session_nan","direction_LONG","direction_nan","strategy_Combined Swing","strategy_Manual Institutional (time-gated)","strategy_Relative Strength Momentum","strategy_nan"],"feature_types":["float","float","float","float","float","float","float","float","float","float","int","int","float","int","i","i","i","i","i","i","i","i","i","i","i","i","i","i","i","i","i","i","i","i","i","i","i","i","i","i","i"],"gradient_booster":{"model":{"cats":{"enc":[],"feature_segments":[],"sorted_idx":[]},"gbtree_model_param":{"num_parallel_tree":"1","num_trees":"400"},"iteration_indptr":[0,1,2,3,4,5,6,7,8,9,10,11,12,13,14,15,16,17,18,19,20,21,22,23,24,25,26,27,28,29,30,31,32,33,34,35,36,37,38,39,40,41,42,43,44,45,46,47,48,49,50,51,52,53,54,55,56,57,58,59,60,61,62,63,64,65,66,67,68,69,70,71,72,73,74,75,76,77,78,79,80,81,82,83,84,85,86,87,88,89,90,91,92,93,94,95,96,97,98,99,100,101,102,103,104,105,106,107,108,109,110,111,112,113,114,115,116,117,118,119,120,121,122,123,124,125,126,127,128,129,130,131,132,133,134,135,136,137,138,139,140,141,142,143,144,145,146,147,148,149,150,151,152,153,154,155,156,157,158,159,160,161,162,163,164,165,166,167,168,169,170,171,172,173,174,175,176,177,178,179,180,181,182,183,184,185,186,187,188,189,190,191,192,193,194,195,196,197,198,199,200,201,202,203,204,205,206,207,208,209,210,211,212,213,214,215,216,217,218,219,220,221,222,223,224,225,226,227,228,229,230,231,232,233,234,235,236,237,238,239,240,241,242,243,244,245,246,247,248,249,250,251,252,253,254,255,256,257,258,259,260,261,262,263,264,265,266,267,268,269,270,271,272,273,274,275,276,277,278,279,280,281,282,283,284,285,286,287,288,289,290,291,292,293,294,295,296,297,298,299,300,301,302,303,304,305,306,307,308,309,310,311,312,313,314,315,316,317,318,319,320,321,322,323,324,325,326,327,328,329,330,331,332,333,334,335,336,337,338,339,340,341,342,343,344,345,346,347,348,349,350,351,352,353,354,355,356,357,358,359,360,361,362,363,364,365,366,367,368,369,370,371,372,373,374,375,376,377,378,379,380,381,382,383,384,385,386,387,388,389,390,391,392,393,394,395,396,397,398,399,400],"tree_info":[0,0,0,0,0,0,0,0,0,0,0,0,0,0,0,0,0,0,0,0,0,0,0,0,0,0,0,0,0,0,0,0,0,0,0,0,0,0,0,0,0,0,0,0,0,0,0,0,0,0,0,0,0,0,0,0,0,0,0,0,0,0,0,0,0,0,0,0,0,0,0,0,0,0,0,0,0,0,0,0,0,0,0,0,0,0,0,0,0,0,0,0,0,0,0,0,0,0,0,0,0,0,0,0,0,0,0,0,0,0,0,0,0,0,0,0,0,0,0,0,0,0,0,0,0,0,0,0,0,0,0,0,0,0,0,0,0,0,0,0,0,0,0,0,0,0,0,0,0,0,0,0,0,0,0,0,0,0,0,0,0,0,0,0,0,0,0,0,0,0,0,0,0,0,0,0,0,0,0,0,0,0,0,0,0,0,0,0,0,0,0,0,0,0,0,0,0,0,0,0,0,0,0,0,0,0,0,0,0,0,0,0,0,0,0,0,0,0,0,0,0,0,0,0,0,0,0,0,0,0,0,0,0,0,0,0,0,0,0,0,0,0,0,0,0,0,0,0,0,0,0,0,0,0,0,0,0,0,0,0,0,0,0,0,0,0,0,0,0,0,0,0,0,0,0,0,0,0,0,0,0,0,0,0,0,0,0,0,0,0,0,0,0,0,0,0,0,0,0,0,0,0,0,0,0,0,0,0,0,0,0,0,0,0,0,0,0,0,0,0,0,0,0,0,0,0,0,0,0,0,0,0,0,0,0,0,0,0,0,0,0,0,0,0,0,0,0,0,0,0,0,0,0,0,0,0,0,0,0,0,0,0,0,0,0,0,0,0,0,0,0,0,0,0,0,0,0,0,0,0,0,0,0,0,0,0,0,0,0,0,0,0,0,0,0,0,0,0,0,0],"trees":[{"base_weights":[-1.9201277E-3,1.5279372E-1,-1.1870682E0,-6.0691712E-3,2.1119717E-1,-1.6312578E0,-1.135568E0,5.7000875E-2,-3.459677E-1,2.524888E-1,7.065334E-3,-4.1833963E-2,-8.7726764E-2,-1.1838243E0,-5.3025323E-1,3.6084012E-3,-5.4914065E-2,-3.446235E-2,5.093752E-4,1.3021956E-2,-5.1358487E-2,2.7519608E-2,-2.8604355E-3,-6.583261E-2,-4.8236296E-2,-4.9717672E-2,3.5958048E-3],"categories":[],"categories_nodes":[],"categories_segments":[],"categories_sizes":[],"default_left":[0,0,0,0,0,0,0,0,0,0,0,0,0,0,0,0,0,0,0,0,0,0,0,0,0,0,0],"id":0,"left_children":[1,3,5,7,9,11,13,15,17,19,21,-1,-1,23,25,-1,-1,-1,-1,-1,-1,-1,-1,-1,-1,-1,-1],"loss_changes":[7.0003186E2,3.1333473E1,8.232239E0,1.9500809E1,2.081134E1,2.7940826E0,1.100769E1,1.3525379E1,1.741352E1,2.116211E1,1.4575418E1,0E0,0E0,9.442688E0,8.797073E0,0E0,0E0,0E0,0E0,0E0,0E0,0E0,0E0,0E0,0E0,0E0,0E0],"parents":[2147483647,0,0,1,1,2,2,3,3,4,4,5,5,6,6,7,7,8,8,9,9,10,10,13,13,14,14],"right_children":[2,4,6,8,10,12,14,16,18,20,22,-1,-1,24,26,-1,-1,-1,-1,-1,-1,-1,-1,-1,-1,-1,-1],"split_conditions":[1E0,8.2353026E-1,7.9416543E-1,1.0436664E0,6.3750896E0,4.820408E-1,1E0,7.6E1,1.6504374E-1,1.6462373E0,5.315693E-2,-4.1833963E-2,-8.7726764E-2,1.425E1,1.1437529E0,3.6084012E-3,-5.4914065E-2,-3.446235E-2,5.093752E-4,1.3021956E-2,-5.1358487E-2,2.7519608E-2,-2.8604355E-3,-6.583261E-2,-4.8236296E-2,-4.9717672E-2,3.5958048E-3],"split_indices":[38,6,3,7,2,3,28,11,4,1,4,0,0,12,5,0,0,0,0,0,0,0,0,0,0,0,0],"split_type":[0,0,0,0,0,0,0,0,0,0,0,0,0,0,0,0,0,0,0,0,0,0,0,0,0,0,0],"sum_hessian":[3.8158357E3,3.3759915E3,4.3984402E2,9.077424E2,2.4682493E3,4.2511093E1,3.9733295E2,7.663704E2,1.4137195E2,2.052778E3,4.1547125E2,6.7555475E0,3.5755547E1,3.6711078E2,3.0222172E1,7.5736487E2,9.005548E0,7.1511E1,6.986095E1,2.0408947E3,1.1883321E1,4.314987E1,3.7232138E2,2.2543315E2,1.4167761E2,1.6699982E1,1.352219E1],"tree_param":{"num_deleted":"0","num_feature":"41","num_nodes":"27","size_leaf_vector":"1"}},{"base_weights":[7.234263E-3,1.5424402E-1,-1.1200918E0,1.9382594E-2,2.1166573E-1,-1.222363E0,-8.841693E-1,3.3757206E-2,-5.625796E-1,2.4501358E-1,-7.413018E-2,-1.3871822E0,-1.029321E0,-6.71869E-1,-1.271832E0,4.83409E-5,1.6276767E-2,1.18230665E-2,-4.4541318E-2,2.2933928E-2,1.0216544E-2,-3.698631E-5,-2.8539145E-2,-7.256772E-2,-3.1916913E-2,-5.9458055E-2,-2.199134E-2,-5.8926698E-2,-1.4189661E-2,-7.38355E-2,-4.238357E-2],"categories":[],"categories_nodes":[],"categories_segments":[],"categories_sizes":[],"default_left":[0,0,0,0,0,0,0,0,0,0,0,0,0,0,0,0,0,0,0,0,0,0,0,0,0,0,0,0,0,0,0],"id":1,"left_children":[1,3,5,7,9,11,13,15,17,19,21,23,25,27,29,-1,-1,-1,-1,-1,-1,-1,-1,-1,-1,-1,-1,-1,-1,-1,-1],"loss_changes":[6.377577E2,2.6358238E1,9.630615E0,8.532643E0,2.2772919E1,8.342346E0,1.0491768E1,9.510984E0,6.659758E0,1.8493225E1,9.120871E0,6.8954773E0,1.3168335E1,1.7597565E1,2.890274E0,0E0,0E0,0E0,0E0,0E0,0E0,0E0,0E0,0E0,0E0,0E0,0E0,0E0,0E0,0E0,0E0],"parents":[2147483647,0,0,1,1,2,2,3,3,4,4,5,5,6,6,7,7,8,8,9,9,10,10,11,11,12,12,13,13,14,14],"right_children":[2,4,6,8,10,12,14,16,18,20,22,24,26,28,30,-1,-1,-1,-1,-1,-1,-1,-1,-1,-1,-1,-1,-1,-1,-1,-1],"split_conditions":[1E0,8.680894E-1,7.541322E1,1.1623503E1,6.945096E-1,1.425E1,1.7143304E0,5.9441586E0,5.5263157E1,3.6692694E-1,1.1842983E0,1E0,4.313085E-1,2.2253733E0,2.901234E0,4.83409E-5,1.6276767E-2,1.18230665E-2,-4.4541318E-2,2.2933928E-2,1.0216544E-2,-3.698631E-5,-2.8539145E-2,-7.256772E-2,-3.1916913E-2,-5.9458055E-2,-2.199134E-2,-5.8926698E-2,-1.4189661E-2,-7.38355E-2,-4.238357E-2],"split_indices":[38,6,0,2,4,12,6,2,0,1,1,28,1,2,6,0,0,0,0,0,0,0,0,0,0,0,0,0,0,0,0],"split_type":[0,0,0,0,0,0,0,0,0,0,0,0,0,0,0,0,0,0,0,0,0,0,0,0,0,0,0,0,0,0,0],"sum_hessian":[3.846178E3,3.4032393E3,4.4293866E2,1.0167123E3,2.386527E3,3.0607544E2,1.3686322E2,9.931239E2,2.3588415E1,2.1372827E3,2.4924417E2,1.6177019E2,1.4430525E2,9.0199394E1,4.6663822E1,8.936929E2,9.9431E1,6.9499617E0,1.6638454E1,3.40213E2,1.7970698E3,2.1802768E2,3.1216497E1,1.481374E2,1.3632777E1,1.1272331E2,3.1581944E1,3.8238728E1,5.1960667E1,2.9792143E1,1.687168E1],"tree_param":{"num_deleted":"0","num_feature":"41","num_nodes":"31","size_leaf_vector":"1"}},{"base_weights":[7.551262E-3,-2.198768E-1,1.6853783E-1,-1.0582619E0,1.000392E-1,1.9960986E-1,-1.5441525E-1,-1.1704965E0,-8.023525E-1,-2.5909046E-2,2.1363099E-1,-1.4681816E-1,2.1634999E-1,-3.4039035E-3,-3.890136E-1,-6.50415E-2,-4.8593555E-2,1.663698E-2,-4.468225E-2,-9.0054665E-3,6.5595782E-3,1.3027607E-2,-2.1511955E-2,-3.61734E-2,-5.970647E-4,8.793456E-3,1.6903332E-2,1.0182432E-2,-1.6071854E-2,-4.3682422E-2,-7.701326E-3],"categories":[],"categories_nodes":[],"categories_segments":[],"categories_sizes":[],"default_left":[0,0,0,0,0,0,0,0,0,0,0,0,0,0,0,0,0,0,0,0,0,0,0,0,0,0,0,0,0,0,0],"id":2,"left_children":[1,3,5,7,9,11,13,15,17,19,21,23,25,27,29,-1,-1,-1,-1,-1,-1,-1,-1,-1,-1,-1,-1,-1,-1,-1,-1],"loss_changes":[1.4054799E2,4.268509E2,2.2585865E1,1.1684998E1,1.6494543E1,1.192511E1,7.0074806E0,6.588806E0,1.4512413E1,1.3285213E1,1.842317E1,7.3901577E0,9.58165E0,8.057624E0,8.687703E0,0E0,0E0,0E0,0E0,0E0,0E0,0E0,0E0,0E0,0E0,0E0,0E0,0E0,0E0,0E0,0E0],"parents":[2147483647,0,0,1,1,2,2,3,3,4,4,5,5,6,6,7,7,8,8,9,9,10,10,11,11,12,12,13,13,14,14],"right_children":[2,4,6,8,10,12,14,16,18,20,22,24,26,28,30,-1,-1,-1,-1,-1,-1,-1,-1,-1,-1,-1,-1,-1,-1,-1,-1],"split_conditions":[1E0,1E0,8.8867426E-1,7.541322E1,7.3611115E1,-1.6090104E-1,1E0,4.3343326E-1,5.347496E-1,4.7012183E-1,6.7839193E-1,1.2166598E0,-5.9012525E-2,1E0,6.689105E-1,-6.50415E-2,-4.8593555E-2,1.663698E-2,-4.468225E-2,-9.0054665E-3,6.5595782E-3,1.3027607E-2,-2.1511955E-2,-3.61734E-2,-5.970647E-4,8.793456E-3,1.6903332E-2,1.0182432E-2,-1.6071854E-2,-4.3682422E-2,-7.701326E-3],"split_indices":[39,37,4,0,0,8,24,1,7,1,4,3,9,33,6,0,0,0,0,0,0,0,0,0,0,0,0,0,0,0,0],"split_type":[0,0,0,0,0,0,0,0,0,0,0,0,0,0,0,0,0,0,0,0,0,0,0,0,0,0,0,0,0,0,0],"sum_hessian":[3.8367483E3,1.590069E3,2.2466794E3,4.3853033E2,1.1515386E3,2.0498416E3,1.9683789E2,3.0235297E2,1.3617737E2,5.464348E2,6.0510376E2,9.4128685E1,1.9557128E3,1.2037002E2,7.646787E1,1.792102E2,1.23142746E2,9.940218E0,1.2623715E2,2.7568903E2,2.7074582E2,5.6455774E2,4.054603E1,1.7015793E1,7.711289E1,1.4694452E3,4.8626758E2,7.312338E1,4.7246635E1,2.4082506E1,5.2385365E1],"tree_param":{"num_deleted":"0","num_feature":"41","num_nodes":"31","size_leaf_vector":"1"}},{"base_weights":[6.6554565E-3,1.3832232E-1,-1.049197E0,-2.7738974E-4,1.8504196E-1,-1.1548295E0,-8.120114E-1,-2.0525073E-1,7.181632E-2,-4.432871E-2,2.1427867E-1,-1.2282321E0,-8.638839E-1,-6.1059064E-1,-1.1161137E0,-2.699961E-4,-2.3858992E-2,-3.7584484E-2,4.9059796E-3,3.7993502E-3,-3.1629015E-2,1.2591827E-2,1.56062E-3,-6.297256E-2,-2.9428005E-2,-3.4236442E-2,-8.3467E-2,-3.456397E-2,1.6845776E-2,-7.143724E-2,-4.393534E-2],"categories":[],"categories_nodes":[],"categories_segments":[],"categories_sizes":[],"default_left":[0,0,0,0,0,0,0,0,0,0,0,0,0,0,0,0,0,0,0,0,0,0,0,0,0,0,0,0,0,0,0],"id":3,"left_children":[1,3,5,7,9,11,13,15,17,19,21,23,25,27,29,-1,-1,-1,-1,-1,-1,-1,-1,-1,-1,-1,-1,-1,-1,-1,-1],"loss_changes":[5.3608777E2,2.220118E1,9.774475E0,1.2802312E1,1.7205246E1,5.20578E0,7.594429E0,1.2248299E1,1.3956798E1,2.0624367E1,1.5630608E1,3.8908691E0,7.8742485E0,6.6156216E0,2.6504974E0,0E0,0E0,0E0,0E0,0E0,0E0,0E0,0E0,0E0,0E0,0E0,0E0,0E0,0E0,0E0,0E0],"parents":[2147483647,0,0,1,1,2,2,3,3,4,4,5,5,6,6,7,7,8,8,9,9,10,10,11,11,12,12,13,13,14,14],"right_children":[2,4,6,8,10,12,14,16,18,20,22,24,26,28,30,-1,-1,-1,-1,-1,-1,-1,-1,-1,-1,-1,-1,-1,-1,-1,-1],"split_conditions":[1E0,7.8800905E-1,7.541322E1,5.7E1,-6.3987714E-1,1.475E1,3.2259324E0,1.475E1,4.07173E1,5.3826747E0,7.4E1,3.8814342E0,1E0,3.023945E0,6.2E1,-2.699961E-4,-2.3858992E-2,-3.7584484E-2,4.9059796E-3,3.7993502E-3,-3.1629015E-2,1.2591827E-2,1.56062E-3,-6.297256E-2,-2.9428005E-2,-3.4236442E-2,-8.3467E-2,-3.456397E-2,1.6845776E-2,-7.143724E-2,-4.393534E-2],"split_indices":[38,6,0,11,9,12,3,12,0,5,11,5,15,3,11,0,0,0,0,0,0,0,0,0,0,0,0,0,0,0,0],"split_type":[0,0,0,0,0,0,0,0,0,0,0,0,0,0,0,0,0,0,0,0,0,0,0,0,0,0,0,0,0,0,0],"sum_hessian":[3.8541267E3,3.4275708E3,4.265558E2,8.64353E2,2.5632178E3,2.9244437E2,1.3411142E2,2.2442676E2,6.399263E2,2.897246E2,2.2734932E3,2.3095515E2,6.1489223E1,8.2485405E1,5.162601E1,1.2994513E2,9.4481636E1,1.8953396E1,6.209729E2,2.4125192E2,4.8472687E1,1.886154E3,3.873391E2,2.1928418E2,1.1670961E1,5.1814415E1,9.674807E0,7.626147E1,6.2239385E0,2.011685E1,3.1509161E1],"tree_param":{"num_deleted":"0","num_feature":"41","num_nodes":"31","size_leaf_vector":"1"}},{"base_weights":[3.568055E-3,1.2974666E-1,-9.7416157E-1,1.6040519E-1,-1.3197745E-1,-1.0538056E0,-7.792234E-1,9.022553E-3,2.0957121E-1,-3.0781101E-2,-3.6402956E-1,-1.1306894E0,-7.4943095E-1,-5.390035E-1,-1.2683766E0,-7.8754144E-4,4.8450127E-2,1.6288716E-2,7.70406E-3,8.9096697E-4,-4.0540583E-2,2.2111382E-2,-2.2781525E-2,-4.0139318E-2,-5.9990253E-2,-2.0895375E-2,-5.2814722E-2,-4.2703897E-2,-8.267025E-3,-6.838979E-2,-2.9496089E-2],"categories":[],"categories_nodes":[],"categories_segments":[],"categories_sizes":[],"default_left":[0,0,0,0,0,0,0,0,0,0,0,0,0,0,0,0,0,0,0,0,0,0,0,0,0,0,0,0,0,0,0],"id":4,"left_children":[1,3,5,7,9,11,13,15,17,19,21,23,25,27,29,-1,-1,-1,-1,-1,-1,-1,-1,-1,-1,-1,-1,-1,-1,-1,-1],"loss_changes":[4.7450262E2,2.7355713E1,6.004364E0,2.2697502E1,8.389841E0,6.3901367E0,1.4751091E1,1.7821516E1,1.47939E1,9.499777E0,8.217972E0,4.587982E0,6.205105E0,1.0434847E1,2.0613403E0,0E0,0E0,0E0,0E0,0E0,0E0,0E0,0E0,0E0,0E0,0E0,0E0,0E0,0E0,0E0,0E0],"parents":[2147483647,0,0,1,1,2,2,3,3,4,4,5,5,6,6,7,7,8,8,9,9,10,10,11,11,12,12,13,13,14,14],"right_children":[2,4,6,8,10,12,14,16,18,20,22,24,26,28,30,-1,-1,-1,-1,-1,-1,-1,-1,-1,-1,-1,-1,-1,-1,-1,-1],"split_conditions":[1E0,7.6871557E0,7.553648E1,7.689683E-1,1E0,1.4665456E0,1.7011782E0,7.0348577E0,2.205631E0,8E1,1.0413655E0,-7.1354525E-4,1.211331E0,2.72043E0,3.8225608E0,-7.8754144E-4,4.8450127E-2,1.6288716E-2,7.70406E-3,8.9096697E-4,-4.0540583E-2,2.2111382E-2,-2.2781525E-2,-4.0139318E-2,-5.9990253E-2,-2.0895375E-2,-5.2814722E-2,-4.2703897E-2,-8.267025E-3,-6.838979E-2,-2.9496089E-2],"split_indices":[38,2,0,6,37,7,6,2,2,11,3,7,6,2,6,0,0,0,0,0,0,0,0,0,0,0,0,0,0,0,0],"split_type":[0,0,0,0,0,0,0,0,0,0,0,0,0,0,0,0,0,0,0,0,0,0,0,0,0,0,0,0,0,0,0],"sum_hessian":[3.8441953E3,3.4055654E3,4.3862994E2,3.0488127E3,3.5675275E2,3.0827518E2,1.3035477E2,7.4772974E2,2.301083E3,2.4920763E2,1.0754511E2,2.4394165E2,6.4333534E1,8.883192E1,4.152285E1,7.29878E2,1.7851744E1,7.421197E2,1.5589633E3,2.3551108E2,1.3696555E1,1.0581411E1,9.696371E1,4.4663055E1,1.992786E2,3.2059532E1,3.2274006E1,4.7496742E1,4.1335175E1,3.5329678E1,6.1931725E0],"tree_param":{"num_deleted":"0","num_feature":"41","num_nodes":"31","size_leaf_vector":"1"}},{"base_weights":[9.1901695E-4,-3.8713667E-1,5.5675343E-2,-7.353279E-1,-1.860956E-1,-9.429026E-2,9.718794E-2,3.6235437E-2,-8.143805E-1,-1.4752339E-1,-7.371842E-2,-7.474689E-2,-8.355879E-1,3.0120507E-2,2.320641E-1,-3.270782E-2,-5.546574E-2,-2.5642728E-2,-1.6389057E-3,-2.1081699E-2,-1.5486795E-3,-5.970783E-2,-1.1101015E-2,2.216352E-3,-3.4520473E-2,1.8868245E-2,7.292904E-3],"categories":[],"categories_nodes":[],"categories_segments":[],"categories_sizes":[],"default_left":[0,0,0,0,0,0,0,0,0,0,0,0,0,0,0,0,0,0,0,0,0,0,0,0,0,0,0],"id":5,"left_children":[1,3,5,7,9,11,13,-1,15,17,-1,19,21,23,25,-1,-1,-1,-1,-1,-1,-1,-1,-1,-1,-1,-1],"loss_changes":[8.110936E1,3.290471E1,2.0834251E1,2.0492973E1,1.4718715E1,1.0451636E1,2.3696712E1,0E0,7.0267105E0,1.2263743E1,0E0,1.0740438E1,3.8145466E0,1.7957272E1,1.0843842E1,0E0,0E0,0E0,0E0,0E0,0E0,0E0,0E0,0E0,0E0,0E0,0E0],"parents":[2147483647,0,0,1,1,2,2,3,3,4,4,5,5,6,6,8,8,9,9,11,11,12,12,13,13,14,14],"right_children":[2,4,6,8,10,12,14,-1,16,18,-1,20,22,24,26,-1,-1,-1,-1,-1,-1,-1,-1,-1,-1,-1,-1],"split_conditions":[4.7689736E-1,2.2974734E0,-4.1102287E-1,3.732736E-2,1.1083251E1,7.8E1,8.082976E1,3.6235437E-2,6E1,5.5992246E-2,-7.371842E-2,1.6065475E0,7.748503E1,1E0,2.5053616E0,-3.270782E-2,-5.546574E-2,-2.5642728E-2,-1.6389057E-3,-2.1081699E-2,-1.5486795E-3,-5.970783E-2,-1.1101015E-2,2.216352E-3,-3.4520473E-2,1.8868245E-2,7.292904E-3],"split_indices":[6,2,9,4,2,11,0,0,11,7,0,5,0,26,5,0,0,0,0,0,0,0,0,0,0,0,0],"split_type":[0,0,0,0,0,0,0,0,0,0,0,0,0,0,0,0,0,0,0,0,0,0,0,0,0,0,0],"sum_hessian":[3.815165E3,4.7101712E2,3.344148E3,1.714384E2,2.9957874E2,7.2473773E2,2.6194102E3,8.386124E0,1.6305226E2,2.919519E2,7.626825E0,7.071943E2,1.7543447E1,1.7502957E3,8.691145E2,1.0774008E2,5.531219E1,6.895149E1,2.230004E2,7.827353E1,6.289208E2,1.0475384E1,7.068064E0,1.717373E3,3.2922585E1,3.2237384E2,5.467407E2],"tree_param":{"num_deleted":"0","num_feature":"41","num_nodes":"27","size_leaf_vector":"1"}},{"base_weights":[-1.7727696E-3,1.1312619E-1,-9.028014E-1,1.5261412E-1,-7.8458026E-2,-9.7755146E-1,-7.263377E-1,-2.0187756E-2,2.0811465E-1,2.0118459E-1,-1.86337E-1,-1.4475601E0,-9.1983616E-1,-4.8237032E-1,-1.0928403E0,-1.1347936E-2,5.3766454E-3,1.1694131E-2,-5.4526404E-3,3.4608957E-4,4.5053884E-2,-6.141757E-3,-3.8820464E-2,-7.640766E-2,-4.286685E-2,-4.966686E-2,-3.630129E-2,-3.551219E-2,-5.4123825E-3,-6.483286E-2,-2.6852477E-2],"categories":[],"categories_nodes":[],"categories_segments":[],"categories_sizes":[],"default_left":[0,0,0,0,0,0,0,0,0,0,0,0,0,0,0,0,0,0,0,0,0,0,0,0,0,0,0,0,0,0,0],"id":6,"left_children":[1,3,5,7,9,11,13,15,17,19,21,23,25,27,29,-1,-1,-1,-1,-1,-1,-1,-1,-1,-1,-1,-1,-1,-1,-1,-1],"loss_changes":[3.9382635E2,2.5536163E1,4.9649963E0,2.6835281E1,1.7450817E1,6.7881165E0,1.1267479E1,1.800945E1,1.7332321E1,2.1906752E1,1.5531849E1,1.641159E-1,3.1154938E0,6.827173E0,5.1857834E0,0E0,0E0,0E0,0E0,0E0,0E0,0E0,0E0,0E0,0E0,0E0,0E0,0E0,0E0,0E0,0E0],"parents":[2147483647,0,0,1,1,2,2,3,3,4,4,5,5,6,6,7,7,8,8,9,9,10,10,11,11,12,12,13,13,14,14],"right_children":[2,4,6,8,10,12,14,16,18,20,22,24,26,28,30,-1,-1,-1,-1,-1,-1,-1,-1,-1,-1,-1,-1,-1,-1,-1,-1],"split_conditions":[1E0,1.5E1,7.541322E1,9.75E0,1.1307678E0,1.025E1,3.1183913E0,1.4467593E-1,8.4328884E-1,6.979021E1,1.0396773E1,8.2516015E-1,4.2419615E-3,2.220517E0,5.2639484E0,-1.1347936E-2,5.3766454E-3,1.1694131E-2,-5.4526404E-3,3.4608957E-4,4.5053884E-2,-6.141757E-3,-3.8820464E-2,-7.640766E-2,-4.286685E-2,-4.966686E-2,-3.630129E-2,-3.551219E-2,-5.4123825E-3,-6.483286E-2,-2.6852477E-2],"split_indices":[38,12,0,12,5,12,3,8,4,0,2,4,8,3,5,0,0,0,0,0,0,0,0,0,0,0,0,0,0,0,0],"split_type":[0,0,0,0,0,0,0,0,0,0,0,0,0,0,0,0,0,0,0,0,0,0,0,0,0,0,0,0,0,0,0],"sum_hessian":[3.8020977E3,3.372865E3,4.292325E2,2.7966445E3,5.7622046E2,2.983231E2,1.3090944E2,6.8002167E2,2.116623E3,1.6016853E2,4.1605194E2,2.9992893E1,2.683302E2,7.99835E1,5.0925938E1,2.593595E2,4.2066217E2,1.9578241E3,1.5879892E2,1.2616108E2,3.400746E1,3.7671875E2,3.9333195E1,2.49913E1,5.001593E0,1.9155806E2,7.677213E1,4.914902E1,3.083448E1,3.628623E1,1.4639707E1],"tree_param":{"num_deleted":"0","num_feature":"41","num_nodes":"31","size_leaf_vector":"1"}},{"base_weights":[1.2323978E-2,1.2619145E-1,-8.899222E-1,1.3109793E-1,-1.0638312E0,-4.1841382E-1,-9.2705256E-1,3.0132002E-1,9.4208606E-2,-8.49237E-2,-1.0151815E-2,1.8198345E-2,-6.8851113E-1,-1.1592537E0,-8.5923135E-1,5.2461913E-3,1.9675203E-2,3.0428777E-3,1.4678563E-2,-5.577543E-2,-1.4505597E-2,-6.2226363E-2,-3.070406E-2,-3.9792765E-2,-6.353504E-2],"categories":[],"categories_nodes":[],"categories_segments":[],"categories_sizes":[],"default_left":[0,0,0,0,0,0,0,0,0,0,0,0,0,0,0,0,0,0,0,0,0,0,0,0,0],"id":7,"left_children":[1,3,5,7,9,11,13,15,17,-1,-1,-1,19,21,23,-1,-1,-1,-1,-1,-1,-1,-1,-1,-1],"loss_changes":[3.9460602E2,2.0052383E1,7.147705E0,2.1304672E1,7.3651686E0,7.2755685E0,5.274597E0,1.0905716E1,1.8557104E1,0E0,0E0,0E0,3.9391346E0,3.2871017E0,7.1257477E0,0E0,0E0,0E0,0E0,0E0,0E0,0E0,0E0,0E0,0E0],"parents":[2147483647,0,0,1,1,2,2,3,3,4,4,5,5,6,6,7,7,8,8,12,12,13,13,14,14],"right_children":[2,4,6,8,10,12,14,16,18,-1,-1,-1,20,22,24,-1,-1,-1,-1,-1,-1,-1,-1,-1,-1],"split_conditions":[1E0,1.6462373E0,3.8535647E-2,1.8174746E0,7.658915E1,7.851478E-1,1.05E1,6.569921E1,8.696655E1,-8.49237E-2,-1.0151815E-2,1.8198345E-2,7.3611115E1,8.621622E1,1E0,5.2461913E-3,1.9675203E-2,3.0428777E-3,1.4678563E-2,-5.577543E-2,-1.4505597E-2,-6.2226363E-2,-3.070406E-2,-3.9792765E-2,-6.353504E-2],"split_indices":[38,1,4,2,0,7,12,0,0,0,0,0,0,0,15,0,0,0,0,0,0,0,0,0,0],"split_type":[0,0,0,0,0,0,0,0,0,0,0,0,0,0,0,0,0,0,0,0,0,0,0,0,0],"sum_hessian":[3.8388599E3,3.4094343E3,4.2942563E2,3.396321E3,1.3113235E1,3.224347E1,3.9718216E2,6.036536E2,2.7926675E3,6.988006E0,6.1252294E0,8.185449E0,2.405802E1,8.6146706E1,3.1103543E2,1.935141E2,4.1013953E2,2.3935583E3,3.9910916E2,1.0743425E1,1.3314594E1,7.338529E1,1.2761414E1,2.7206516E2,3.8970287E1],"tree_param":{"num_deleted":"0","num_feature":"41","num_nodes":"25","size_leaf_vector":"1"}},{"base_weights":[5.912566E-3,1.1530885E-1,-8.742973E-1,1.3638635E-1,-1.2161268E-1,-9.832583E-1,-6.6949785E-1,1.6900007E-1,-2.0812724E-2,-4.4416055E-1,1.5819412E-2,-1.0539778E0,-6.4801747E-1,-4.4436577E-1,-1.039659E0,-1.7395398E-2,9.098206E-3,6.3036988E-3,-1.2088042E-2,2.9832099E-2,-2.7128983E-2,2.2971032E-2,-1.4522723E-2,-2.8891439E-2,-5.566423E-2,1.7676618E-2,-4.1604724E-2,-1.4526847E-2,-5.6786813E-2,-6.563363E-2,-4.0983867E-2],"categories":[],"categories_nodes":[],"categories_segments":[],"categories_sizes":[],"default_left":[0,0,0,0,0,0,0,0,0,0,0,0,0,0,0,0,0,0,0,0,0,0,0,0,0,0,0,0,0,0,0],"id":8,"left_children":[1,3,5,7,9,11,13,15,17,19,21,23,25,27,29,-1,-1,-1,-1,-1,-1,-1,-1,-1,-1,-1,-1,-1,-1,-1,-1],"loss_changes":[3.6665433E2,1.6929134E1,8.734833E0,1.59508705E1,1.2295497E1,5.7802124E0,1.19809265E1,1.7327034E1,1.740483E1,8.811483E0,2.667494E1,5.6689606E0,9.528328E0,9.729977E0,2.2705421E0,0E0,0E0,0E0,0E0,0E0,0E0,0E0,0E0,0E0,0E0,0E0,0E0,0E0,0E0,0E0,0E0],"parents":[2147483647,0,0,1,1,2,2,3,3,4,4,5,5,6,6,7,7,8,8,9,9,10,10,11,11,12,12,13,13,14,14],"right_children":[2,4,6,8,10,12,14,16,18,20,22,24,26,28,30,-1,-1,-1,-1,-1,-1,-1,-1,-1,-1,-1,-1,-1,-1,-1,-1],"split_conditions":[1E0,8.8867426E-1,7.424665E1,1.5E1,5.212766E1,1.5061496E0,3.1183913E0,9.5E0,3.7483975E-1,3.3004844E-1,3.9816492E0,-1.8677542E-1,1.7034068E0,1.6912842E-2,6.2E1,-1.7395398E-2,9.098206E-3,6.3036988E-3,-1.2088042E-2,2.9832099E-2,-2.7128983E-2,2.2971032E-2,-1.4522723E-2,-2.8891439E-2,-5.566423E-2,1.7676618E-2,-4.1604724E-2,-1.4526847E-2,-5.6786813E-2,-6.563363E-2,-4.0983867E-2],"split_indices":[38,4,0,12,0,7,3,12,1,1,2,7,5,8,11,0,0,0,0,0,0,0,0,0,0,0,0,0,0,0,0],"split_type":[0,0,0,0,0,0,0,0,0,0,0,0,0,0,0,0,0,0,0,0,0,0,0,0,0,0,0,0,0,0,0],"sum_hessian":[3.8056992E3,3.38577E3,4.1992914E2,3.109556E3,2.7621423E2,2.7161743E2,1.483117E2,2.5752083E3,5.343476E2,8.186003E1,1.9435422E2,2.2253043E2,4.9086998E1,9.359045E1,5.472126E1,6.2373848E1,2.5128345E3,3.2122562E2,2.1312196E2,6.6346784E0,7.522535E1,7.9176476E1,1.1517774E2,2.5837246E1,1.9669318E2,7.4781833E0,4.1608814E1,7.771845E1,1.5871998E1,2.2200996E1,3.2520264E1],"tree_param":{"num_deleted":"0","num_feature":"41","num_nodes":"31","size_leaf_vector":"1"}},{"base_weights":[-2.8216213E-3,1.0202543E-1,-8.335623E-1,1.0680653E-1,-1.1004069E0,-9.7865194E-1,-7.223201E-1,5.1136527E-2,2.0415401E-1,-2.2261137E-2,-7.3264085E-2,-1.0048499E0,-6.346669E-3,-7.9207253E-1,-1.702351E-1,4.1939267E-3,-5.901396E-3,-3.847278E-3,1.3431142E-2,-6.464756E-2,-4.5230255E-2,-3.793728E-2,-7.407373E-2,5.9880107E-3,-4.3362252E-2],"categories":[],"categories_nodes":[],"categories_segments":[],"categories_sizes":[],"default_left":[0,0,0,0,0,0,0,0,0,0,0,0,0,0,0,0,0,0,0,0,0,0,0,0,0],"id":9,"left_children":[1,3,5,7,9,11,13,15,17,-1,-1,19,-1,21,23,-1,-1,-1,-1,-1,-1,-1,-1,-1,-1],"loss_changes":[3.2946622E2,1.942664E1,6.1348267E0,1.8124416E1,2.5487576E0,3.914383E0,9.251915E0,1.1808712E1,2.2077297E1,0E0,0E0,3.901657E0,0E0,3.8418427E0,5.887989E0,0E0,0E0,0E0,0E0,0E0,0E0,0E0,0E0,0E0,0E0],"parents":[2147483647,0,0,1,1,2,2,3,3,4,4,5,5,6,6,7,7,8,8,11,11,13,13,14,14],"right_children":[2,4,6,8,10,12,14,16,18,-1,-1,20,-1,22,24,-1,-1,-1,-1,-1,-1,-1,-1,-1,-1],"split_conditions":[1E0,1.6462373E0,3.7793142E-1,7.857143E1,6.5060024E0,1.749265E0,1.475E1,1.525E1,-4.1102287E-1,-2.2261137E-2,-7.3264085E-2,-6.327912E-3,-6.346669E-3,1.0385303E0,2.7558002E0,4.1939267E-3,-5.901396E-3,-3.847278E-3,1.3431142E-2,-6.464756E-2,-4.5230255E-2,-3.793728E-2,-7.407373E-2,5.9880107E-3,-4.3362252E-2],"split_indices":[38,1,1,0,7,7,12,12,9,0,0,8,0,1,3,0,0,0,0,0,0,0,0,0,0],"split_type":[0,0,0,0,0,0,0,0,0,0,0,0,0,0,0,0,0,0,0,0,0,0,0,0,0],"sum_hessian":[3.7806128E3,3.3577156E3,4.2289713E2,3.3453252E3,1.2390493E1,1.8014389E2,2.4275325E2,2.1292173E3,1.216108E3,5.2262425E0,7.1642504E0,1.7459377E2,5.5501223E0,2.1513731E2,2.7615936E1,1.7843567E3,3.448605E2,2.2683957E2,9.8926843E2,4.1997124E1,1.3259663E2,2.0722047E2,7.9168324E0,2.0086855E1,7.529081E0],"tree_param":{"num_deleted":"0","num_feature":"41","num_nodes":"25","size_leaf_vector":"1"}},{"base_weights":[-3.0810628E-3,-1.589762E-1,1.0589372E-1,-7.907551E-1,7.0609264E-2,-3.516256E-1,1.2070771E-1,-8.8202024E-1,-5.8691365E-1,-3.3249255E-2,1.9582205E-1,-5.3791165E-1,4.6389896E-1,1.3794288E-1,-1.5837435E-1,-4.9381156E-2,-3.1241465E-2,2.0661443E-2,-3.233542E-2,-6.3047685E-2,-8.585534E-4,1.18995765E-2,-1.9322261E-2,1.2344102E-2,-3.8001385E-2,4.8284512E-2,-8.490302E-3,1.146754E-3,9.113689E-3,-2.8819105E-2,4.6042926E-4],"categories":[],"categories_nodes":[],"categories_segments":[],"categories_sizes":[],"default_left":[0,0,0,0,0,0,0,0,0,0,0,0,0,0,0,0,0,0,0,0,0,0,0,0,0,0,0,0,0,0,0],"id":10,"left_children":[1,3,5,7,9,11,13,15,17,19,21,23,25,27,29,-1,-1,-1,-1,-1,-1,-1,-1,-1,-1,-1,-1,-1,-1,-1,-1],"loss_changes":[6.464558E1,2.271369E2,1.52222E1,7.2467957E0,1.4951221E1,1.0959829E1,1.0460413E1,7.1588135E0,8.165058E0,1.2394762E1,1.2889019E1,1.0272289E1,4.5033073E0,1.0419373E1,8.880238E0,0E0,0E0,0E0,0E0,0E0,0E0,0E0,0E0,0E0,0E0,0E0,0E0,0E0,0E0,0E0,0E0],"parents":[2147483647,0,0,1,1,2,2,3,3,4,4,5,5,6,6,7,7,8,8,9,9,10,10,11,11,12,12,13,13,14,14],"right_children":[2,4,6,8,10,12,14,16,18,20,22,24,26,28,30,-1,-1,-1,-1,-1,-1,-1,-1,-1,-1,-1,-1,-1,-1,-1,-1],"split_conditions":[1E0,1E0,9.5E0,7.541322E1,7.586207E1,1E0,1.101642E0,4.2419615E-3,5.347496E-1,3.917526E1,6.7839193E-1,1.0619113E0,1.6108824E-1,8.680894E-1,1.3098879E0,-4.9381156E-2,-3.1241465E-2,2.0661443E-2,-3.233542E-2,-6.3047685E-2,-8.585534E-4,1.18995765E-2,-1.9322261E-2,1.2344102E-2,-3.8001385E-2,4.8284512E-2,-8.490302E-3,1.146754E-3,9.113689E-3,-2.8819105E-2,4.6042926E-4],"split_indices":[39,37,12,0,0,15,4,8,7,0,4,3,4,6,4,0,0,0,0,0,0,0,0,0,0,0,0,0,0,0,0],"split_type":[0,0,0,0,0,0,0,0,0,0,0,0,0,0,0,0,0,0,0,0,0,0,0,0,0,0,0,0,0,0,0],"sum_hessian":[3.8032332E3,1.5645662E3,2.238667E3,4.1636325E2,1.1482029E3,6.949917E1,2.1691677E3,2.853E2,1.3106326E2,6.2802124E2,5.2018164E2,5.685295E1,1.2646215E1,2.0434753E3,1.25692474E2,2.0024088E2,8.505912E1,7.06029E0,1.24002975E2,7.1174545E0,6.209038E2,4.8560403E2,3.4577583E1,1.2516701E1,4.4336254E1,6.7653103E0,5.8809047E0,5.689537E2,1.4745216E3,3.5272274E1,9.0420204E1],"tree_param":{"num_deleted":"0","num_feature":"41","num_nodes":"31","size_leaf_vector":"1"}},{"base_weights":[-2.0165723E-3,-1.4853063E-1,9.996396E-2,-7.376077E-1,-9.165988E-2,6.514663E-2,2.920695E-1,-6.201576E-1,-1.3263423E0,-2.8849903E-1,-1.9655814E-2,-1.4665553E-1,9.933453E-2,3.5972345E-1,-7.8480864E-1,1.1497912E-2,-3.5110515E-2,-7.671445E-2,-2.6155984E-2,3.1263386E-3,-1.8486457E-2,-3.2201838E-3,1.3731395E-2,-2.593557E-2,-8.783986E-4,5.243889E-3,-4.4555962E-2,2.7792245E-2,8.384573E-3,-7.13897E-2,2.4817552E-2],"categories":[],"categories_nodes":[],"categories_segments":[],"categories_sizes":[],"default_left":[0,0,0,0,0,0,0,0,0,0,0,0,0,0,0,0,0,0,0,0,0,0,0,0,0,0,0,0,0,0,0],"id":11,"left_children":[1,3,5,7,9,11,13,15,17,19,21,23,25,27,29,-1,-1,-1,-1,-1,-1,-1,-1,-1,-1,-1,-1,-1,-1,-1,-1],"loss_changes":[5.673601E1,5.21386E1,1.4955814E1,8.654572E0,2.0152592E1,1.3748222E1,2.5288105E1,8.262802E0,2.8580818E0,1.0882746E1,1.3744911E1,1.2670195E1,9.062641E0,1.2094982E1,1.768044E1,0E0,0E0,0E0,0E0,0E0,0E0,0E0,0E0,0E0,0E0,0E0,0E0,0E0,0E0,0E0,0E0],"parents":[2147483647,0,0,1,1,2,2,3,3,4,4,5,5,6,6,7,7,8,8,9,9,10,10,11,11,12,12,13,13,14,14],"right_children":[2,4,6,8,10,12,14,16,18,20,22,24,26,28,30,-1,-1,-1,-1,-1,-1,-1,-1,-1,-1,-1,-1,-1,-1,-1,-1],"split_conditions":[1E0,2.9953158E-1,1E0,5.8715595E1,7.8800905E-1,1.2056285E0,4.293914E0,2.0526217E-1,8.735914E-3,5.502008E1,-3.522367E-2,-5.835327E-3,1.6462373E0,2E0,2.6638253E-2,1.1497912E-2,-3.5110515E-2,-7.671445E-2,-2.6155984E-2,3.1263386E-3,-1.8486457E-2,-3.2201838E-3,1.3731395E-2,-2.593557E-2,-8.783986E-4,5.243889E-3,-4.4555962E-2,2.7792245E-2,8.384573E-3,-7.13897E-2,2.4817552E-2],"split_indices":[39,6,25,0,6,3,3,4,8,0,9,8,1,13,8,0,0,0,0,0,0,0,0,0,0,0,0,0,0,0,0],"split_type":[0,0,0,0,0,0,0,0,0,0,0,0,0,0,0,0,0,0,0,0,0,0,0,0,0,0,0,0,0,0,0],"sum_hessian":[3.7951953E3,1.5573357E3,2.2378596E3,1.3605759E2,1.4212781E3,1.895633E3,3.422266E2,1.1514084E2,2.0916752E1,3.798545E2,1.0414236E3,2.6299942E2,1.6326337E3,3.22624E2,1.960262E1,9.976429E0,1.0516441E2,1.5892238E1,5.024514E0,7.142602E1,3.084285E2,9.04647E2,1.3677663E2,6.6967514E1,1.960319E2,1.6244363E3,8.197324E0,1.5867519E2,1.639488E2,1.2975868E1,6.6267514E0],"tree_param":{"num_deleted":"0","num_feature":"41","num_nodes":"31","size_leaf_vector":"1"}},{"base_weights":[8.575709E-3,-1.257392E-1,1.0298312E-1,-5.0202096E-1,-5.2786592E-2,6.359537E-2,2.1621037E-1,-7.394097E-1,-3.0186048E-1,-3.5293445E-2,-7.3594695E-1,2.5610674E-2,2.5162995E-1,2.5438592E-1,-2.7741492E-1,2.0041311E-2,-3.9933212E-2,-4.407355E-2,-7.0836E-3,-6.348319E-3,3.2585242E-3,1.8177124E-2,-4.7844958E-2,-2.9106962E-3,8.092647E-3,1.5709795E-2,-4.2840704E-2,2.0507026E-2,8.905296E-3,1.1121025E-2,-3.946826E-2],"categories":[],"categories_nodes":[],"categories_segments":[],"categories_sizes":[],"default_left":[0,0,0,0,0,0,0,0,0,0,0,0,0,0,0,0,0,0,0,0,0,0,0,0,0,0,0,0,0,0,0],"id":12,"left_children":[1,3,5,7,9,11,13,15,17,19,21,23,25,27,29,-1,-1,-1,-1,-1,-1,-1,-1,-1,-1,-1,-1,-1,-1,-1,-1],"loss_changes":[4.8301186E1,4.313405E1,9.961998E0,1.1903412E1,1.5725893E1,1.1856817E1,1.0941502E1,8.161541E0,1.2887897E1,1.1854143E1,8.330214E0,1.5803095E1,1.96199E1,6.295002E0,1.0894783E1,0E0,0E0,0E0,0E0,0E0,0E0,0E0,0E0,0E0,0E0,0E0,0E0,0E0,0E0,0E0,0E0],"parents":[2147483647,0,0,1,1,2,2,3,3,4,4,5,5,6,6,7,7,8,8,9,9,10,10,11,11,12,12,13,13,14,14],"right_children":[2,4,6,8,10,12,14,16,18,20,22,24,26,28,30,-1,-1,-1,-1,-1,-1,-1,-1,-1,-1,-1,-1,-1,-1,-1,-1],"split_conditions":[1E0,4.7689736E-1,8.2E1,2.3129075E0,1E0,1E0,9.631031E-1,3.968254E-2,7.3517546E-2,7.615894E1,2.9617375E-1,5.24905E-1,4.1695113E0,2.5053616E0,3.9469427E-1,2.0041311E-2,-3.9933212E-2,-4.407355E-2,-7.0836E-3,-6.348319E-3,3.2585242E-3,1.8177124E-2,-4.7844958E-2,-2.9106962E-3,8.092647E-3,1.5709795E-2,-4.2840704E-2,2.0507026E-2,8.905296E-3,1.1121025E-2,-3.946826E-2],"split_indices":[39,6,0,2,26,25,1,4,6,0,1,1,3,5,4,0,0,0,0,0,0,0,0,0,0,0,0,0,0,0,0],"split_type":[0,0,0,0,0,0,0,0,0,0,0,0,0,0,0,0,0,0,0,0,0,0,0,0,0,0,0,0,0,0,0],"sum_hessian":[3.8071235E3,1.571291E3,2.2358325E3,2.5421193E2,1.3170791E3,1.6599548E3,5.758778E2,1.1505888E2,1.3915303E2,1.2852212E3,3.1857975E1,1.3819288E3,2.78026E2,5.3498804E2,4.0889774E1,5.399114E0,1.09659775E2,2.9155802E1,1.0999724E2,6.718745E2,6.133466E2,5.2228737E0,2.6635101E1,8.558996E2,5.2602924E2,2.6384958E2,1.4176407E1,1.744353E2,3.605527E2,2.0975847E1,1.9913929E1],"tree_param":{"num_deleted":"0","num_feature":"41","num_nodes":"31","size_leaf_vector":"1"}},{"base_weights":[4.659268E-3,9.459942E-2,-7.2879744E-1,-9.253791E-1,1.00735195E-1,-7.68931E-1,-2.554649E-1,-5.3062874E-1,-8.022135E-2,1.2186868E-1,-1.5083317E-1,-7.2828174E-1,-1.0764195E0,-6.5228367E-1,4.9497366E-1,2.9886966E-3,-5.0019186E-2,-1.7880157E-2,6.5792995E-3,3.181012E-4,-2.4032092E-2,-4.1342437E-2,-2.5408495E-2,-7.560485E-2,-3.3879586E-2,-5.504808E-2,-1.0397672E-2,-5.9217117E-3,5.5239957E-2],"categories":[],"categories_nodes":[],"categories_segments":[],"categories_sizes":[],"default_left":[0,0,0,0,0,0,0,0,0,0,0,0,0,0,0,0,0,0,0,0,0,0,0,0,0,0,0,0,0],"id":13,"left_children":[1,3,5,7,9,11,13,15,-1,17,19,21,23,25,27,-1,-1,-1,-1,-1,-1,-1,-1,-1,-1,-1,-1,-1,-1],"loss_changes":[2.4995766E2,2.1216347E1,7.666031E0,4.5849266E0,1.7860107E1,3.9787598E0,1.0402369E1,4.0311317E0,0E0,1.44736595E1,1.3509457E1,6.9486084E0,6.342697E0,4.2710075E0,4.7229633E0,0E0,0E0,0E0,0E0,0E0,0E0,0E0,0E0,0E0,0E0,0E0,0E0,0E0,0E0],"parents":[2147483647,0,0,1,1,2,2,3,3,4,4,5,5,6,6,7,7,9,9,10,10,11,11,12,12,13,13,14,14],"right_children":[2,4,6,8,10,12,14,16,-1,18,20,22,24,26,28,-1,-1,-1,-1,-1,-1,-1,-1,-1,-1,-1,-1,-1,-1],"split_conditions":[1E0,3.917526E1,1E0,5.841006E-1,9.140462E0,4.0147486E0,4.2032862E-1,-1.3098879E0,-8.022135E-2,9.5E0,-2.2766079E-1,1.4583768E0,6.2E1,2.2974734E0,3.49407E-1,2.9886966E-3,-5.0019186E-2,-1.7880157E-2,6.5792995E-3,3.181012E-4,-2.4032092E-2,-4.1342437E-2,-2.5408495E-2,-7.560485E-2,-3.3879586E-2,-5.504808E-2,-1.0397672E-2,-5.9217117E-3,5.5239957E-2],"split_indices":[38,0,28,1,2,3,1,9,0,12,9,7,11,2,6,0,0,0,0,0,0,0,0,0,0,0,0,0,0],"split_type":[0,0,0,0,0,0,0,0,0,0,0,0,0,0,0,0,0,0,0,0,0,0,0,0,0,0,0,0,0],"sum_hessian":[3.787075E3,3.3741863E3,4.128887E2,1.928051E1,3.3549058E3,3.8004077E2,3.2847916E1,1.3319138E1,5.961373E0,3.0953875E3,2.595183E2,3.3864166E2,4.1399117E1,2.157188E1,1.1276034E1,6.288416E0,7.0307217E0,6.0775963E1,3.0346116E3,1.7641508E2,8.310322E1,2.3199626E2,1.066454E2,1.845147E1,2.2947647E1,9.998125E0,1.1573755E1,6.0232205E0,5.252814E0],"tree_param":{"num_deleted":"0","num_feature":"41","num_nodes":"29","size_leaf_vector":"1"}},{"base_weights":[2.8124156E-3,8.613403E-2,-6.88788E-1,-4.5969972E-1,9.703862E-2,-7.744971E-1,-4.7018397E-1,2.4558347E-1,-6.159653E-1,1.3161956E-1,-1.9582925E-2,-8.832247E-1,-5.4231864E-1,-6.833034E-2,-7.252164E-1,-6.709607E-3,3.4941357E-2,1.4562746E-2,-3.8420744E-2,7.1189995E-3,-1.895986E-2,-3.9896186E-2,1.547749E-4,-4.9788717E-2,-3.0722607E-2,-1.1627674E-2,-4.6472836E-2,-1.9920517E-2,3.4669656E-2,-4.37901E-2,3.540105E-3],"categories":[],"categories_nodes":[],"categories_segments":[],"categories_sizes":[],"default_left":[0,0,0,0,0,0,0,0,0,0,0,0,0,0,0,0,0,0,0,0,0,0,0,0,0,0,0,0,0,0,0],"id":14,"left_children":[1,3,5,7,9,11,13,15,17,19,21,23,25,27,29,-1,-1,-1,-1,-1,-1,-1,-1,-1,-1,-1,-1,-1,-1,-1,-1],"loss_changes":[2.1947769E2,2.0276684E1,7.3088074E0,7.508111E0,1.3445791E1,6.908386E0,1.2032085E1,2.3008842E0,7.820879E0,1.4186661E1,1.3474833E1,5.3690033E0,1.128717E1,1.2061431E1,8.69418E0,0E0,0E0,0E0,0E0,0E0,0E0,0E0,0E0,0E0,0E0,0E0,0E0,0E0,0E0,0E0,0E0],"parents":[2147483647,0,0,1,1,2,2,3,3,4,4,5,5,6,6,7,7,8,8,9,9,10,10,11,11,12,12,13,13,14,14],"right_children":[2,4,6,8,10,12,14,16,18,20,22,24,26,28,30,-1,-1,-1,-1,-1,-1,-1,-1,-1,-1,-1,-1,-1,-1,-1,-1],"split_conditions":[1E0,9.5E0,1E0,1.0619113E0,1.45E1,7.553648E1,5.684305E-1,9.334416E-1,-1.0526316E0,1E0,-5.056342E-2,4.2419615E-3,3.1183913E0,3.8583717E-1,3.469022E0,-6.709607E-3,3.4941357E-2,1.4562746E-2,-3.8420744E-2,7.1189995E-3,-1.895986E-2,-3.9896186E-2,1.547749E-4,-4.9788717E-2,-3.0722607E-2,-1.1627674E-2,-4.6472836E-2,-1.9920517E-2,3.4669656E-2,-4.37901E-2,3.540105E-3],"split_indices":[38,12,18,3,12,0,7,5,8,26,8,8,3,7,5,0,0,0,0,0,0,0,0,0,0,0,0,0,0,0,0],"split_type":[0,0,0,0,0,0,0,0,0,0,0,0,0,0,0,0,0,0,0,0,0,0,0,0,0,0,0,0,0,0,0],"sum_hessian":[3.8066765E3,3.398154E3,4.0852234E2,6.5752014E1,3.332402E3,2.9163626E2,1.1688609E2,1.1822264E1,5.392975E1,2.570162E3,7.6224005E2,1.9671286E2,9.49234E1,4.5872654E1,7.101344E1,6.8154693E0,5.0067945E0,7.6276226E0,4.6302124E1,2.5178445E3,5.2317497E1,2.0612686E1,7.416274E2,1.3674532E2,5.996755E1,5.3620285E1,4.1303112E1,3.2336945E1,1.3535707E1,5.9632355E1,1.1381089E1],"tree_param":{"num_deleted":"0","num_feature":"41","num_nodes":"31","size_leaf_vector":"1"}},{"base_weights":[-1.0373925E-3,7.780115E-2,-6.60002E-1,8.266072E-2,-1.0178274E0,-5.9228927E-1,-9.17021E-1,2.1098526E-1,5.5468183E-2,-6.522813E-2,-1.9987375E-2,-6.9738007E-1,-2.0665699E-1,-1.2671309E0,-6.302464E-1,9.360503E-3,5.6629874E-2,-5.679188E-3,4.0556244E-3,-4.04254E-2,-2.2920182E-2,2.1044742E-2,-1.9554686E-2,-3.1763893E-2,-7.1348116E-2,-1.02722375E-2,-4.5606848E-2],"categories":[],"categories_nodes":[],"categories_segments":[],"categories_sizes":[],"default_left":[0,0,0,0,0,0,0,0,0,0,0,0,0,0,0,0,0,0,0,0,0,0,0,0,0,0,0],"id":15,"left_children":[1,3,5,7,9,11,13,15,17,-1,-1,19,21,23,25,-1,-1,-1,-1,-1,-1,-1,-1,-1,-1,-1,-1],"loss_changes":[1.9659398E2,1.8079195E1,6.4941254E0,1.1733198E1,2.1368456E0,1.2940491E1,7.4838867E0,1.2675524E1,1.2055264E1,0E0,0E0,6.356308E0,8.332012E0,2.7447777E0,5.4811783E0,0E0,0E0,0E0,0E0,0E0,0E0,0E0,0E0,0E0,0E0,0E0,0E0],"parents":[2147483647,0,0,1,1,2,2,3,3,4,4,5,5,6,6,7,7,8,8,11,11,12,12,13,13,14,14],"right_children":[2,4,6,8,10,12,14,16,18,-1,-1,20,22,24,26,-1,-1,-1,-1,-1,-1,-1,-1,-1,-1,-1,-1],"split_conditions":[1E0,1.6462373E0,2.927199E0,1.8174746E0,3.1631901E0,1.4492812E0,6.2E1,7.6549883E0,5.7E1,-6.522813E-2,-1.9987375E-2,1E0,6.536885E1,1.9593903E0,6.6E1,9.360503E-3,5.6629874E-2,-5.679188E-3,4.0556244E-3,-4.04254E-2,-2.2920182E-2,2.1044742E-2,-1.9554686E-2,-3.1763893E-2,-7.1348116E-2,-1.02722375E-2,-4.5606848E-2],"split_indices":[38,1,5,2,2,7,11,3,11,0,0,18,0,7,11,0,0,0,0,0,0,0,0,0,0,0,0],"split_type":[0,0,0,0,0,0,0,0,0,0,0,0,0,0,0,0,0,0,0,0,0,0,0,0,0,0,0],"sum_hessian":[3.782172E3,3.3788127E3,4.0335934E2,3.364813E3,1.3999781E1,3.218666E2,8.1492714E1,5.871638E2,2.7776492E3,8.804563E0,5.1952176E0,2.5230199E2,6.956463E1,3.515501E1,4.63377E1,5.735703E2,1.3593487E1,3.6540475E2,2.4122444E3,1.7059113E2,8.171087E1,1.5509839E1,5.4054787E1,8.101692E0,2.7053318E1,1.917312E1,2.7164581E1],"tree_param":{"num_deleted":"0","num_feature":"41","num_nodes":"27","size_leaf_vector":"1"}},{"base_weights":[-1.1111227E-3,7.450566E-2,-6.401626E-1,1.0816774E-1,-8.7988906E-2,-7.325485E-1,-4.0605363E-1,3.857222E-2,1.9897185E-1,7.768157E-2,-3.10815E-1,-6.654348E-1,-1.1710136E0,-4.7093603E-1,3.4576643E-2,5.2920594E-3,-4.562815E-3,5.2872854E-3,2.3323042E-2,6.0855933E-3,-5.26155E-2,-2.182603E-2,-1.9233469E-3,-2.746861E-2,-4.697795E-2,-2.1369357E-2,-6.42437E-2,-1.4019184E-2,-3.994746E-2],"categories":[],"categories_nodes":[],"categories_segments":[],"categories_sizes":[],"default_left":[0,0,0,0,0,0,0,0,0,0,0,0,0,0,0,0,0,0,0,0,0,0,0,0,0,0,0,0,0],"id":16,"left_children":[1,3,5,7,9,11,13,15,17,19,21,23,25,27,-1,-1,-1,-1,-1,-1,-1,-1,-1,-1,-1,-1,-1,-1,-1],"loss_changes":[1.8248537E2,1.848037E1,8.344467E0,1.7673016E1,2.1436735E1,7.615097E0,8.53706E0,1.3852955E1,3.0216179E1,1.6720388E1,8.458326E0,7.4284515E0,2.5456123E0,6.6179447E0,0E0,0E0,0E0,0E0,0E0,0E0,0E0,0E0,0E0,0E0,0E0,0E0,0E0,0E0,0E0],"parents":[2147483647,0,0,1,1,2,2,3,3,4,4,5,5,6,6,7,7,8,8,9,9,10,10,11,11,12,12,13,13],"right_children":[2,4,6,8,10,12,14,16,18,20,22,24,26,28,-1,-1,-1,-1,-1,-1,-1,-1,-1,-1,-1,-1,-1,-1,-1],"split_conditions":[1E0,1.5E1,1E0,1.05E1,3.7483975E-1,9.5996255E-1,5.139153E0,3E0,4E0,1E0,4E0,1E0,-2.7616805E-1,1E0,3.4576643E-2,5.2920594E-3,-4.562815E-3,5.2872854E-3,2.3323042E-2,6.0855933E-3,-5.26155E-2,-2.182603E-2,-1.9233469E-3,-2.746861E-2,-4.697795E-2,-2.1369357E-2,-6.42437E-2,-1.4019184E-2,-3.994746E-2],"split_indices":[38,12,18,12,1,4,3,13,13,15,13,24,6,22,0,0,0,0,0,0,0,0,0,0,0,0,0,0,0],"split_type":[0,0,0,0,0,0,0,0,0,0,0,0,0,0,0,0,0,0,0,0,0,0,0,0,0,0,0,0,0],"sum_hessian":[3.7743782E3,3.3758132E3,3.9856503E2,2.796773E3,5.790401E2,2.8425934E2,1.14305725E2,1.5840927E3,1.2126804E3,3.3248785E2,2.4655226E2,2.4870839E2,3.5550934E1,1.0846489E2,5.840829E0,1.0435668E3,5.405258E2,9.0030023E2,3.1238025E2,3.2087714E2,1.1610737E1,1.6827847E2,7.827379E1,1.7683961E2,7.186877E1,5.351787E0,3.0199146E1,6.9781555E1,3.8683334E1],"tree_param":{"num_deleted":"0","num_feature":"41","num_nodes":"29","size_leaf_vector":"1"}},{"base_weights":[-9.415513E-3,-2.5922918E-1,2.4401344E-2,-5.549882E-1,-1.3837682E-1,-6.2016428E-2,7.896738E-2,-4.0881392E-1,-1.1539977E0,-4.2363343E-1,-3.9899472E-2,-3.568259E-2,-3.509916E-1,3.847903E-2,2.9755253E-1,4.0457312E-2,-2.4305208E-2,-3.8159177E-2,-6.846347E-2,-1.4275575E-2,-7.461696E-2,1.4815148E-3,-5.613215E-2,1.0586374E-5,-1.550656E-2,-3.6441244E-2,-2.4954756E-3,2.2478702E-3,-5.9823908E-2,1.8184727E-2,-3.5005536E-2],"categories":[],"categories_nodes":[],"categories_segments":[],"categories_sizes":[],"default_left":[0,0,0,0,0,0,0,0,0,0,0,0,0,0,0,0,0,0,0,0,0,0,0,0,0,0,0,0,0,0,0],"id":17,"left_children":[1,3,5,7,9,11,13,15,17,19,21,23,25,27,29,-1,-1,-1,-1,-1,-1,-1,-1,-1,-1,-1,-1,-1,-1,-1,-1],"loss_changes":[3.1823723E1,1.5976778E1,1.5651624E1,1.0907093E1,8.977417E0,9.764694E0,1.7992859E1,1.0372925E1,1.053505E0,1.1687518E1,1.8034729E1,1.1610857E1,1.2157599E1,1.3795214E1,2.1224289E1,0E0,0E0,0E0,0E0,0E0,0E0,0E0,0E0,0E0,0E0,0E0,0E0,0E0,0E0,0E0,0E0],"parents":[2147483647,0,0,1,1,2,2,3,3,4,4,5,5,6,6,7,7,8,8,9,9,10,10,11,11,12,12,13,13,14,14],"right_children":[2,4,6,8,10,12,14,16,18,20,22,24,26,28,30,-1,-1,-1,-1,-1,-1,-1,-1,-1,-1,-1,-1,-1,-1,-1,-1],"split_conditions":[4.7689736E-1,2.1369178E0,1E0,1.8743088E0,8.263169E-1,1E0,1E0,3.732736E-2,8.4190834E-1,9.8781526E-1,7.456802E0,6.78317E0,7.586207E1,1.6462373E0,4.293914E0,4.0457312E-2,-2.4305208E-2,-3.8159177E-2,-6.846347E-2,-1.4275575E-2,-7.461696E-2,1.4815148E-3,-5.613215E-2,1.0586374E-5,-1.550656E-2,-3.6441244E-2,-2.4954756E-3,2.2478702E-3,-5.9823908E-2,1.8184727E-2,-3.5005536E-2],"split_indices":[6,2,39,2,3,15,25,4,5,5,2,2,0,1,3,0,0,0,0,0,0,0,0,0,0,0,0,0,0,0,0],"split_type":[0,0,0,0,0,0,0,0,0,0,0,0,0,0,0,0,0,0,0,0,0,0,0,0,0,0,0,0,0,0,0],"sum_hessian":[3.7653025E3,4.481368E2,3.3171655E3,1.2895534E2,3.191815E2,1.2838151E3,2.0333506E3,1.0501208E2,2.394326E1,8.106395E1,2.3811754E2,1.1776235E3,1.0619144E2,1.7165681E3,3.167825E2,5.7012544E0,9.931082E1,1.0118635E1,1.3824624E1,7.290827E1,8.155674E0,2.2466313E2,1.3454397E1,1.0423031E3,1.353205E2,4.6463226E1,5.9728214E1,1.7085688E3,7.9992595E0,2.976825E2,1.9099987E1],"tree_param":{"num_deleted":"0","num_feature":"41","num_nodes":"31","size_leaf_vector":"1"}},{"base_weights":[-6.862927E-3,6.2675156E-2,-6.144372E-1,2.1478716E-1,2.9789232E-2,-7.131079E-1,-3.7844658E-1,3.34141E-1,1.5766086E-2,-1.3289133E-2,1.526596E-1,-6.581692E-1,-1.1901017E0,-5.3430557E-2,-6.097714E-1,1.3657748E-2,4.642407E-2,-6.0145347E-3,1.864911E-2,8.6903817E-4,-9.7860135E-3,3.309241E-3,2.4061216E-2,-3.7886273E-2,-4.895068E-3,-6.692532E-2,-3.1807728E-2,5.328235E-3,-5.2389205E-2,-4.1357588E-2,1.649134E-2],"categories":[],"categories_nodes":[],"categories_segments":[],"categories_sizes":[],"default_left":[0,0,0,0,0,0,0,0,0,0,0,0,0,0,0,0,0,0,0,0,0,0,0,0,0,0,0,0,0,0,0],"id":18,"left_children":[1,3,5,7,9,11,13,15,17,19,21,23,25,27,29,-1,-1,-1,-1,-1,-1,-1,-1,-1,-1,-1,-1,-1,-1,-1,-1],"loss_changes":[1.6022783E2,1.7016731E1,8.799118E0,1.4360498E1,1.4818644E1,6.3841705E0,8.761108E0,1.3447704E1,1.1114875E1,1.1605053E1,2.0616535E1,1.3730873E1,1.3690491E0,8.023044E0,1.4209513E1,0E0,0E0,0E0,0E0,0E0,0E0,0E0,0E0,0E0,0E0,0E0,0E0,0E0,0E0,0E0,0E0],"parents":[2147483647,0,0,1,1,2,2,3,3,4,4,5,5,6,6,7,7,8,8,9,9,10,10,11,11,12,12,13,13,14,14],"right_children":[2,4,6,8,10,12,14,16,18,20,22,24,26,28,30,-1,-1,-1,-1,-1,-1,-1,-1,-1,-1,-1,-1,-1,-1,-1,-1],"split_conditions":[1E0,1.8174746E0,1E0,2.5987039E0,1E0,4.1695113E0,6.2365556E-1,6.7476386E-1,1.6415976E0,7.6871557E0,-6.486996E-2,2.1118412E0,6.8E1,3.895445E0,3.469022E0,1.3657748E-2,4.642407E-2,-6.0145347E-3,1.864911E-2,8.6903817E-4,-9.7860135E-3,3.309241E-3,2.4061216E-2,-3.7886273E-2,-4.895068E-3,-6.692532E-2,-3.1807728E-2,5.328235E-3,-5.2389205E-2,-4.1357588E-2,1.649134E-2],"split_indices":[38,2,18,3,32,3,7,1,2,2,9,7,11,2,5,0,0,0,0,0,0,0,0,0,0,0,0,0,0,0,0],"split_type":[0,0,0,0,0,0,0,0,0,0,0,0,0,0,0,0,0,0,0,0,0,0,0,0,0,0,0,0,0,0,0],"sum_hessian":[3.790503E3,3.4020305E3,3.8847232E2,6.037745E2,2.798256E3,2.7251047E2,1.1596186E2,3.7700436E2,2.2677011E2,2.0725217E3,7.257345E2,2.4649925E2,2.6011208E1,4.8728416E1,6.723345E1,3.432433E2,3.3761055E1,1.6470166E2,6.206845E1,1.775015E3,2.9750665E2,5.7547656E2,1.5025793E2,2.0900743E2,3.7491814E1,1.9398085E1,6.613124E0,4.2743633E1,5.984782E0,5.4698395E1,1.2535054E1],"tree_param":{"num_deleted":"0","num_feature":"41","num_nodes":"31","size_leaf_vector":"1"}},{"base_weights":[-1.0676967E-2,-2.05219E-1,4.1650407E-2,-3.8556686E-1,-3.1149587E-2,-4.4911627E-2,9.513246E-2,-7.0497465E-1,-9.3016505E-2,5.1194966E-2,-8.225618E-1,-5.937269E-1,7.682583E-2,-4.3424424E-2,1.00815766E-1,4.212517E-3,-3.76759E-2,-2.8062662E-2,5.8648334E-4,2.2852225E-2,-6.6006737E-4,-6.36887E-2,-1.6862178E-2,4.7935423E-2,-3.2427657E-2,7.559128E-3,-4.013333E-3,-2.0472089E-2,5.538523E-3],"categories":[],"categories_nodes":[],"categories_segments":[],"categories_sizes":[],"default_left":[0,0,0,0,0,0,0,0,0,0,0,0,0,0,0,0,0,0,0,0,0,0,0,0,0,0,0,0,0],"id":19,"left_children":[1,3,5,7,9,11,13,15,17,19,21,23,25,-1,27,-1,-1,-1,-1,-1,-1,-1,-1,-1,-1,-1,-1,-1,-1],"loss_changes":[3.8327255E1,2.5040749E1,1.3740643E1,3.6551037E1,2.6577023E1,7.579697E1,1.0133295E1,7.2346497E0,1.00944395E1,9.6693325E0,7.986206E0,1.815149E1,1.0861969E1,0E0,9.31263E0,0E0,0E0,0E0,0E0,0E0,0E0,0E0,0E0,0E0,0E0,0E0,0E0,0E0,0E0],"parents":[2147483647,0,0,1,1,2,2,3,3,4,4,5,5,6,6,7,7,8,8,9,9,10,10,11,11,12,12,14,14],"right_children":[2,4,6,8,10,12,14,16,18,20,22,24,26,-1,28,-1,-1,-1,-1,-1,-1,-1,-1,-1,-1,-1,-1,-1,-1],"split_conditions":[6.689105E-1,1E0,1E0,1E0,1.0029916E0,1E0,4.955752E1,3.968254E-2,4.8347614E1,7.6811755E-1,4.2163315E-1,6.2365556E-1,3.096411E0,-4.3424424E-2,9.5E0,4.212517E-3,-3.76759E-2,-2.8062662E-2,5.8648334E-4,2.2852225E-2,-6.6006737E-4,-6.36887E-2,-1.6862178E-2,4.7935423E-2,-3.2427657E-2,7.559128E-3,-4.013333E-3,-2.0472089E-2,5.538523E-3],"split_indices":[6,39,39,37,7,37,0,4,0,5,1,7,5,0,12,0,0,0,0,0,0,0,0,0,0,0,0,0,0],"split_type":[0,0,0,0,0,0,0,0,0,0,0,0,0,0,0,0,0,0,0,0,0,0,0,0,0,0,0,0,0],"sum_hessian":[3.7631638E3,7.9703516E2,2.9661287E3,3.9086115E2,4.0617398E2,1.1328092E3,1.8333195E3,1.8617964E2,2.0468152E2,3.687425E2,3.7431465E1,2.0495528E2,9.2785394E2,9.859136E0,1.8234603E3,1.0745312E1,1.7543433E2,3.662081E1,1.680607E2,4.966128E1,3.1908124E2,1.8555424E1,1.8876043E1,6.428976E0,1.985263E2,6.297917E2,2.980623E2,3.4125523E1,1.7893348E3],"tree_param":{"num_deleted":"0","num_feature":"41","num_nodes":"29","size_leaf_vector":"1"}},{"base_weights":[-3.4439156E-3,6.2383268E-2,-5.8395064E-1,-3.1496537E-1,7.009925E-2,-6.274043E-1,-9.058355E-2,-8.0230385E-2,-7.168772E-1,8.6315945E-2,-1.121424E-1,-7.244285E-1,-4.8691782E-1,-4.7831678E-1,3.318777E-1,-1.7746447E-2,6.2442668E-2,-6.302352E-2,-1.3775091E-2,4.755673E-3,-1.5904402E-2,2.5586607E-3,-2.0155666E-2,-4.4784557E-2,-2.382838E-2,-3.4493234E-2,-1.6012175E-2,7.6370793E-3,-3.8015775E-2,4.1647706E-2,-8.375102E-3],"categories":[],"categories_nodes":[],"categories_segments":[],"categories_sizes":[],"default_left":[0,0,0,0,0,0,0,0,0,0,0,0,0,0,0,0,0,0,0,0,0,0,0,0,0,0,0,0,0,0,0],"id":20,"left_children":[1,3,5,7,9,11,13,15,17,19,21,23,25,27,29,-1,-1,-1,-1,-1,-1,-1,-1,-1,-1,-1,-1,-1,-1,-1,-1],"loss_changes":[1.4263303E2,9.783165E0,8.093048E0,6.2973413E0,9.721287E0,4.407196E0,5.390666E0,1.6379591E1,5.581297E0,1.0768084E1,1.2801321E1,8.254272E0,4.707657E0,3.1528742E0,4.1121497E0,0E0,0E0,0E0,0E0,0E0,0E0,0E0,0E0,0E0,0E0,0E0,0E0,0E0,0E0,0E0,0E0],"parents":[2147483647,0,0,1,1,2,2,3,3,4,4,5,5,6,6,7,7,8,8,9,9,10,10,11,11,12,12,13,13,14,14],"right_children":[2,4,6,8,10,12,14,16,18,20,22,24,26,28,30,-1,-1,-1,-1,-1,-1,-1,-1,-1,-1,-1,-1,-1,-1,-1,-1],"split_conditions":[1E0,9.5E0,1E0,2.057262E0,8.8867426E-1,1.425E1,1E0,1.8008645E0,1.3460191E0,1E0,1E0,7.5E1,7.6535803E-1,3.7540355E-1,-1.3064504E-1,-1.7746447E-2,6.2442668E-2,-6.302352E-2,-1.3775091E-2,4.755673E-3,-1.5904402E-2,2.5586607E-3,-2.0155666E-2,-4.4784557E-2,-2.382838E-2,-3.4493234E-2,-1.6012175E-2,7.6370793E-3,-3.8015775E-2,4.1647706E-2,-8.375102E-3],"split_indices":[38,12,28,3,4,12,18,5,6,26,24,0,7,4,7,0,0,0,0,0,0,0,0,0,0,0,0,0,0,0,0],"split_type":[0,0,0,0,0,0,0,0,0,0,0,0,0,0,0,0,0,0,0,0,0,0,0,0,0,0,0,0,0,0,0],"sum_hessian":[3.7306135E3,3.3514634E3,3.7915027E2,6.635923E1,3.285104E3,3.4820978E2,3.0940485E1,4.264955E1,2.3709675E1,3.0171506E3,2.679534E2,2.0350584E2,1.4470392E2,1.6064415E1,1.487607E1,3.5951878E1,6.6976767E0,9.792974E0,1.3916699E1,2.9536606E3,6.348995E1,1.7215225E2,9.5801155E1,1.1880342E2,8.470242E1,6.3836292E1,8.086763E1,5.1030774E0,1.0961337E1,7.091998E0,7.7840714E0],"tree_param":{"num_deleted":"0","num_feature":"41","num_nodes":"31","size_leaf_vector":"1"}},{"base_weights":[-7.836144E-3,5.8955505E-2,-6.0027164E-1,1.5852286E-2,1.4924642E-1,-7.013253E-1,-3.5728762E-1,3.7086956E-2,-2.6351768E-1,-8.727694E-2,2.0329067E-1,-8.189479E-1,-5.8279413E-1,-6.311934E-1,-5.5454496E-2,-4.1293995E-3,4.7955923E-3,1.7668441E-2,-1.7836874E-2,3.7711374E-2,-7.608093E-3,-3.3355255E-2,1.0865182E-2,-5.7831075E-2,-3.3024576E-2,8.646496E-3,-3.293628E-2,-1.0606227E-2,-3.9729852E-2,1.0177729E-2,-2.3774212E-2],"categories":[],"categories_nodes":[],"categories_segments":[],"categories_sizes":[],"default_left":[0,0,0,0,0,0,0,0,0,0,0,0,0,0,0,0,0,0,0,0,0,0,0,0,0,0,0,0,0,0,0],"id":21,"left_children":[1,3,5,7,9,11,13,15,17,19,21,23,25,27,29,-1,-1,-1,-1,-1,-1,-1,-1,-1,-1,-1,-1,-1,-1,-1,-1],"loss_changes":[1.489603E2,1.3164449E1,9.114746E0,1.3601408E1,1.3990313E1,3.263916E0,9.395577E0,1.5003859E1,9.440154E0,1.1253787E1,1.1001041E1,6.310631E0,7.9824295E0,3.9198952E0,6.119983E0,0E0,0E0,0E0,0E0,0E0,0E0,0E0,0E0,0E0,0E0,0E0,0E0,0E0,0E0,0E0,0E0],"parents":[2147483647,0,0,1,1,2,2,3,3,4,4,5,5,6,6,7,7,8,8,9,9,10,10,11,11,12,12,13,13,14,14],"right_children":[2,4,6,8,10,12,14,16,18,20,22,24,26,28,30,-1,-1,-1,-1,-1,-1,-1,-1,-1,-1,-1,-1,-1,-1,-1,-1],"split_conditions":[1E0,7.992656E1,1E0,8.451595E0,-4.1102287E-1,6.1E1,2.2749565E0,5.9E1,1.0518703E0,2.1950073E0,-3.267571E-1,0E0,3.968254E-2,1.2459165E0,3.9816492E0,-4.1293995E-3,4.7955923E-3,1.7668441E-2,-1.7836874E-2,3.7711374E-2,-7.608093E-3,-3.3355255E-2,1.0865182E-2,-5.7831075E-2,-3.3024576E-2,8.646496E-3,-3.293628E-2,-1.0606227E-2,-3.9729852E-2,1.0177729E-2,-2.3774212E-2],"split_indices":[38,0,18,2,9,11,2,11,3,2,8,8,4,2,2,0,0,0,0,0,0,0,0,0,0,0,0,0,0,0,0],"split_type":[0,0,0,0,0,0,0,0,0,0,0,0,0,0,0,0,0,0,0,0,0,0,0,0,0,0,0,0,0,0,0],"sum_hessian":[3.7626055E3,3.3821948E3,3.8041083E2,2.2901128E3,1.092082E3,2.6734113E2,1.130697E2,2.1291455E3,1.6096724E2,2.0300792E2,8.890741E2,1.3121887E2,1.3612225E2,5.8705116E1,5.4364582E1,7.0152997E2,1.4276155E3,2.0764757E1,1.4020248E2,1.3772016E1,1.892359E2,1.3348433E1,8.7572565E2,3.9897423E1,9.132145E1,1.2311538E1,1.23810715E2,1.7113527E1,4.159159E1,3.3946835E1,2.0417751E1],"tree_param":{"num_deleted":"0","num_feature":"41","num_nodes":"31","size_leaf_vector":"1"}},{"base_weights":[-1.0198739E-2,4.8492316E-2,-5.3843105E-1,6.646897E-2,-1.3536821E-1,-5.2004623E-1,-5.7007026E-2,5.559011E-2,3.577083E-1,1.20210145E-2,-5.084754E-1,-5.4101664E-1,1.6045226E-2,3.0154316E-3,-3.133465E-2,2.9325396E-2,-1.528819E-3,-2.7461757E-3,3.810519E-2,-7.419494E-2,-1.8614087E-2,-2.465641E-2,-4.652366E-2],"categories":[],"categories_nodes":[],"categories_segments":[],"categories_sizes":[],"default_left":[0,0,0,0,0,0,0,0,0,0,0,0,0,0,0,0,0,0,0,0,0,0,0],"id":22,"left_children":[1,3,5,7,9,11,-1,13,15,17,19,21,-1,-1,-1,-1,-1,-1,-1,-1,-1,-1,-1],"loss_changes":[1.1628067E2,1.1166631E1,3.5560913E0,9.725298E0,1.6558372E1,6.624115E0,0E0,9.587143E0,9.840987E0,1.092514E1,1.0773495E1,6.204056E0,0E0,0E0,0E0,0E0,0E0,0E0,0E0,0E0,0E0,0E0,0E0],"parents":[2147483647,0,0,1,1,2,2,3,3,4,4,5,5,7,7,8,8,9,9,10,10,11,11],"right_children":[2,4,6,8,10,12,-1,14,16,18,20,22,-1,-1,-1,-1,-1,-1,-1,-1,-1,-1,-1],"split_conditions":[1E0,8.4328884E-1,9.9580085E-1,6.8510942E0,2.5757806E0,4.1862283E0,-5.7007026E-2,3.9541454E0,3.9927405E-1,2.2970817E0,1.9754755E0,1.7143304E0,1.6045226E-2,3.0154316E-3,-3.133465E-2,2.9325396E-2,-1.528819E-3,-2.7461757E-3,3.810519E-2,-7.419494E-2,-1.8614087E-2,-2.465641E-2,-4.652366E-2],"split_indices":[38,4,1,3,7,7,0,6,4,7,6,6,0,0,0,0,0,0,0,0,0,0,0],"split_type":[0,0,0,0,0,0,0,0,0,0,0,0,0,0,0,0,0,0,0,0,0,0,0],"sum_hessian":[3.7488438E3,3.374785E3,3.7405884E2,3.074791E3,2.9999402E2,3.6477762E2,9.281213E0,2.96522E3,1.09570946E2,2.1573831E2,8.4255714E1,3.5625064E2,8.526982E0,2.9457593E3,1.946061E1,6.862352E1,4.0947426E1,1.9891226E2,1.6826048E1,9.110504E0,7.514521E1,3.1925992E2,3.6990715E1],"tree_param":{"num_deleted":"0","num_feature":"41","num_nodes":"23","size_leaf_vector":"1"}},{"base_weights":[2.0026733E-4,5.3896118E-2,-4.8486355E-1,2.7609847E-2,2.1853389E-1,-4.2224398E-1,-8.598736E-1,5.440645E-2,-1.5790367E-1,5.7805955E-1,8.91348E-2,-5.20801E-1,-1.2993957E-1,-9.66783E-1,-2.8003359E-3,-3.0439476E-2,3.001086E-3,-1.6950838E-2,2.4713688E-3,4.4620898E-2,1.1549296E-2,-1.482894E-2,1.1121561E-2,-4.7079325E-2,-2.2747625E-2,3.0650882E-2,-1.4905763E-2,-5.550533E-2,-3.29187E-2],"categories":[],"categories_nodes":[],"categories_segments":[],"categories_sizes":[],"default_left":[0,0,0,0,0,0,0,0,0,0,0,0,0,0,0,0,0,0,0,0,0,0,0,0,0,0,0,0,0],"id":23,"left_children":[1,3,5,7,9,11,13,15,17,19,21,23,25,27,-1,-1,-1,-1,-1,-1,-1,-1,-1,-1,-1,-1,-1,-1,-1],"loss_changes":[9.744886E1,1.4571999E1,8.393532E0,1.4454197E1,2.1517704E1,9.194321E0,4.448429E0,9.495104E0,1.3798592E1,1.31617775E1,1.7655256E1,6.22435E0,1.0478387E1,1.3104057E0,0E0,0E0,0E0,0E0,0E0,0E0,0E0,0E0,0E0,0E0,0E0,0E0,0E0,0E0,0E0],"parents":[2147483647,0,0,1,1,2,2,3,3,4,4,5,5,6,6,7,7,8,8,9,9,10,10,11,11,12,12,13,13],"right_children":[2,4,6,8,10,12,14,16,18,20,22,24,26,28,-1,-1,-1,-1,-1,-1,-1,-1,-1,-1,-1,-1,-1,-1,-1],"split_conditions":[1E0,8.6719315E1,1.7143304E0,7.3E1,1E0,2.2369218E0,9.385475E1,3.917526E1,2.0404117E0,2.6268811E0,-3.57918E-1,-2.2134231E-2,2.4176824E0,3.5996017E0,-2.8003359E-3,-3.0439476E-2,3.001086E-3,-1.6950838E-2,2.4713688E-3,4.4620898E-2,1.1549296E-2,-1.482894E-2,1.1121561E-2,-4.7079325E-2,-2.2747625E-2,3.0650882E-2,-1.4905763E-2,-5.550533E-2,-3.29187E-2],"split_indices":[38,0,6,11,13,3,0,0,7,7,9,8,3,7,0,0,0,0,0,0,0,0,0,0,0,0,0,0,0],"split_type":[0,0,0,0,0,0,0,0,0,0,0,0,0,0,0,0,0,0,0,0,0,0,0,0,0,0,0,0,0],"sum_hessian":[3.7394226E3,3.3675308E3,3.718918E2,2.904899E3,4.6263205E2,3.2050027E2,5.1391525E1,2.5388762E3,3.660226E2,1.215228E2,3.4110925E2,2.3910048E2,8.13998E1,4.5180172E1,6.2113504E0,2.0414284E1,2.518462E3,1.950246E2,1.7099802E2,6.294224E1,5.8580555E1,8.729187E1,2.5381737E2,3.055412E1,2.0854636E2,1.4536438E1,6.6863365E1,2.90709E1,1.6109274E1],"tree_param":{"num_deleted":"0","num_feature":"41","num_nodes":"29","size_leaf_vector":"1"}},{"base_weights":[2.1047588E-3,5.6156136E-2,-4.9781606E-1,1.1635727E-2,1.6116752E-1,-5.8943146E-1,-3.0375576E-1,2.4904102E-1,-1.4687971E-2,7.077647E-2,2.9650366E-1,-6.4001983E-1,-1.7438348E-1,-8.208952E-3,-7.5306135E-1,2.020598E-2,-1.9484773E-2,-4.043615E-2,-5.12679E-4,2.9354423E-2,1.4323908E-3,2.6843796E-2,3.678572E-3,-2.088875E-2,-3.7321147E-2,-2.1052623E-2,2.9695734E-2,-6.5593584E-3,3.1031508E-2,-4.7627207E-2,-1.5734218E-2],"categories":[],"categories_nodes":[],"categories_segments":[],"categories_sizes":[],"default_left":[0,0,0,0,0,0,0,0,0,0,0,0,0,0,0,0,0,0,0,0,0,0,0,0,0,0,0,0,0,0,0],"id":24,"left_children":[1,3,5,7,9,11,13,15,17,19,21,23,25,27,29,-1,-1,-1,-1,-1,-1,-1,-1,-1,-1,-1,-1,-1,-1,-1,-1],"loss_changes":[1.0168809E2,1.58750515E1,6.34906E0,1.4914676E1,1.2347099E1,5.103203E0,1.5904495E1,2.375326E1,7.5577207E0,1.31968355E1,2.1638805E1,4.9144287E0,5.6242867E0,5.748936E0,3.8567638E0,0E0,0E0,0E0,0E0,0E0,0E0,0E0,0E0,0E0,0E0,0E0,0E0,0E0,0E0,0E0,0E0],"parents":[2147483647,0,0,1,1,2,2,3,3,4,4,5,5,6,6,7,7,8,8,9,9,10,10,11,11,12,12,13,13,14,14],"right_children":[2,4,6,8,10,12,14,16,18,20,22,24,26,28,30,-1,-1,-1,-1,-1,-1,-1,-1,-1,-1,-1,-1,-1,-1,-1,-1],"split_conditions":[1E0,1E0,7.541322E1,1.6415976E0,6.5E1,1E0,3.1183913E0,3.474447E0,1.6677355E0,5.3238342E1,2.7572536E0,1.1378024E0,1.4607321E0,5.1619303E-1,6.7E1,2.020598E-2,-1.9484773E-2,-4.043615E-2,-5.12679E-4,2.9354423E-2,1.4323908E-3,2.6843796E-2,3.678572E-3,-2.088875E-2,-3.7321147E-2,-2.1052623E-2,2.9695734E-2,-6.5593584E-3,3.1031508E-2,-4.7627207E-2,-1.5734218E-2],"split_indices":[38,32,0,2,11,28,3,3,2,0,5,3,5,1,11,0,0,0,0,0,0,0,0,0,0,0,0,0,0,0,0],"split_type":[0,0,0,0,0,0,0,0,0,0,0,0,0,0,0,0,0,0,0,0,0,0,0,0,0,0,0,0,0,0,0],"sum_hessian":[3.7612075E3,3.3950254E3,3.6618207E2,2.3849976E3,1.01002783E3,2.4736449E2,1.1881758E2,2.3721034E2,2.1477874E3,6.0648157E2,4.0354623E2,2.2000679E2,2.7357693E1,7.22867E1,4.6530884E1,1.9116481E2,4.6045525E1,1.0920696E1,2.1368667E3,4.4777E1,5.617046E2,1.9350023E2,2.10046E2,7.282438E1,1.4718242E2,2.1051037E1,6.306656E0,6.112436E1,1.1162335E1,3.1172842E1,1.5358043E1],"tree_param":{"num_deleted":"0","num_feature":"41","num_nodes":"31","size_leaf_vector":"1"}},{"base_weights":[1.1166149E-2,-1.0050114E-1,5.3830504E-2,-4.325255E-2,-4.1073206E-1,2.786097E-1,3.203493E-2,-2.1761976E-1,4.1258194E-2,-1.7095174E-1,-7.8156954E-1,3.7516046E-1,-2.0332408E-1,4.265961E-2,-4.981265E-1,-1.9146217E-2,-5.6437635E-5,-1.1075749E-3,1.8656109E-2,1.1872133E-3,-4.698402E-2,-4.413328E-2,1.3480023E-2,2.0915855E-2,-3.335852E-2,3.185932E-2,-2.7043987E-2,2.3778994E-3,-3.6507007E-2,-1.2176883E-2,-8.922525E-2],"categories":[],"categories_nodes":[],"categories_segments":[],"categories_sizes":[],"default_left":[0,0,0,0,0,0,0,0,0,0,0,0,0,0,0,0,0,0,0,0,0,0,0,0,0,0,0,0,0,0,0],"id":25,"left_children":[1,3,5,7,9,11,13,15,17,19,21,23,25,27,29,-1,-1,-1,-1,-1,-1,-1,-1,-1,-1,-1,-1,-1,-1,-1,-1],"loss_changes":[1.7821634E1,1.834893E1,1.3250492E1,1.2890451E1,1.4181429E1,1.1201969E1,1.39249525E1,1.0217731E1,1.241604E1,1.4847098E1,6.926319E0,9.2554035E0,1.1850982E1,9.19847E0,1.5473229E1,0E0,0E0,0E0,0E0,0E0,0E0,0E0,0E0,0E0,0E0,0E0,0E0,0E0,0E0,0E0,0E0],"parents":[2147483647,0,0,1,1,2,2,3,3,4,4,5,5,6,6,7,7,8,8,9,9,10,10,11,11,12,12,13,13,14,14],"right_children":[2,4,6,8,10,12,14,16,18,20,22,24,26,28,30,-1,-1,-1,-1,-1,-1,-1,-1,-1,-1,-1,-1,-1,-1,-1,-1],"split_conditions":[7.8800905E-1,1.019404E0,3.3201358E-1,3.7287298E-1,-1.1846405E-1,7.355645E-2,1E0,1E0,5.203548E-1,6.4E1,4.7281325E-2,2.142239E0,1E0,1.6462373E0,-5.7633393E-2,-1.9146217E-2,-5.6437635E-5,-1.1075749E-3,1.8656109E-2,1.1872133E-3,-4.698402E-2,-4.413328E-2,1.3480023E-2,2.0915855E-2,-3.335852E-2,3.185932E-2,-2.7043987E-2,2.3778994E-3,-3.6507007E-2,-1.2176883E-2,-8.922525E-2],"split_indices":[6,7,1,6,9,8,26,39,1,11,8,7,16,1,9,0,0,0,0,0,0,0,0,0,0,0,0,0,0,0,0],"split_type":[0,0,0,0,0,0,0,0,0,0,0,0,0,0,0,0,0,0,0,0,0,0,0,0,0,0,0,0,0,0,0],"sum_hessian":[3.7385945E3,1.0331445E3,2.70545E3,8.7315576E2,1.5998874E2,2.3810233E2,2.4673477E3,2.8452765E2,5.886281E2,9.805087E1,6.1937862E1,1.9854692E2,3.9555405E1,2.4197737E3,4.7573864E1,1.6090088E2,1.2362677E2,4.9498407E2,9.364402E1,7.900929E1,1.904158E1,5.6649876E1,5.2879853E0,1.91228E2,7.3189235E0,1.1079616E1,2.8475788E1,2.405465E3,1.4308528E1,4.0706837E1,6.8670244E0],"tree_param":{"num_deleted":"0","num_feature":"41","num_nodes":"31","size_leaf_vector":"1"}},{"base_weights":[6.536953E-4,5.1492024E-2,-4.7013912E-1,1.28336E-2,1.4417413E-1,-5.452493E-1,-2.8615043E-1,1.516934E-1,-2.8615708E-2,1.964784E-2,2.5205734E-1,-5.793434E-1,-2.3115572E-2,9.549425E-2,-5.423671E-1,1.2624477E-2,-5.4312493E-3,3.593604E-4,-8.84749E-3,6.2986882E-3,-1.5173325E-2,9.6409535E-3,3.455146E-2,-3.8662698E-2,-2.268087E-2,2.9016191E-2,-2.7947012E-2,-1.5538721E-2,2.3859138E-2,-4.849666E-2,-1.5419967E-2],"categories":[],"categories_nodes":[],"categories_segments":[],"categories_sizes":[],"default_left":[0,0,0,0,0,0,0,0,0,0,0,0,0,0,0,0,0,0,0,0,0,0,0,0,0,0,0,0,0,0,0],"id":26,"left_children":[1,3,5,7,9,11,13,15,17,19,21,23,25,27,29,-1,-1,-1,-1,-1,-1,-1,-1,-1,-1,-1,-1,-1,-1,-1,-1],"loss_changes":[8.881743E1,1.199817E1,4.8419724E0,1.3613604E1,1.3237221E1,4.538788E0,1.0509485E1,1.4293873E1,9.676463E0,1.5795022E1,1.3598347E1,5.500366E0,5.7291985E0,6.94166E0,6.11705E0,0E0,0E0,0E0,0E0,0E0,0E0,0E0,0E0,0E0,0E0,0E0,0E0,0E0,0E0,0E0,0E0],"parents":[2147483647,0,0,1,1,2,2,3,3,4,4,5,5,6,6,7,7,8,8,9,9,10,10,11,11,12,12,13,13,14,14],"right_children":[2,4,6,8,10,12,14,16,18,20,22,24,26,28,30,-1,-1,-1,-1,-1,-1,-1,-1,-1,-1,-1,-1,-1,-1,-1,-1],"split_conditions":[1E0,1E0,1E0,2.2253733E0,2.4221952E0,-3.12834E-2,6.2365556E-1,1E0,1E0,2.1872E0,-3.8535647E-2,8.359916E-1,-1.6911888E-2,2.2628918E0,1.763547E0,1.2624477E-2,-5.4312493E-3,3.593604E-4,-8.84749E-3,6.2986882E-3,-1.5173325E-2,9.6409535E-3,3.455146E-2,-3.8662698E-2,-2.268087E-2,2.9016191E-2,-2.7947012E-2,-1.5538721E-2,2.3859138E-2,-4.849666E-2,-1.5419967E-2],"split_indices":[38,32,18,2,2,9,7,30,18,7,9,7,9,2,2,0,0,0,0,0,0,0,0,0,0,0,0,0,0,0,0],"split_type":[0,0,0,0,0,0,0,0,0,0,0,0,0,0,0,0,0,0,0,0,0,0,0,0,0,0,0,0,0,0,0],"sum_hessian":[3.7088706E3,3.3482068E3,3.6066382E2,2.3635078E3,9.846989E2,2.5471666E2,1.0594715E2,5.427098E2,1.8207981E3,4.5764056E2,5.2705835E2,2.3900092E2,1.5715748E1,4.2808914E1,6.313824E1,3.9124753E2,1.5146223E2,1.4675354E3,3.5326266E2,3.4479153E2,1.1284902E2,4.6565808E2,6.1400276E1,9.198292E1,1.4701799E2,7.3524537E0,8.363294E0,2.0826746E1,2.1982168E1,2.1217884E1,4.1920357E1],"tree_param":{"num_deleted":"0","num_feature":"41","num_nodes":"31","size_leaf_vector":"1"}},{"base_weights":[-6.5481877E-3,4.1393884E-2,-4.5429707E-1,-6.116309E-2,7.404346E-2,-5.6704026E-1,-2.21419E-1,-2.9932307E-3,-4.1865128E-1,2.6185262E-1,5.137782E-2,-8.74649E-1,-5.056007E-1,5.3390767E-2,-3.2407674E-1,9.657467E-3,-3.7205291E-3,-4.4456676E-2,-6.9408803E-3,2.1543855E-2,-1.1393332E-3,3.4894445E-3,-1.0164454E-2,-4.910485E-2,-1.8423615E-2,-3.798587E-3,-3.0248193E-2,-3.3808883E-2,-5.452085E-3],"categories":[],"categories_nodes":[],"categories_segments":[],"categories_sizes":[],"default_left":[0,0,0,0,0,0,0,0,0,0,0,0,0,0,0,0,0,0,0,0,0,0,0,0,0,0,0,0,0],"id":27,"left_children":[1,3,5,7,9,11,13,15,17,19,21,23,25,-1,27,-1,-1,-1,-1,-1,-1,-1,-1,-1,-1,-1,-1,-1,-1],"loss_changes":[8.0691246E1,1.1374451E1,9.419945E0,1.7061308E1,1.095242E1,4.1753845E0,1.6259338E1,9.913683E0,1.499346E1,1.3344675E1,1.0797731E1,1.7758694E0,8.748917E0,0E0,8.416517E0,0E0,0E0,0E0,0E0,0E0,0E0,0E0,0E0,0E0,0E0,0E0,0E0,0E0,0E0],"parents":[2147483647,0,0,1,1,2,2,3,3,4,4,5,5,6,6,7,7,8,8,9,9,10,10,11,11,12,12,14,14],"right_children":[2,4,6,8,10,12,14,16,18,20,22,24,26,-1,28,-1,-1,-1,-1,-1,-1,-1,-1,-1,-1,-1,-1,-1,-1],"split_conditions":[1E0,7.689683E-1,7.553648E1,1.019404E0,3.3868235E-1,8.6803275E-1,5.347496E-1,9.8781526E-1,1.1700667E-1,3.77611E0,1.525E1,1E0,1.1274579E0,5.3390767E-2,6.1E1,9.657467E-3,-3.7205291E-3,-4.4456676E-2,-6.9408803E-3,2.1543855E-2,-1.1393332E-3,3.4894445E-3,-1.0164454E-2,-4.910485E-2,-1.8423615E-2,-3.798587E-3,-3.0248193E-2,-3.3808883E-2,-5.452085E-3],"split_indices":[38,6,0,7,1,3,7,5,4,2,12,25,3,0,11,0,0,0,0,0,0,0,0,0,0,0,0,0,0],"split_type":[0,0,0,0,0,0,0,0,0,0,0,0,0,0,0,0,0,0,0,0,0,0,0,0,0,0,0,0,0],"sum_hessian":[3.7571487E3,3.3945857E3,3.6256287E2,8.1951117E2,2.5750747E3,2.4332639E2,1.1923648E2,7.0569073E2,1.1382041E2,2.7616855E2,2.298906E3,3.830573E1,2.0502066E2,8.100763E0,1.1113572E2,1.8790869E2,5.1778204E2,4.163777E1,7.218264E1,1.7295229E2,1.0321627E2,2.1445896E3,1.5431651E2,3.0822662E1,7.483068E0,3.8841476E1,1.6617918E2,4.1325066E1,6.981065E1],"tree_param":{"num_deleted":"0","num_feature":"41","num_nodes":"29","size_leaf_vector":"1"}},{"base_weights":[2.3886152E-3,4.6909742E-2,-4.0670735E-1,1.5870674E-1,2.24003E-2,-7.862197E-1,-3.665585E-1,2.6568285E-1,-1.2671812E-2,6.786741E-2,-6.193772E-2,-6.28198E-2,-4.4288686E-1,-3.3205146E-1,-8.146922E-1,7.472858E-3,2.9196713E-2,5.543901E-3,-1.5892584E-2,-1.9084062E-2,4.0631006E-3,1.526255E-3,-7.1587423E-3,6.962699E-3,-3.597987E-2,-1.8480413E-2,4.1920125E-2,-5.738784E-2,-1.9345118E-2],"categories":[],"categories_nodes":[],"categories_segments":[],"categories_sizes":[],"default_left":[0,0,0,0,0,0,0,0,0,0,0,0,0,0,0,0,0,0,0,0,0,0,0,0,0,0,0,0,0],"id":28,"left_children":[1,3,5,7,9,11,13,15,17,19,21,-1,23,25,27,-1,-1,-1,-1,-1,-1,-1,-1,-1,-1,-1,-1,-1,-1],"loss_changes":[6.7517876E1,9.156974E0,5.255558E0,1.1021259E1,1.0523237E1,4.921507E0,4.8464546E0,1.3600697E1,8.779696E0,1.0766195E1,7.2257233E0,0E0,3.5083103E0,1.3890015E1,2.8287659E0,0E0,0E0,0E0,0E0,0E0,0E0,0E0,0E0,0E0,0E0,0E0,0E0,0E0,0E0],"parents":[2147483647,0,0,1,1,2,2,3,3,4,4,5,5,6,6,7,7,8,8,9,9,10,10,12,12,13,13,14,14],"right_children":[2,4,6,8,10,12,14,16,18,20,22,-1,24,26,28,-1,-1,-1,-1,-1,-1,-1,-1,-1,-1,-1,-1,-1,-1],"split_conditions":[1E0,1.8174746E0,-3.386595E-2,2.580003E0,1E0,1.5861237E0,6.78317E0,1E0,7.210845E-3,5.5992246E-2,2E0,-6.28198E-2,-6.1867267E-2,6.1242223E0,2.6576576E0,7.472858E-3,2.9196713E-2,5.543901E-3,-1.5892584E-2,-1.9084062E-2,4.0631006E-3,1.526255E-3,-7.1587423E-3,6.962699E-3,-3.597987E-2,-1.8480413E-2,4.1920125E-2,-5.738784E-2,-1.9345118E-2],"split_indices":[38,2,8,3,33,5,2,33,8,7,13,0,8,2,5,0,0,0,0,0,0,0,0,0,0,0,0,0,0],"split_type":[0,0,0,0,0,0,0,0,0,0,0,0,0,0,0,0,0,0,0,0,0,0,0,0,0,0,0,0,0],"sum_hessian":[3.7049937E3,3.3421584E3,3.6283533E2,5.9997345E2,2.7421848E3,3.2934536E1,3.2990082E2,3.6905536E2,2.3091809E2,1.7818009E3,9.603839E2,1.2777296E1,2.015724E1,3.079306E2,2.1970213E1,2.7140695E2,9.764843E1,1.6482613E2,6.609197E1,5.075832E1,1.7310426E3,4.494506E2,5.1093332E2,6.6544433E0,1.3502796E1,2.9902005E2,8.910554E0,1.1406473E1,1.0563739E1],"tree_param":{"num_deleted":"0","num_feature":"41","num_nodes":"29","size_leaf_vector":"1"}},{"base_weights":[9.057516E-3,5.5357926E-2,-4.3592486E-1,-2.9967126E-1,6.644857E-2,-5.718779E-1,-3.0082E-1,-3.7962267E-1,3.687533E-1,7.009256E-2,-9.064835E-1,-8.368711E-1,-4.2290235E-1,-4.4283387E-1,8.573531E-2,-3.6630433E-2,-1.1229586E-2,4.339694E-2,-9.543327E-3,2.405238E-3,1.0683723E-2,-1.7304683E-2,-6.32717E-2,-3.4514986E-2,-6.313764E-2,-2.8888797E-2,-2.668407E-3,-2.9881299E-2,3.725598E-4,2.9023726E-2,-1.6405066E-2],"categories":[],"categories_nodes":[],"categories_segments":[],"categories_sizes":[],"default_left":[0,0,0,0,0,0,0,0,0,0,0,0,0,0,0,0,0,0,0,0,0,0,0,0,0,0,0,0,0,0,0],"id":29,"left_children":[1,3,5,7,9,11,13,15,17,19,21,23,25,27,29,-1,-1,-1,-1,-1,-1,-1,-1,-1,-1,-1,-1,-1,-1,-1,-1],"loss_changes":[7.620775E1,1.3211015E1,6.2310257E0,5.5730953E0,1.1584001E1,6.4616776E0,9.752146E0,4.8315315E0,3.341475E0,1.0213062E1,2.0154486E0,2.9428368E0,6.4097557E0,9.035822E0,1.0096129E1,0E0,0E0,0E0,0E0,0E0,0E0,0E0,0E0,0E0,0E0,0E0,0E0,0E0,0E0,0E0,0E0],"parents":[2147483647,0,0,1,1,2,2,3,3,4,4,5,5,6,6,7,7,8,8,9,9,10,10,11,11,12,12,13,13,14,14],"right_children":[2,4,6,8,10,12,14,16,18,20,22,24,26,28,30,-1,-1,-1,-1,-1,-1,-1,-1,-1,-1,-1,-1,-1,-1,-1,-1],"split_conditions":[1E0,-1.980198E-1,1.4E1,1E0,1.6462373E0,6E1,4.3964085E-1,2.906947E0,2.0799287E-1,8.696655E1,4.1737065E0,2.7386692E0,4E0,4.1851513E-3,5.0957406E-1,-3.6630433E-2,-1.1229586E-2,4.339694E-2,-9.543327E-3,2.405238E-3,1.0683723E-2,-1.7304683E-2,-6.32717E-2,-3.4514986E-2,-6.313764E-2,-2.8888797E-2,-2.668407E-3,-2.9881299E-2,3.725598E-4,2.9023726E-2,-1.6405066E-2],"split_indices":[38,8,12,15,1,11,1,2,4,0,6,5,13,8,1,0,0,0,0,0,0,0,0,0,0,0,0,0,0,0,0],"split_type":[0,0,0,0,0,0,0,0,0,0,0,0,0,0,0,0,0,0,0,0,0,0,0,0,0,0,0,0,0,0,0],"sum_hessian":[3.6967195E3,3.3491191E3,3.4760022E2,1.0066463E2,3.2484546E3,1.716449E2,1.7595532E2,9.02962E1,1.036842E1,3.2372578E3,1.1196764E1,6.010838E1,1.11536514E2,1.2857387E2,4.7381447E1,2.6418665E1,6.387754E1,5.1889186E0,5.1795006E0,2.808505E3,4.2875293E2,5.138607E0,6.0581565E0,4.6668003E1,1.3440379E1,7.819928E1,3.333723E1,9.543833E1,3.3135536E1,2.139782E1,2.598363E1],"tree_param":{"num_deleted":"0","num_feature":"41","num_nodes":"31","size_leaf_vector":"1"}},{"base_weights":[-5.5178427E-3,3.3353135E-2,-3.7347227E-1,-1.2527051E-4,1.2841439E-1,-4.174413E-1,1.1092882E-1,2.518193E-2,-1.9475569E-1,-1.3006529E-1,1.8907958E-1,-5.084627E-1,-2.6801524E-1,-2.3578893E-1,3.8648546E-2,-4.408154E-3,4.3397783E-3,-4.2953137E-2,-6.4480877E-3,1.8613456E-2,-1.8897256E-2,1.3134951E-2,1.8942055E-3,-1.9802673E-2,-4.3015167E-2,-6.9602816E-3,-3.6662955E-2,-3.5122786E-2,8.65736E-3],"categories":[],"categories_nodes":[],"categories_segments":[],"categories_sizes":[],"default_left":[0,0,0,0,0,0,0,0,0,0,0,0,0,0,0,0,0,0,0,0,0,0,0,0,0,0,0,0,0],"id":30,"left_children":[1,3,5,7,9,11,13,15,17,19,21,23,25,27,-1,-1,-1,-1,-1,-1,-1,-1,-1,-1,-1,-1,-1,-1,-1],"loss_changes":[5.329532E1,1.0726087E1,7.6292458E0,1.2286861E1,1.3789283E1,4.3059616E0,7.1643443E0,1.5423856E1,1.2434637E1,2.099163E1,7.9081135E0,7.6427917E0,7.434064E0,4.0774965E0,0E0,0E0,0E0,0E0,0E0,0E0,0E0,0E0,0E0,0E0,0E0,0E0,0E0,0E0,0E0],"parents":[2147483647,0,0,1,1,2,2,3,3,4,4,5,5,6,6,7,7,8,8,9,9,10,10,11,11,12,12,13,13],"right_children":[2,4,6,8,10,12,14,16,18,20,22,24,26,28,-1,-1,-1,-1,-1,-1,-1,-1,-1,-1,-1,-1,-1,-1,-1],"split_conditions":[1E0,8.2E1,1E0,7.3E1,-4.164188E-1,7.424665E1,4.2032862E-1,5.9E1,5.8949417E1,1E0,7.662835E-3,3.2045531E0,1.1055832E-2,2.2974734E0,3.8648546E-2,-4.408154E-3,4.3397783E-3,-4.2953137E-2,-6.4480877E-3,1.8613456E-2,-1.8897256E-2,1.3134951E-2,1.8942055E-3,-1.9802673E-2,-4.3015167E-2,-6.9602816E-3,-3.6662955E-2,-3.5122786E-2,8.65736E-3],"split_indices":[38,0,28,11,9,0,1,11,0,13,8,2,8,2,0,0,0,0,0,0,0,0,0,0,0,0,0,0,0],"split_type":[0,0,0,0,0,0,0,0,0,0,0,0,0,0,0,0,0,0,0,0,0,0,0,0,0,0,0,0,0],"sum_hessian":[3.7243584E3,3.3693293E3,3.5502908E2,2.4925195E3,8.768099E2,3.2561157E2,2.9417503E1,2.2064873E3,2.860322E2,1.6645242E2,7.103574E2,2.0085811E2,1.2475347E2,1.9729055E1,9.688448E0,7.768873E2,1.4296E3,2.468962E1,2.613426E2,5.4832077E1,1.11620346E2,4.7724292E2,2.3311453E2,1.5383511E2,4.7023003E1,9.872047E1,2.6033005E1,8.878916E0,1.0850141E1],"tree_param":{"num_deleted":"0","num_feature":"41","num_nodes":"29","size_leaf_vector":"1"}},{"base_weights":[-2.7902483E-3,3.5189833E-2,-3.7499443E-1,6.315267E-2,-9.799594E-2,-4.1357547E-1,6.300153E-2,-2.0986989E-1,7.3734656E-2,2.1992043E-1,-2.2096226E-1,-5.6408393E-1,-2.979596E-1,-2.617766E-1,5.3440657E-2,-6.7703202E-3,-5.8966737E-2,1.01737175E-2,2.4345743E-3,5.118931E-3,7.819828E-2,-2.0979738E-2,-5.6310766E-3,-3.6604088E-2,-1.785218E-2,-2.0734608E-2,6.358887E-4,-4.130625E-2,4.920456E-3],"categories":[],"categories_nodes":[],"categories_segments":[],"categories_sizes":[],"default_left":[0,0,0,0,0,0,0,0,0,0,0,0,0,0,0,0,0,0,0,0,0,0,0,0,0,0,0,0,0],"id":31,"left_children":[1,3,5,7,9,11,13,15,17,19,21,23,25,27,-1,-1,-1,-1,-1,-1,-1,-1,-1,-1,-1,-1,-1,-1,-1],"loss_changes":[5.2639576E1,1.2590378E1,5.8523865E0,8.085552E0,2.298525E1,5.3482246E0,9.681188E0,7.3829494E0,8.72944E0,2.5771431E1,9.068125E0,4.4899483E0,6.584152E0,4.6667457E0,0E0,0E0,0E0,0E0,0E0,0E0,0E0,0E0,0E0,0E0,0E0,0E0,0E0,0E0,0E0],"parents":[2147483647,0,0,1,1,2,2,3,3,4,4,5,5,6,6,7,7,8,8,9,9,10,10,11,11,12,12,13,13],"right_children":[2,4,6,8,10,12,14,16,18,20,22,24,26,28,-1,-1,-1,-1,-1,-1,-1,-1,-1,-1,-1,-1,-1,-1,-1],"split_conditions":[1E0,1.5E1,1E0,-1.980198E-1,1.1307678E0,1.1E1,3.6388868E-1,5.173127E0,3.4933367E-1,6.262289E-1,7.8204674E-1,7.5E1,4.1851513E-3,3.093084E-1,5.3440657E-2,-6.7703202E-3,-5.8966737E-2,1.01737175E-2,2.4345743E-3,5.118931E-3,7.819828E-2,-2.0979738E-2,-5.6310766E-3,-3.6604088E-2,-1.785218E-2,-2.0734608E-2,6.358887E-4,-4.130625E-2,4.920456E-3],"split_indices":[38,12,28,8,5,12,7,5,1,6,6,0,8,1,0,0,0,0,0,0,0,0,0,0,0,0,0,0,0],"split_type":[0,0,0,0,0,0,0,0,0,0,0,0,0,0,0,0,0,0,0,0,0,0,0,0,0,0,0,0,0],"sum_hessian":[3.7217715E3,3.3779841E3,3.4378735E2,2.792264E3,5.857202E2,3.1600748E2,2.7779884E1,1.0348354E2,2.6887803E3,1.6314296E2,4.2257727E2,1.356021E2,1.8040536E2,2.1558384E1,6.2215E0,9.716044E1,6.32311E0,4.3387982E2,2.2549004E3,1.5101251E2,1.2130442E1,1.4812715E2,2.744501E2,7.345936E1,6.2142742E1,1.3089038E2,4.9514984E1,7.8948765E0,1.3663507E1],"tree_param":{"num_deleted":"0","num_feature":"41","num_nodes":"29","size_leaf_vector":"1"}},{"base_weights":[-5.6908806E-3,3.4576036E-2,-4.054591E-1,6.286644E-2,-1.0518832E-1,-3.4530434E-1,-7.4998415E-1,-8.455959E-2,9.8707795E-2,1.9261044E-1,-2.2062816E-1,-5.4168094E-2,-3.112588E-1,-5.6537043E-2,-5.5451983E-1,-3.063806E-3,-3.820682E-2,5.2320696E-3,-4.6276577E-2,1.4633524E-3,3.8834833E-2,-4.5946095E-2,-9.366486E-3,-1.948143E-2,-7.883619E-5,-6.1795525E-3,-4.157606E-2],"categories":[],"categories_nodes":[],"categories_segments":[],"categories_sizes":[],"default_left":[0,0,0,0,0,0,0,0,0,0,0,0,0,0,0,0,0,0,0,0,0,0,0,0,0,0,0],"id":32,"left_children":[1,3,5,7,9,11,13,15,17,19,21,-1,23,-1,25,-1,-1,-1,-1,-1,-1,-1,-1,-1,-1,-1,-1],"loss_changes":[5.961833E1,1.3311047E1,6.764843E0,1.4798143E1,1.9528128E1,6.959442E0,3.0588322E0,8.623117E0,1.3783611E1,1.5134895E1,9.336426E0,0E0,6.770216E0,0E0,4.037795E0,0E0,0E0,0E0,0E0,0E0,0E0,0E0,0E0,0E0,0E0,0E0,0E0],"parents":[2147483647,0,0,1,1,2,2,3,3,4,4,5,5,6,6,7,7,8,8,9,9,10,10,12,12,14,14],"right_children":[2,4,6,8,10,12,14,16,18,20,22,-1,24,-1,26,-1,-1,-1,-1,-1,-1,-1,-1,-1,-1,-1,-1],"split_conditions":[1E0,1.5E1,1.7143304E0,1.6065475E0,1.1307678E0,7.0184195E-1,6.2E1,1.5861237E0,1.6462373E0,6.979021E1,1.194605E0,-5.4168094E-2,1.576626E0,-5.6537043E-2,6.6E1,-3.063806E-3,-3.820682E-2,5.2320696E-3,-4.6276577E-2,1.4633524E-3,3.8834833E-2,-4.5946095E-2,-9.366486E-3,-1.948143E-2,-7.883619E-5,-6.1795525E-3,-4.157606E-2],"split_indices":[38,12,6,5,5,2,11,5,1,0,5,0,7,0,11,0,0,0,0,0,0,0,0,0,0,0,0],"split_type":[0,0,0,0,0,0,0,0,0,0,0,0,0,0,0,0,0,0,0,0,0,0,0,0,0,0,0],"sum_hessian":[3.7017212E3,3.3638125E3,3.379087E2,2.7980044E3,5.658079E2,2.8938394E2,4.8524757E1,5.4693616E2,2.2510684E3,1.5787395E2,4.07934E2,1.1401223E1,2.779827E2,1.4837326E1,3.3687428E1,5.29872E2,1.7064157E1,2.2389954E3,1.2073045E1,1.2419276E2,3.3681183E1,1.735658E1,3.905774E2,2.2163614E2,5.6346565E1,1.3747198E1,1.9940231E1],"tree_param":{"num_deleted":"0","num_feature":"41","num_nodes":"27","size_leaf_vector":"1"}},{"base_weights":[-1.2070166E-2,-1.0608635E-1,2.4230786E-2,-9.2330605E-2,-9.916556E-1,2.0525199E-1,-4.8648805E-4,-5.1634133E-2,-3.0906162E-1,-6.986655E-2,-6.7336382E-3,2.7823195E-1,-5.5414045E-1,8.323807E-3,-4.3051E-1,-2.0169979E-2,-8.22161E-4,-4.726907E-2,-9.250998E-3,1.658104E-2,-3.3888724E-2,-5.1780324E-2,1.70047E-2,8.815321E-3,-6.7747285E-4,-7.30315E-2,-1.3090357E-3],"categories":[],"categories_nodes":[],"categories_segments":[],"categories_sizes":[],"default_left":[0,0,0,0,0,0,0,0,0,0,0,0,0,0,0,0,0,0,0,0,0,0,0,0,0,0,0],"id":33,"left_children":[1,3,5,7,9,11,13,15,17,-1,-1,19,21,23,25,-1,-1,-1,-1,-1,-1,-1,-1,-1,-1,-1,-1],"loss_changes":[1.2702369E1,1.2537684E1,1.2015522E1,8.998156E0,5.289137E0,1.803416E1,8.9590645E0,1.0659345E1,1.2561603E1,0E0,0E0,1.5281761E1,1.2674798E1,8.516909E0,1.9735697E1,0E0,0E0,0E0,0E0,0E0,0E0,0E0,0E0,0E0,0E0,0E0,0E0],"parents":[2147483647,0,0,1,1,2,2,3,3,4,4,5,5,6,6,7,7,8,8,11,11,12,12,13,13,14,14],"right_children":[2,4,6,8,10,12,14,16,18,-1,-1,20,22,24,26,-1,-1,-1,-1,-1,-1,-1,-1,-1,-1,-1,-1],"split_conditions":[7.8800905E-1,7.5E1,3.4933367E-1,1.01175E0,1.8642804E-2,7.4E1,1E0,5.6E1,-2.5016082E-2,-6.986655E-2,-6.7336382E-3,2.587085E0,1.294603E-1,3.3927057E-2,9.6473366E-2,-2.0169979E-2,-8.22161E-4,-4.726907E-2,-9.250998E-3,1.658104E-2,-3.3888724E-2,-5.1780324E-2,1.70047E-2,8.815321E-3,-6.7747285E-4,-7.30315E-2,-1.3090357E-3],"split_indices":[6,11,1,7,8,11,26,11,8,0,0,5,4,4,4,0,0,0,0,0,0,0,0,0,0,0,0],"split_type":[0,0,0,0,0,0,0,0,0,0,0,0,0,0,0,0,0,0,0,0,0,0,0,0,0,0,0],"sum_hessian":[3.7201418E3,1.0357418E3,2.6844001E3,1.0209868E3,1.4754959E1,3.2162442E2,2.3627756E3,8.6062244E2,1.6036438E2,9.586441E0,5.168518E0,2.940034E2,2.7621016E1,2.3163E3,4.6475567E1,7.731591E1,7.833065E2,2.5080866E1,1.3528351E2,2.7907156E2,1.49318285E1,1.785148E1,9.769535E0,2.6604715E2,2.050253E3,1.2363724E1,3.4111843E1],"tree_param":{"num_deleted":"0","num_feature":"41","num_nodes":"27","size_leaf_vector":"1"}},{"base_weights":[5.5366606E-3,3.91602E-2,-3.1774363E-1,1.6513785E-2,1.609777E-1,-3.581887E-1,1.0010485E-1,3.60741E-1,7.570795E-3,3.968061E-1,3.1318177E-2,-4.5768055E-1,-2.1933156E-1,-4.709818E-1,4.837201E-1,-6.9707357E-3,2.6826749E-2,-3.1536356E-2,7.5565575E-4,3.1240478E-2,-3.7770607E-3,-5.8865912E-2,3.1746316E-3,-3.147095E-2,-1.1221848E-2,-7.0646717E-3,-4.021087E-2,-4.7962483E-2,1.2095602E-2,-1.1741348E-2,4.665601E-2],"categories":[],"categories_nodes":[],"categories_segments":[],"categories_sizes":[],"default_left":[0,0,0,0,0,0,0,0,0,0,0,0,0,0,0,0,0,0,0,0,0,0,0,0,0,0,0,0,0,0,0],"id":34,"left_children":[1,3,5,7,9,11,13,15,17,19,21,23,25,27,29,-1,-1,-1,-1,-1,-1,-1,-1,-1,-1,-1,-1,-1,-1,-1,-1],"loss_changes":[4.0426212E1,9.2904005E0,5.957184E0,8.745053E0,1.6131008E1,4.31596E0,7.173193E0,6.3996277E0,1.3348425E1,2.0209085E1,1.3364211E1,7.281872E0,6.0645986E0,4.8425493E0,6.5022116E0,0E0,0E0,0E0,0E0,0E0,0E0,0E0,0E0,0E0,0E0,0E0,0E0,0E0,0E0,0E0,0E0],"parents":[2147483647,0,0,1,1,2,2,3,3,4,4,5,5,6,6,7,7,8,8,9,9,10,10,11,11,12,12,13,13,14,14],"right_children":[2,4,6,8,10,12,14,16,18,20,22,24,26,28,30,-1,-1,-1,-1,-1,-1,-1,-1,-1,-1,-1,-1,-1,-1,-1,-1],"split_conditions":[1E0,8.587571E1,1E0,7.490637E-1,2.9085872E0,1.425E1,2.2974734E0,1.2569833E-1,7.210996E-1,1.225E1,2.9614215E0,7.5E1,1E0,1.365799E0,6E1,-6.9707357E-3,2.6826749E-2,-3.1536356E-2,7.5565575E-4,3.1240478E-2,-3.7770607E-3,-5.8865912E-2,3.1746316E-3,-3.147095E-2,-1.1221848E-2,-7.0646717E-3,-4.021087E-2,-4.7962483E-2,1.2095602E-2,-1.1741348E-2,4.665601E-2],"split_indices":[38,0,28,5,5,12,2,4,3,12,5,0,15,3,11,0,0,0,0,0,0,0,0,0,0,0,0,0,0,0,0],"split_type":[0,0,0,0,0,0,0,0,0,0,0,0,0,0,0,0,0,0,0,0,0,0,0,0,0,0,0,0,0,0,0],"sum_hessian":[3.7169768E3,3.3676003E3,3.4937643E2,2.840647E3,5.269533E2,3.1867365E2,3.070279E1,7.0934875E1,2.7697122E3,1.8620964E2,3.4074365E2,1.8431496E2,1.343587E2,1.2245384E1,1.8457405E1,1.8501825E1,5.243305E1,3.1380625E1,2.7383315E3,1.2537026E2,6.083938E1,7.9126463E0,3.3283102E2,1.0517531E2,7.913965E1,1.1963767E2,1.4721029E1,7.0625825E0,5.1828017E0,7.285717E0,1.1171688E1],"tree_param":{"num_deleted":"0","num_feature":"41","num_nodes":"31","size_leaf_vector":"1"}},{"base_weights":[-8.0163395E-3,2.3901964E-2,-3.2708153E-1,-3.651046E-3,1.8747993E-1,-4.6266887E-1,-1.9071576E-1,1.6532477E-2,-1.562414E-1,5.4711103E-1,5.041855E-2,-5.831484E-1,-2.2581454E-1,4.0999968E-2,-2.2725128E-1,4.6528284E-3,-1.5604089E-3,-1.8408734E-2,5.3625315E-4,3.1991497E-2,-1.751906E-2,9.439376E-3,-8.924707E-3,-4.403633E-2,-1.6972871E-2,6.9068014E-3,-4.793132E-2,-1.5360409E-2,1.7026609E-2],"categories":[],"categories_nodes":[],"categories_segments":[],"categories_sizes":[],"default_left":[0,0,0,0,0,0,0,0,0,0,0,0,0,0,0,0,0,0,0,0,0,0,0,0,0,0,0,0,0],"id":35,"left_children":[1,3,5,7,9,11,13,15,17,19,21,23,25,-1,27,-1,-1,-1,-1,-1,-1,-1,-1,-1,-1,-1,-1,-1,-1],"loss_changes":[3.7614735E1,1.5134751E1,6.1220818E0,8.856343E0,2.3833454E1,4.654438E0,6.4330177E0,9.281749E0,1.1891015E1,1.1331604E1,1.117043E1,7.7170906E0,1.5649811E1,0E0,7.5519238E0,0E0,0E0,0E0,0E0,0E0,0E0,0E0,0E0,0E0,0E0,0E0,0E0,0E0,0E0],"parents":[2147483647,0,0,1,1,2,2,3,3,4,4,5,5,6,6,7,7,8,8,9,9,10,10,11,11,12,12,14,14],"right_children":[2,4,6,8,10,12,14,16,18,20,22,24,26,-1,28,-1,-1,-1,-1,-1,-1,-1,-1,-1,-1,-1,-1,-1,-1],"split_conditions":[1E0,8.636364E1,4.1721514E-1,7.4E1,1E0,1E0,4.2032862E-1,1E0,1.5676762E0,9.01237E-1,9.171974E1,1.0965756E0,8.4320915E-1,4.0999968E-2,1.475E1,4.6528284E-3,-1.5604089E-3,-1.8408734E-2,5.3625315E-4,3.1991497E-2,-1.751906E-2,9.439376E-3,-8.924707E-3,-4.403633E-2,-1.6972871E-2,6.9068014E-3,-4.793132E-2,-1.5360409E-2,1.7026609E-2],"split_indices":[38,0,1,11,13,18,1,16,6,1,0,5,7,0,12,0,0,0,0,0,0,0,0,0,0,0,0,0,0],"split_type":[0,0,0,0,0,0,0,0,0,0,0,0,0,0,0,0,0,0,0,0,0,0,0,0,0,0,0,0,0],"sum_hessian":[3.691738E3,3.3568538E3,3.3488428E2,2.8737742E3,4.830797E2,1.6672157E2,1.6816272E2,2.538846E3,3.349281E2,1.324794E2,3.506003E2,1.0954022E2,5.718135E1,5.1185923E0,1.6304413E2,9.750219E2,1.563824E3,1.4705884E2,1.8786928E2,1.2033484E2,1.2144565E1,2.1862509E2,1.3197523E2,4.8140427E1,6.139979E1,3.874845E1,1.8432898E1,1.4332028E2,1.9723843E1],"tree_param":{"num_deleted":"0","num_feature":"41","num_nodes":"29","size_leaf_vector":"1"}},{"base_weights":[-7.403469E-5,3.0425679E-2,-3.0226907E-1,1.3909839E-1,6.686813E-3,-2.8396428E-1,-5.8055658E-2,2.1609968E-1,-1.7276217E-1,-2.774502E-2,1.03867956E-1,-3.0716962E-1,3.1882774E-2,-3.5190226E-3,1.6738972E-2,-1.8038495E-2,1.5712421E-2,-1.4173584E-4,-8.884004E-3,1.8911276E-2,1.6549949E-3,-1.2753591E-2,-3.3643033E-2],"categories":[],"categories_nodes":[],"categories_segments":[],"categories_sizes":[],"default_left":[0,0,0,0,0,0,0,0,0,0,0,0,0,0,0,0,0,0,0,0,0,0,0],"id":36,"left_children":[1,3,5,7,9,11,-1,13,15,17,19,21,-1,-1,-1,-1,-1,-1,-1,-1,-1,-1,-1],"loss_changes":[3.3998585E1,8.642775E0,4.986557E0,1.4460991E1,9.207843E0,7.3054066E0,0E0,1.6416372E1,1.1054399E1,7.589012E0,1.3964759E1,6.0190506E0,0E0,0E0,0E0,0E0,0E0,0E0,0E0,0E0,0E0,0E0,0E0],"parents":[2147483647,0,0,1,1,2,2,3,3,4,4,5,5,7,7,8,8,9,9,10,10,11,11],"right_children":[2,4,6,8,10,12,-1,14,16,18,20,22,-1,-1,-1,-1,-1,-1,-1,-1,-1,-1,-1],"split_conditions":[1E0,1.8174746E0,6.178161E0,3.5924025E0,1E0,5.2639484E0,-5.8055658E-2,7.940129E-1,1.6415976E0,7.6871557E0,6.486996E-2,9.5996255E-1,3.1882774E-2,-3.5190226E-3,1.6738972E-2,-1.8038495E-2,1.5712421E-2,-1.4173584E-4,-8.884004E-3,1.8911276E-2,1.6549949E-3,-1.2753591E-2,-3.3643033E-2],"split_indices":[38,2,5,3,32,5,0,6,2,2,4,4,0,0,0,0,0,0,0,0,0,0,0],"split_type":[0,0,0,0,0,0,0,0,0,0,0,0,0,0,0,0,0,0,0,0,0,0,0],"sum_hessian":[3.6867395E3,3.3495754E3,3.371641E2,5.996437E2,2.749932E3,3.3143085E2,5.733256E0,4.8115024E2,1.1849344E2,2.031038E3,7.1889386E2,3.2394107E2,7.489766E0,1.410581E2,3.4009213E2,8.567738E1,3.2816055E1,1.7425487E3,2.884892E2,1.4651843E2,5.723754E2,2.8503183E2,3.8909267E1],"tree_param":{"num_deleted":"0","num_feature":"41","num_nodes":"23","size_leaf_vector":"1"}},{"base_weights":[2.5826974E-3,3.0496664E-2,-2.766074E-1,-3.4154207E-1,3.8110785E-2,-3.117406E-1,1.1572573E-1,-4.671193E-1,3.0056384E-1,5.29749E-2,-1.3762054E-1,-8.8637346E-1,-2.878919E-1,-3.889326E-1,4.767045E-1,6.2600346E-3,-3.4948286E-2,-1.2523306E-2,4.1224133E-2,2.1289152E-3,1.6431242E-2,-3.6205344E-2,-2.819472E-3,-5.4567244E-2,-2.5577167E-2,1.153869E-2,-1.6892368E-2,9.759303E-3,-4.469083E-2,5.020344E-2,-2.2212159E-2],"categories":[],"categories_nodes":[],"categories_segments":[],"categories_sizes":[],"default_left":[0,0,0,0,0,0,0,0,0,0,0,0,0,0,0,0,0,0,0,0,0,0,0,0,0,0,0,0,0,0,0],"id":37,"left_children":[1,3,5,7,9,11,13,15,17,19,21,23,25,27,29,-1,-1,-1,-1,-1,-1,-1,-1,-1,-1,-1,-1,-1,-1,-1,-1],"loss_changes":[2.8720072E1,9.503217E0,4.653225E0,5.566233E0,8.585099E0,3.9617062E0,5.333549E0,7.8703995E0,3.5599E0,8.665162E0,1.2173394E1,3.4683228E-1,7.771366E0,3.812309E0,8.665899E0,0E0,0E0,0E0,0E0,0E0,0E0,0E0,0E0,0E0,0E0,0E0,0E0,0E0,0E0,0E0,0E0],"parents":[2147483647,0,0,1,1,2,2,3,3,4,4,5,5,6,6,7,7,8,8,9,9,10,10,11,11,12,12,13,13,14,14],"right_children":[2,4,6,8,10,12,14,16,18,20,22,24,26,28,30,-1,-1,-1,-1,-1,-1,-1,-1,-1,-1,-1,-1,-1,-1,-1,-1],"split_conditions":[1E0,9.5E0,1E0,1E0,9.140462E0,7.0184195E-1,2.2974734E0,5.8E1,-1.73586E-1,7.066557E-1,8.6927944E-1,5.3846153E1,1.1901352E0,-4.8297316E-1,3.824655E0,6.2600346E-3,-3.4948286E-2,-1.2523306E-2,4.1224133E-2,2.1289152E-3,1.6431242E-2,-3.6205344E-2,-2.819472E-3,-5.4567244E-2,-2.5577167E-2,1.153869E-2,-1.6892368E-2,9.759303E-3,-4.469083E-2,5.020344E-2,-2.2212159E-2],"split_indices":[38,12,28,15,2,2,2,11,9,8,7,0,2,9,2,0,0,0,0,0,0,0,0,0,0,0,0,0,0,0,0],"split_type":[0,0,0,0,0,0,0,0,0,0,0,0,0,0,0,0,0,0,0,0,0,0,0,0,0,0,0,0,0,0,0],"sum_hessian":[3.6831418E3,3.3491755E3,3.339663E2,6.628975E1,3.2828857E3,3.0670633E2,2.7259956E1,5.5674046E1,1.0615704E1,3.027505E3,2.5538092E2,1.07806635E1,2.959257E2,1.1335364E1,1.5924592E1,1.5791072E1,3.9882973E1,5.4283695E0,5.1873336E0,2.91858E3,1.0892466E2,3.0105545E1,2.2527536E2,5.733691E0,5.0469728E0,2.5680168E1,2.702455E2,5.539695E0,5.7956696E0,1.0068685E1,5.855908E0],"tree_param":{"num_deleted":"0","num_feature":"41","num_nodes":"31","size_leaf_vector":"1"}},{"base_weights":[-9.0891536E-4,2.656192E-2,-2.7689537E-1,4.761946E-2,-1.5165414E-1,-3.1734726E-1,1.9398421E-1,1.5077008E-1,2.2086952E-2,-5.586561E-1,-7.538042E-2,-4.6471158E-1,-1.7767143E-1,4.9211826E-2,-1.2299675E-1,6.402769E-2,6.4053657E-3,-5.3616164E-5,1.3755495E-2,-4.908437E-3,-5.4985918E-2,5.4507513E-2,-5.7818117E-3,-1.059734E-2,-3.40922E-2,-1.5401298E-3,-2.3059985E-2,-4.3501884E-2,1.0557806E-2],"categories":[],"categories_nodes":[],"categories_segments":[],"categories_sizes":[],"default_left":[0,0,0,0,0,0,0,0,0,0,0,0,0,0,0,0,0,0,0,0,0,0,0,0,0,0,0,0,0],"id":38,"left_children":[1,3,5,7,9,11,13,15,17,19,21,23,25,-1,27,-1,-1,-1,-1,-1,-1,-1,-1,-1,-1,-1,-1,-1,-1],"loss_changes":[2.8117647E1,1.2665301E1,6.456581E0,7.9433446E0,1.1030085E1,6.289007E0,6.929692E0,1.5160078E1,1.4179944E1,1.3878323E1,1.4273712E1,8.088612E0,6.670938E0,0E0,5.248195E0,0E0,0E0,0E0,0E0,0E0,0E0,0E0,0E0,0E0,0E0,0E0,0E0,0E0,0E0],"parents":[2147483647,0,0,1,1,2,2,3,3,4,4,5,5,6,6,7,7,8,8,9,9,10,10,11,11,12,12,14,14],"right_children":[2,4,6,8,10,12,14,16,18,20,22,24,26,-1,28,-1,-1,-1,-1,-1,-1,-1,-1,-1,-1,-1,-1,-1,-1],"split_conditions":[1E0,7.6871557E0,-3.8535647E-2,1.8174746E0,6.6037735E1,4.117212E-1,7.851478E-1,9.817988E-2,8.4806347E-1,1.275E1,1.1437529E0,1.1378024E0,3.1183913E0,4.9211826E-2,1.4099402E0,6.402769E-2,6.4053657E-3,-5.3616164E-5,1.3755495E-2,-4.908437E-3,-5.4985918E-2,5.4507513E-2,-5.7818117E-3,-1.059734E-2,-3.40922E-2,-1.5401298E-3,-2.3059985E-2,-4.3501884E-2,1.0557806E-2],"split_indices":[38,2,9,2,0,1,7,7,1,12,5,3,3,0,3,0,0,0,0,0,0,0,0,0,0,0,0,0,0],"split_type":[0,0,0,0,0,0,0,0,0,0,0,0,0,0,0,0,0,0,0,0,0,0,0,0,0,0,0,0,0],"sum_hessian":[3.70671E3,3.3719775E3,3.3473242E2,3.016311E3,3.5566653E2,3.085517E2,2.6180725E1,5.975044E2,2.4188066E3,5.513546E1,3.0053107E2,1.4901114E2,1.5954056E2,6.892437E0,1.9288288E1,1.0658382E1,5.86846E2,2.2168896E3,2.0191692E2,3.04238E1,2.4711658E1,9.162673E0,2.913684E2,6.976892E1,7.924221E1,1.05829216E2,5.371134E1,5.4655805E0,1.3822707E1],"tree_param":{"num_deleted":"0","num_feature":"41","num_nodes":"29","size_leaf_vector":"1"}},{"base_weights":[1.20743625E-2,3.806E-2,-2.556603E-1,4.0696384E-3,1.1868363E-1,-3.3082676E-1,-7.381644E-2,2.1160176E-1,-1.6142609E-2,1.3510114E-1,-6.816727E-1,-2.8418067E-1,-5.3508896E-2,1.236092E-1,-4.6010426E-1,4.516898E-3,3.822369E-2,-5.469652E-4,-3.037021E-2,2.486237E-2,5.1931674E-3,1.3195895E-2,-6.2090453E-2,-2.907795E-2,-9.5023345E-3,-2.4353128E-2,1.4182778E-2,-3.6526415E-2,1.7838553E-2],"categories":[],"categories_nodes":[],"categories_segments":[],"categories_sizes":[],"default_left":[0,0,0,0,0,0,0,0,0,0,0,0,0,0,0,0,0,0,0,0,0,0,0,0,0,0,0,0,0],"id":39,"left_children":[1,3,5,7,9,11,13,15,17,19,21,23,-1,25,27,-1,-1,-1,-1,-1,-1,-1,-1,-1,-1,-1,-1,-1,-1],"loss_changes":[2.570831E1,9.228888E0,4.4441166E0,9.945296E0,1.3215531E1,7.6632824E0,7.446775E0,1.4038035E1,6.6407585E0,1.10292E1,1.1048435E1,6.0108566E0,0E0,6.4826202E0,7.547251E0,0E0,0E0,0E0,0E0,0E0,0E0,0E0,0E0,0E0,0E0,0E0,0E0,0E0,0E0],"parents":[2147483647,0,0,1,1,2,2,3,3,4,4,5,5,6,6,7,7,8,8,9,9,10,10,11,11,13,13,14,14],"right_children":[2,4,6,8,10,12,14,16,18,20,22,24,-1,26,28,-1,-1,-1,-1,-1,-1,-1,-1,-1,-1,-1,-1,-1,-1],"split_conditions":[1E0,1E0,1E0,1.588759E0,1E0,8.307869E-1,1E0,6.4E1,1E0,3.3868235E-1,0E0,1.0476726E0,-5.3508896E-2,1.6677355E0,6.232118E-1,4.516898E-3,3.822369E-2,-5.469652E-4,-3.037021E-2,2.486237E-2,5.1931674E-3,1.3195895E-2,-6.2090453E-2,-2.907795E-2,-9.5023345E-3,-2.4353128E-2,1.4182778E-2,-3.6526415E-2,1.7838553E-2],"split_indices":[38,32,18,2,26,1,22,11,23,1,8,5,0,2,1,0,0,0,0,0,0,0,0,0,0,0,0,0,0],"split_type":[0,0,0,0,0,0,0,0,0,0,0,0,0,0,0,0,0,0,0,0,0,0,0,0,0,0,0,0,0],"sum_hessian":[3.6927812E3,3.3668604E3,3.2592093E2,2.3691104E3,9.9774994E2,2.3002087E2,9.590007E1,2.094175E2,2.1596929E3,9.785092E2,1.9240726E1,2.1767218E2,1.2348692E1,6.391442E1,3.1985651E1,1.7270152E2,3.671597E1,2.1418623E3,1.7830624E1,7.651675E1,9.019925E2,7.3543544E0,1.1886373E1,5.1091442E1,1.6658073E2,1.2848087E1,5.1066334E1,2.4109861E1,7.875791E0],"tree_param":{"num_deleted":"0","num_feature":"41","num_nodes":"29","size_leaf_vector":"1"}},{"base_weights":[-4.3390044E-3,2.2446005E-2,-2.7926585E-1,-8.518745E-1,2.6717981E-2,-2.606738E-1,-5.68446E-2,-8.425257E-3,-7.4088156E-2,-5.0959483E-2,5.2721713E-2,-2.8479028E-1,2.5629843E-2,-5.4433686E-3,1.0101861E-2,2.254425E-2,2.0249179E-3,-1.1603448E-2,-3.7148148E-2],"categories":[],"categories_nodes":[],"categories_segments":[],"categories_sizes":[],"default_left":[0,0,0,0,0,0,0,0,0,0,0,0,0,0,0,0,0,0,0],"id":40,"left_children":[1,3,5,7,9,11,-1,-1,-1,13,15,17,-1,-1,-1,-1,-1,-1,-1],"loss_changes":[2.7165518E1,1.2578802E1,4.925583E0,6.7992125E0,6.7618484E0,6.147936E0,0E0,0E0,0E0,1.2325067E1,1.2185511E1,7.382305E0,0E0,0E0,0E0,0E0,0E0,0E0,0E0],"parents":[2147483647,0,0,1,1,2,2,3,3,4,4,5,5,9,9,10,10,11,11],"right_children":[2,4,6,8,10,12,-1,-1,-1,14,16,18,-1,-1,-1,-1,-1,-1,-1],"split_conditions":[1E0,-6.3089436E-1,6.178161E0,2E0,1.6065475E0,3.875E0,-5.68446E-2,-8.425257E-3,-7.4088156E-2,1E0,5.8125126E-1,1.7143304E0,2.5629843E-2,-5.4433686E-3,1.0101861E-2,2.254425E-2,2.0249179E-3,-1.1603448E-2,-3.7148148E-2],"split_indices":[38,7,5,13,5,7,0,0,0,25,6,6,0,0,0,0,0,0,0],"split_type":[0,0,0,0,0,0,0,0,0,0,0,0,0,0,0,0,0,0,0],"sum_hessian":[3.687152E3,3.3606553E3,3.2649667E2,1.5375776E1,3.3452795E3,3.2084518E2,5.6514926E0,7.982758E0,7.3930182E0,8.387711E2,2.5065085E3,3.1175403E2,9.091166E0,6.830084E2,1.5576268E2,7.358739E1,2.4329211E3,2.8093384E2,3.0820192E1],"tree_param":{"num_deleted":"0","num_feature":"41","num_nodes":"19","size_leaf_vector":"1"}},{"base_weights":[1.7128799E-3,2.4492031E-2,-2.3946078E-1,-4.1528723E-1,3.312606E-2,-2.2014013E-1,-5.534273E-2,-6.428045E-1,5.1346314E-1,2.818535E-2,5.296933E-1,-1.8950684E-1,-6.5636843E-1,-3.830818E-2,2.1802714E-2,-1.8760428E-3,5.848667E-2,9.75434E-4,1.6785186E-2,-1.5810616E-2,3.7380975E-2,-1.1476952E-2,6.9262944E-2,-4.804006E-2,-4.3345643E-3],"categories":[],"categories_nodes":[],"categories_segments":[],"categories_sizes":[],"default_left":[0,0,0,0,0,0,0,0,0,0,0,0,0,0,0,0,0,0,0,0,0,0,0,0,0],"id":41,"left_children":[1,3,5,7,9,11,-1,13,15,17,19,21,23,-1,-1,-1,-1,-1,-1,-1,-1,-1,-1,-1,-1],"loss_changes":[2.0285282E1,1.2823978E1,5.096613E0,1.4072075E1,8.105026E0,4.057782E0,0E0,7.345251E0,4.8720746E0,8.740278E0,6.236801E0,1.8841675E1,3.4076996E0,0E0,0E0,0E0,0E0,0E0,0E0,0E0,0E0,0E0,0E0,0E0,0E0],"parents":[2147483647,0,0,1,1,2,2,3,3,4,4,5,5,7,7,8,8,9,9,10,10,11,11,12,12],"right_children":[2,4,6,8,10,12,-1,14,16,18,20,22,24,-1,-1,-1,-1,-1,-1,-1,-1,-1,-1,-1,-1],"split_conditions":[1E0,9.5E0,1E0,1E0,2.0681098E0,6.78317E0,-5.534273E-2,7.0348577E0,3.951771E0,1E0,2.9614215E0,6.218175E0,1E0,-3.830818E-2,2.1802714E-2,-1.8760428E-3,5.848667E-2,9.75434E-4,1.6785186E-2,-1.5810616E-2,3.7380975E-2,-1.1476952E-2,6.9262944E-2,-4.804006E-2,-4.3345643E-3],"split_indices":[38,12,23,15,8,2,0,2,2,14,5,2,22,0,0,0,0,0,0,0,0,0,0,0,0],"split_type":[0,0,0,0,0,0,0,0,0,0,0,0,0,0,0,0,0,0,0,0,0,0,0,0,0],"sum_hessian":[3.690374E3,3.3727153E3,3.1765872E2,6.40335E1,3.308682E3,3.119637E2,5.6949964E0,5.168101E1,1.2352488E1,3.277132E3,3.1549814E1,2.928344E2,1.9129307E1,4.663814E1,5.0428686E0,7.2274084E0,5.125079E0,3.188239E3,8.889315E1,6.3705964E0,2.5179218E1,2.8640787E2,6.426546E0,1.2019547E1,7.1097603E0],"tree_param":{"num_deleted":"0","num_feature":"41","num_nodes":"25","size_leaf_vector":"1"}},{"base_weights":[2.2741598E-3,2.4536142E-2,-2.2539511E-1,-3.5218213E-2,8.024333E-2,-4.668803E-1,-1.554747E-1,-1.3161954E-2,-4.7743863E-1,9.249625E-2,-3.9735562E-1,-7.383841E-1,-1.8375912E-1,-3.264209E-1,1.5792934E-2,-3.0678005E-3,5.9020626E-3,-8.800897E-3,-3.962262E-2,2.6314661E-3,1.0859759E-2,-4.8310537E-2,-5.301423E-4,-5.1768094E-2,-6.651651E-3,3.94403E-2,-2.11811E-2,-2.7161585E-3,-2.4664188E-2,-2.692622E-3,4.2713504E-2],"categories":[],"categories_nodes":[],"categories_segments":[],"categories_sizes":[],"default_left":[0,0,0,0,0,0,0,0,0,0,0,0,0,0,0,0,0,0,0,0,0,0,0,0,0,0,0,0,0,0,0],"id":42,"left_children":[1,3,5,7,9,11,13,15,17,19,21,23,25,27,29,-1,-1,-1,-1,-1,-1,-1,-1,-1,-1,-1,-1,-1,-1,-1,-1],"loss_changes":[1.8826996E1,1.1266124E1,5.5140667E0,1.5923657E1,1.0286095E1,5.5365562E0,7.56106E0,9.8503065E0,7.2250004E0,8.481802E0,9.669651E0,6.5745983E0,9.071567E0,5.839569E0,7.630009E0,0E0,0E0,0E0,0E0,0E0,0E0,0E0,0E0,0E0,0E0,0E0,0E0,0E0,0E0,0E0,0E0],"parents":[2147483647,0,0,1,1,2,2,3,3,4,4,5,5,6,6,7,7,8,8,9,9,10,10,11,11,12,12,13,13,14,14],"right_children":[2,4,6,8,10,12,14,16,18,20,22,24,26,28,30,-1,-1,-1,-1,-1,-1,-1,-1,-1,-1,-1,-1,-1,-1,-1,-1],"split_conditions":[1E0,7.3611115E1,1.05E1,7.281554E1,1E0,7.5E1,2.2749565E0,-9.067357E-2,1.075E1,4E0,9.377664E-2,5.6213015E-1,1.7781796E0,2.0329201E-1,5.8021467E-2,-3.0678005E-3,5.9020626E-3,-8.800897E-3,-3.962262E-2,2.6314661E-3,1.0859759E-2,-4.8310537E-2,-5.301423E-4,-5.1768094E-2,-6.651651E-3,3.94403E-2,-2.11811E-2,-2.7161585E-3,-2.4664188E-2,-2.692622E-3,4.2713504E-2],"split_indices":[38,0,12,0,26,0,2,9,12,13,4,4,5,4,8,0,0,0,0,0,0,0,0,0,0,0,0,0,0,0,0],"split_type":[0,0,0,0,0,0,0,0,0,0,0,0,0,0,0,0,0,0,0,0,0,0,0,0,0,0,0,0,0,0,0],"sum_hessian":[3.712515E3,3.382645E3,3.2986993E2,1.6322155E3,1.7504294E3,7.279152E1,2.5707843E2,1.5556552E3,7.6560356E1,1.7074312E3,4.2998276E1,3.6337265E1,3.6454254E1,1.2820656E2,1.2887187E2,1.1381266E3,4.1752863E2,3.9920864E1,3.663949E1,1.2948746E3,4.1255655E2,1.6795847E1,2.6202427E1,2.3901257E1,1.243601E1,6.7592287E0,2.9695024E1,4.9239265E1,7.896729E1,1.19852486E2,9.019383E0],"tree_param":{"num_deleted":"0","num_feature":"41","num_nodes":"31","size_leaf_vector":"1"}},{"base_weights":[2.2711938E-3,2.4271632E-2,-2.2343375E-1,3.1672116E-2,-2.9946977E-1,-3.04098E-1,-3.0766325E-2,7.48203E-2,-2.0298319E-2,-7.593801E-1,1.2592751E-1,-2.4643323E-1,-8.3457375E-1,5.3639352E-2,-5.880599E-1,4.2898743E-3,-3.7512973E-2,6.6671043E-4,-1.458799E-2,-6.1570186E-2,-8.474178E-3,1.5838586E-2,-4.4770014E-2,-1.8328367E-2,5.875771E-3,-2.5865976E-3,-5.489505E-2,-1.1333794E-2,2.4980305E-2,-5.8818478E-2,1.4014981E-2],"categories":[],"categories_nodes":[],"categories_segments":[],"categories_sizes":[],"default_left":[0,0,0,0,0,0,0,0,0,0,0,0,0,0,0,0,0,0,0,0,0,0,0,0,0,0,0,0,0,0,0],"id":43,"left_children":[1,3,5,7,9,11,13,15,17,19,21,23,25,27,29,-1,-1,-1,-1,-1,-1,-1,-1,-1,-1,-1,-1,-1,-1,-1,-1],"loss_changes":[1.83081E1,8.058132E0,5.079939E0,7.3684583E0,1.4802875E1,6.8518333E0,4.629725E0,1.632351E1,1.3617148E1,9.888714E0,8.0626135E0,9.203528E0,4.5199194E0,1.0840663E1,6.941089E0,0E0,0E0,0E0,0E0,0E0,0E0,0E0,0E0,0E0,0E0,0E0,0E0,0E0,0E0,0E0,0E0],"parents":[2147483647,0,0,1,1,2,2,3,3,4,4,5,5,6,6,7,7,8,8,9,9,10,10,11,11,12,12,13,13,14,14],"right_children":[2,4,6,8,10,12,14,16,18,20,22,24,26,28,30,-1,-1,-1,-1,-1,-1,-1,-1,-1,-1,-1,-1,-1,-1,-1,-1],"split_conditions":[1E0,1E0,1E0,1.9539428E-1,1.4031076E-1,4.2287297E0,4.630255E0,1.4317047E1,1.525E1,8.147541E1,4.306673E0,4E0,1.6504374E-1,2.324178E0,3.2823255E0,4.2898743E-3,-3.7512973E-2,6.6671043E-4,-1.458799E-2,-6.1570186E-2,-8.474178E-3,1.5838586E-2,-4.4770014E-2,-1.8328367E-2,5.875771E-3,-2.5865976E-3,-5.489505E-2,-1.1333794E-2,2.4980305E-2,-5.8818478E-2,1.4014981E-2],"split_indices":[38,26,18,4,4,3,2,2,12,0,5,13,4,2,5,0,0,0,0,0,0,0,0,0,0,0,0,0,0,0,0],"split_type":[0,0,0,0,0,0,0,0,0,0,0,0,0,0,0,0,0,0,0,0,0,0,0,0,0,0,0,0,0,0,0],"sum_hessian":[3.6848892E3,3.3584216E3,3.2646744E2,3.2842483E3,7.417328E1,2.2971434E2,9.675309E1,1.7941909E3,1.4900574E3,3.526359E1,3.8909687E1,2.0851274E2,2.12016E1,8.4811584E1,1.1941507E1,1.771518E3,2.2672956E1,1.3266447E3,1.6341281E2,1.8984823E1,1.627877E1,3.3364983E1,5.544702E0,1.5676102E2,5.175172E1,5.637729E0,1.5563869E1,5.2379707E1,3.2431877E1,6.907204E0,5.034303E0],"tree_param":{"num_deleted":"0","num_feature":"41","num_nodes":"31","size_leaf_vector":"1"}},{"base_weights":[1.4506503E-2,3.4917865E-2,-2.0298302E-1,-5.9205342E-2,3.7469313E-2,-3.2234684E-1,-4.375167E-2,4.7776988E-1,2.9135985E-2,-3.7897503E-1,4.6505097E-1,-1.751183E-1,3.184287E-1,1.0479712E-2,4.5695726E-2,-1.8200317E-2,1.833716E-3,-2.781565E-2,-4.9897204E-3,-1.3368187E-2,5.1200032E-2,2.2407444E-2,-1.285702E-2,3.6370605E-2,-9.0115825E-3],"categories":[],"categories_nodes":[],"categories_segments":[],"categories_sizes":[],"default_left":[0,0,0,0,0,0,0,0,0,0,0,0,0,0,0,0,0,0,0,0,0,0,0,0,0],"id":44,"left_children":[1,3,5,-1,7,9,11,13,15,17,19,21,23,-1,-1,-1,-1,-1,-1,-1,-1,-1,-1,-1,-1],"loss_changes":[1.6429806E1,1.0566059E1,6.02139E0,0E0,1.2376068E1,8.26194E0,6.584036E0,7.137191E0,9.838182E0,8.347355E0,5.4383726E0,5.295644E0,7.6517344E0,0E0,0E0,0E0,0E0,0E0,0E0,0E0,0E0,0E0,0E0,0E0,0E0],"parents":[2147483647,0,0,1,1,2,2,4,4,5,5,6,6,7,7,8,8,9,9,10,10,11,11,12,12],"right_children":[2,4,6,-1,8,10,12,14,16,18,20,22,24,-1,-1,-1,-1,-1,-1,-1,-1,-1,-1,-1,-1],"split_conditions":[1E0,4.7588426E-1,1.425E1,-5.9205342E-2,7.490637E-1,1E0,4.313085E-1,2.808208E-1,9.5E0,7.631579E1,2.9953158E-1,3.968254E-2,5.1436454E-1,1.0479712E-2,4.5695726E-2,-1.8200317E-2,1.833716E-3,-2.781565E-2,-4.9897204E-3,-1.3368187E-2,5.1200032E-2,2.2407444E-2,-1.285702E-2,3.6370605E-2,-9.0115825E-3],"split_indices":[38,5,12,0,5,28,1,1,12,0,6,4,1,0,0,0,0,0,0,0,0,0,0,0,0],"split_type":[0,0,0,0,0,0,0,0,0,0,0,0,0,0,0,0,0,0,0,0,0,0,0,0,0],"sum_hessian":[3.6984294E3,3.38188E3,3.1654953E2,6.09633E0,3.3757837E3,1.803387E2,1.3621082E2,6.1658447E1,3.3141252E3,1.6872314E2,1.1615555E1,1.00334816E2,3.5876003E1,3.909832E1,2.2560127E1,6.1461693E1,3.2526633E3,1.0257436E2,6.614878E1,5.253433E0,6.362122E0,1.1149392E1,8.9185425E1,1.9458282E1,1.641772E1],"tree_param":{"num_deleted":"0","num_feature":"41","num_nodes":"25","size_leaf_vector":"1"}},{"base_weights":[1.0659238E-2,-7.0691064E-2,4.551602E-2,-5.7046883E-2,-8.81923E-1,8.681968E-2,-5.489473E-2,-2.260866E-1,1.1166239E-3,-8.924077E-3,-6.61221E-2,1.2174138E-1,-1.2562703E-1,-3.4960338E-1,6.6443263E-3,-9.359169E-3,-5.9580278E-2,-2.2042156E-3,1.5711354E-2,1.4417293E-2,3.144277E-3,-1.0523188E-2,2.6943127E-2,-3.4740366E-2,-1.6375586E-4,-4.574148E-3,1.0223552E-2],"categories":[],"categories_nodes":[],"categories_segments":[],"categories_sizes":[],"default_left":[0,0,0,0,0,0,0,0,0,0,0,0,0,0,0,0,0,0,0,0,0,0,0,0,0,0,0],"id":45,"left_children":[1,3,5,7,9,11,13,15,17,-1,-1,19,21,23,25,-1,-1,-1,-1,-1,-1,-1,-1,-1,-1,-1,-1],"loss_changes":[1.0464036E1,1.2202056E1,1.0717903E1,1.0714201E1,5.416397E0,1.3596912E1,1.3667632E1,1.0255486E1,1.1502322E1,0E0,0E0,1.5403431E1,1.471014E1,1.556098E1,1.213792E1,0E0,0E0,0E0,0E0,0E0,0E0,0E0,0E0,0E0,0E0,0E0,0E0],"parents":[2147483647,0,0,1,1,2,2,3,3,4,4,5,5,6,6,7,7,8,8,11,11,12,12,13,13,14,14],"right_children":[2,4,6,8,10,12,14,16,18,-1,-1,20,22,24,26,-1,-1,-1,-1,-1,-1,-1,-1,-1,-1,-1,-1],"split_conditions":[8.2943213E-1,7.5E1,2.4875069E0,5.7E1,1.075E1,7.3E1,7.413793E1,8.081711E0,6.0244575E0,-8.924077E-3,-6.61221E-2,1E0,8.621622E1,2.195619E0,3E0,-9.359169E-3,-5.9580278E-2,-2.2042156E-3,1.5711354E-2,1.4417293E-2,3.144277E-3,-1.0523188E-2,2.6943127E-2,-3.4740366E-2,-1.6375586E-4,-4.574148E-3,1.0223552E-2],"split_indices":[6,11,7,11,12,11,0,2,2,0,0,13,0,6,13,0,0,0,0,0,0,0,0,0,0,0,0],"split_type":[0,0,0,0,0,0,0,0,0,0,0,0,0,0,0,0,0,0,0,0,0,0,0,0,0,0,0],"sum_hessian":[3.6880894E3,1.1059489E3,2.5821404E3,1.0887081E3,1.7240751E1,1.8296534E3,7.52487E2,2.779677E2,8.107404E2,7.1802115E0,1.006054E1,1.5717228E3,2.5793066E2,1.2917775E2,6.2330927E2,2.683491E2,9.6186075E0,7.0921643E2,1.0152399E2,4.0927634E2,1.1624464E3,2.2933435E2,2.8596317E1,6.4189964E1,6.4987785E1,4.170025E2,2.0630675E2],"tree_param":{"num_deleted":"0","num_feature":"41","num_nodes":"27","size_leaf_vector":"1"}},{"base_weights":[1.001196E-3,1.9317735E-2,-1.8859798E-1,2.2415726E-2,-7.891026E-1,-1.3231276E-1,-5.280308E-1,1.104953E-2,2.2734427E-1,-6.7004286E-2,-7.1575376E-3,-2.3569214E-1,1.5460046E-1,-7.6750886E-1,1.6785184E-1,7.826322E-4,-4.136304E-2,2.7206544E-2,-6.2743663E-3,-2.2182774E-2,-1.9131398E-3,-9.01595E-3,2.8283505E-2,-5.1797666E-2,-7.5090765E-3,3.536035E-2,-2.6315147E-2],"categories":[],"categories_nodes":[],"categories_segments":[],"categories_sizes":[],"default_left":[0,0,0,0,0,0,0,0,0,0,0,0,0,0,0,0,0,0,0,0,0,0,0,0,0,0,0],"id":46,"left_children":[1,3,5,7,9,11,13,15,17,-1,-1,19,21,23,25,-1,-1,-1,-1,-1,-1,-1,-1,-1,-1,-1,-1],"loss_changes":[1.2746971E1,8.400449E0,6.1079082E0,7.76627E0,4.3656764E0,8.30292E0,7.73779E0,1.2211066E1,1.9652767E1,0E0,0E0,8.411204E0,1.0348461E1,5.5034027E0,5.0560613E0,0E0,0E0,0E0,0E0,0E0,0E0,0E0,0E0,0E0,0E0,0E0,0E0],"parents":[2147483647,0,0,1,1,2,2,3,3,4,4,5,5,6,6,7,7,8,8,11,11,12,12,13,13,14,14],"right_children":[2,4,6,8,10,12,14,16,18,-1,-1,20,22,24,26,-1,-1,-1,-1,-1,-1,-1,-1,-1,-1,-1,-1],"split_conditions":[1E0,8.250872E0,1.678001E0,6.2117076E0,2.0108991E-3,7.541322E1,3.9631395E0,3.9541454E0,3.9927405E-1,-6.7004286E-2,-7.1575376E-3,1.425E1,2.72043E0,5.356621E0,5.9934793E0,7.826322E-4,-4.136304E-2,2.7206544E-2,-6.2743663E-3,-2.2182774E-2,-1.9131398E-3,-9.01595E-3,2.8283505E-2,-5.1797666E-2,-7.5090765E-3,3.536035E-2,-2.6315147E-2],"split_indices":[38,7,6,3,8,0,7,6,4,0,0,12,2,2,5,0,0,0,0,0,0,0,0,0,0,0,0],"split_type":[0,0,0,0,0,0,0,0,0,0,0,0,0,0,0,0,0,0,0,0,0,0,0,0,0,0,0],"sum_hessian":[3.668467E3,3.346109E3,3.2235825E2,3.3343037E3,1.1805286E1,2.7769952E2,4.4658707E1,3.160086E3,1.7421768E2,5.791053E0,6.0142336E0,2.0427466E2,7.3424866E1,3.3148273E1,1.1510433E1,3.143805E3,1.6281122E1,9.151216E1,8.270552E1,9.887595E1,1.05398705E2,4.076934E1,3.2655525E1,2.2629656E1,1.0518617E1,6.466887E0,5.043546E0],"tree_param":{"num_deleted":"0","num_feature":"41","num_nodes":"27","size_leaf_vector":"1"}},{"base_weights":[2.6813676E-3,-6.235195E-1,6.243743E-3,-9.6436095E-1,1.6998125E-2,-3.297417E-1,1.2497114E-2,-2.0624945E-2,-6.0993012E-2,-4.923691E-1,3.4981602E-1,3.578223E-2,-7.314316E-2,8.483863E-3,-3.6852594E-2,4.1674484E-2,-1.3623741E-2,1.2839893E-3,3.363372E-2,