{"learner":{"attributes":{"scikit_learn":"{\"_estimator_type\": \"classifier\"}"},"feature_names":["gap_pct","opening_range_15m_pct","opening_range_30m_pct","price_position_in_range_15m","price_position_in_range_30m","first_bar_return","first_bar_range_pct","first_bar_volume_ratio","cum_return_since_open","minutes_since_open","prev_day_range_pct","prev_day_return","rsi_14","atr_pct","volume_ratio","bb_width","recent_high_dist_pct","recent_low_dist_pct","ema20_dist_pct","ema50_dist_pct","nifty_1d_return","nifty_gap_pct","hour","minute","weekday","direction_LONG","direction_SHORT","gap_dir_down","gap_dir_flat","gap_dir_up","nifty_1d_trend_DOWN","nifty_1d_trend_FLAT","nifty_1d_trend_UP"],"feature_types":["float","float","float","float","float","float","float","float","float","int","float","float","float","float","float","float","float","float","float","float","float","float","int","int","int","i","i","i","i","i","i","i","i"],"gradient_booster":{"model":{"cats":{"enc":[],"feature_segments":[],"sorted_idx":[]},"gbtree_model_param":{"num_parallel_tree":"1","num_trees":"400"},"iteration_indptr":[0,1,2,3,4,5,6,7,8,9,10,11,12,13,14,15,16,17,18,19,20,21,22,23,24,25,26,27,28,29,30,31,32,33,34,35,36,37,38,39,40,41,42,43,44,45,46,47,48,49,50,51,52,53,54,55,56,57,58,59,60,61,62,63,64,65,66,67,68,69,70,71,72,73,74,75,76,77,78,79,80,81,82,83,84,85,86,87,88,89,90,91,92,93,94,95,96,97,98,99,100,101,102,103,104,105,106,107,108,109,110,111,112,113,114,115,116,117,118,119,120,121,122,123,124,125,126,127,128,129,130,131,132,133,134,135,136,137,138,139,140,141,142,143,144,145,146,147,148,149,150,151,152,153,154,155,156,157,158,159,160,161,162,163,164,165,166,167,168,169,170,171,172,173,174,175,176,177,178,179,180,181,182,183,184,185,186,187,188,189,190,191,192,193,194,195,196,197,198,199,200,201,202,203,204,205,206,207,208,209,210,211,212,213,214,215,216,217,218,219,220,221,222,223,224,225,226,227,228,229,230,231,232,233,234,235,236,237,238,239,240,241,242,243,244,245,246,247,248,249,250,251,252,253,254,255,256,257,258,259,260,261,262,263,264,265,266,267,268,269,270,271,272,273,274,275,276,277,278,279,280,281,282,283,284,285,286,287,288,289,290,291,292,293,294,295,296,297,298,299,300,301,302,303,304,305,306,307,308,309,310,311,312,313,314,315,316,317,318,319,320,321,322,323,324,325,326,327,328,329,330,331,332,333,334,335,336,337,338,339,340,341,342,343,344,345,346,347,348,349,350,351,352,353,354,355,356,357,358,359,360,361,362,363,364,365,366,367,368,369,370,371,372,373,374,375,376,377,378,379,380,381,382,383,384,385,386,387,388,389,390,391,392,393,394,395,396,397,398,399,400],"tree_info":[0,0,0,0,0,0,0,0,0,0,0,0,0,0,0,0,0,0,0,0,0,0,0,0,0,0,0,0,0,0,0,0,0,0,0,0,0,0,0,0,0,0,0,0,0,0,0,0,0,0,0,0,0,0,0,0,0,0,0,0,0,0,0,0,0,0,0,0,0,0,0,0,0,0,0,0,0,0,0,0,0,0,0,0,0,0,0,0,0,0,0,0,0,0,0,0,0,0,0,0,0,0,0,0,0,0,0,0,0,0,0,0,0,0,0,0,0,0,0,0,0,0,0,0,0,0,0,0,0,0,0,0,0,0,0,0,0,0,0,0,0,0,0,0,0,0,0,0,0,0,0,0,0,0,0,0,0,0,0,0,0,0,0,0,0,0,0,0,0,0,0,0,0,0,0,0,0,0,0,0,0,0,0,0,0,0,0,0,0,0,0,0,0,0,0,0,0,0,0,0,0,0,0,0,0,0,0,0,0,0,0,0,0,0,0,0,0,0,0,0,0,0,0,0,0,0,0,0,0,0,0,0,0,0,0,0,0,0,0,0,0,0,0,0,0,0,0,0,0,0,0,0,0,0,0,0,0,0,0,0,0,0,0,0,0,0,0,0,0,0,0,0,0,0,0,0,0,0,0,0,0,0,0,0,0,0,0,0,0,0,0,0,0,0,0,0,0,0,0,0,0,0,0,0,0,0,0,0,0,0,0,0,0,0,0,0,0,0,0,0,0,0,0,0,0,0,0,0,0,0,0,0,0,0,0,0,0,0,0,0,0,0,0,0,0,0,0,0,0,0,0,0,0,0,0,0,0,0,0,0,0,0,0,0,0,0,0,0,0,0,0,0,0,0,0,0,0,0,0,0,0,0,0,0,0,0,0,0,0,0,0,0,0,0,0,0,0,0,0,0],"trees":[{"base_weights":[8.4828626E-4,1.3062358E-1,-1.17075905E-1,2.4613567E-1,1.5313996E-2,-2.1397285E-2,-2.1274403E-1,2.337932E-2,7.1950525E-1,4.2490697E-1,-2.566965E-1,9.0951756E-2,-3.852692E-1,-3.126521E-1,1.11283615E-1,-7.3856634E-1,1.9632278E-1,1.7759973E0,4.7053668E-1,1.1312884E0,1.6490111E-1,-7.2124106E-1,2.2447545E-2,-4.798491E-2,2.526089E-1,-5.9490293E-1,-2.939627E-1,-5.410128E-1,-2.1392375E-1,4.4664815E-1,3.557673E-2,-5.501796E-2,-6.256573E-3,1.758947E-2,-2.4201622E-2,5.3207655E-2,1.2388603E-1,3.5101157E-2,-9.73261E-3,1.07343554E-1,3.364138E-2,1.5885903E-3,4.1079875E-2,-1.5883358E-2,-4.7794722E-2,-8.0167195E-3,2.9998127E-2,-3.406258E-2,3.8589945E-3,5.109201E-2,9.622416E-3,-5.4879732E-2,-2.5209371E-2,1.8079218E-3,-1.8713815E-2,-1.3199623E-2,-3.1493615E-2,1.182294E-3,-1.5984055E-2,1.130558E-1,1.2122067E-2,-1.237415E-2,8.869378E-3],"categories":[],"categories_nodes":[],"categories_segments":[],"categories_sizes":[],"default_left":[0,0,0,0,0,0,0,0,0,0,0,0,0,0,0,0,0,0,0,0,0,0,0,0,0,0,0,0,0,0,0,0,0,0,0,0,0,0,0,0,0,0,0,0,0,0,0,0,0,0,0,0,0,0,0,0,0,0,0,0,0,0,0],"id":0,"left_children":[1,3,5,7,9,11,13,15,17,19,21,23,25,27,29,31,33,35,37,39,41,43,45,47,49,51,53,55,57,59,61,-1,-1,-1,-1,-1,-1,-1,-1,-1,-1,-1,-1,-1,-1,-1,-1,-1,-1,-1,-1,-1,-1,-1,-1,-1,-1,-1,-1,-1,-1,-1,-1],"loss_changes":[9.226792E2,3.8209857E2,2.8885345E2,1.5109465E3,1.6016862E3,6.462116E2,5.1134937E2,1.2848524E3,1.2023743E3,1.0521808E3,1.1206842E3,2.7133942E2,7.014935E1,2.7112952E2,9.3925735E1,3.9874463E2,8.412002E2,4.27333E2,5.728156E2,7.1244727E2,3.6606583E2,3.052472E2,5.701726E2,5.151178E2,2.5675177E2,4.8652832E1,6.943999E1,8.834338E1,2.1218405E2,2.4926277E2,1.2201445E2,0E0,0E0,0E0,0E0,0E0,0E0,0E0,0E0,0E0,0E0,0E0,0E0,0E0,0E0,0E0,0E0,0E0,0E0,0E0,0E0,0E0,0E0,0E0,0E0,0E0,0E0,0E0,0E0,0E0,0E0,0E0,0E0],"parents":[2147483647,0,0,1,1,2,2,3,3,4,4,5,5,6,6,7,7,8,8,9,9,10,10,11,11,12,12,13,13,14,14,15,15,16,16,17,17,18,18,19,19,20,20,21,21,22,22,23,23,24,24,25,25,26,26,27,27,28,28,29,29,30,30],"right_children":[2,4,6,8,10,12,14,16,18,20,22,24,26,28,30,32,34,36,38,40,42,44,46,48,50,52,54,56,58,60,62,-1,-1,-1,-1,-1,-1,-1,-1,-1,-1,-1,-1,-1,-1,-1,-1,-1,-1,-1,-1,-1,-1,-1,-1,-1,-1,-1,-1,-1,-1,-1,-1],"split_conditions":[3.6029875E-1,1E0,1E0,6.259781E-1,3.655914E-1,1E0,1E0,1E1,1E1,2E1,2E1,4.984326E-1,3.015873E-1,1E0,1.7318435E-1,4.437811E-1,1E0,7.5484496E-1,1E0,1.8181819E-1,1E0,5.4E-1,1E0,2E1,1E1,2E1,2E1,-7.4525746E-3,2.8269824E-1,2E1,3E1,-5.501796E-2,-6.256573E-3,1.758947E-2,-2.4201622E-2,5.3207655E-2,1.2388603E-1,3.5101157E-2,-9.73261E-3,1.07343554E-1,3.364138E-2,1.5885903E-3,4.1079875E-2,-1.5883358E-2,-4.7794722E-2,-8.0167195E-3,2.9998127E-2,-3.406258E-2,3.8589945E-3,5.109201E-2,9.622416E-3,-5.4879732E-2,-2.5209371E-2,1.8079218E-3,-1.8713815E-2,-1.3199623E-2,-3.1493615E-2,1.182294E-3,-1.5984055E-2,1.130558E-1,1.2122067E-2,-1.237415E-2,8.869378E-3],"split_indices":[13,25,25,4,4,32,32,9,9,9,9,4,4,31,4,4,32,4,32,4,32,4,32,9,9,9,9,0,4,9,9,0,0,0,0,0,0,0,0,0,0,0,0,0,0,0,0,0,0,0,0,0,0,0,0,0,0,0,0,0,0,0,0],"split_type":[0,0,0,0,0,0,0,0,0,0,0,0,0,0,0,0,0,0,0,0,0,0,0,0,0,0,0,0,0,0,0,0,0,0,0,0,0,0,0,0,0,0,0,0,0,0,0,0,0,0,0,0,0,0,0,0,0,0,0,0,0,0,0],"sum_hessian":[6.0286574E4,2.8705025E4,3.1581549E4,1.4334455E4,1.4370571E4,1.5796357E4,1.578519E4,9.750375E3,4.5840806E3,5.7359453E3,8.634625E3,1.206876E4,3.727597E3,1.2067539E4,3.717652E3,1.8014247E3,7.9489497E3,8.711393E2,3.7129412E3,1.5404144E3,4.1955312E3,3.2411687E3,5.3934565E3,6.4879204E3,5.58084E3,1.1242983E3,2.6032986E3,3.636697E3,8.430842E3,6.804413E2,3.0372107E3,1.1311028E3,6.703219E2,6.4723926E3,1.4765576E3,4.356569E2,4.3548242E2,2.7554382E3,9.57503E2,4.7613443E2,1.0642799E3,3.4913616E3,7.041695E2,1.1949596E3,2.0462091E3,4.0966055E3,1.2968513E3,1.0705609E3,5.4173594E3,4.012859E2,5.1795537E3,1.6679535E2,9.57503E2,5.0719046E2,2.0961082E3,8.878886E2,2.7488083E3,2.594575E3,5.836267E3,6.629941E1,6.1414185E2,1.0108915E3,2.0263192E3],"tree_param":{"num_deleted":"0","num_feature":"33","num_nodes":"63","size_leaf_vector":"1"}},{"base_weights":[-2.9117696E-3,1.0352634E-1,-1.3001919E-1,2.1790221E-1,-1.1350288E-2,-4.199519E-2,-2.1883059E-1,4.8037753E-1,-2.8747237E-1,-3.1476825E-1,3.9806873E-1,1.3402365E-1,-3.3207843E-1,-3.787056E-1,1.679323E-2,2.544183E-1,1.023692E0,-5.6155366E-1,-2.6005097E-2,1.5259513E-2,-5.716752E-1,8.833556E-1,1.35531E-1,3.9799806E-1,3.5344012E-2,-4.4012555E-1,-1.2791601E-1,-6.21683E-1,-2.8342783E-1,1.9488953E-1,-1.1565016E-1,-2.9503588E-2,2.0892296E-2,8.194281E-2,3.5324525E-2,-4.8101168E-2,-1.8182011E-2,2.4699183E-2,-6.689226E-3,4.777424E-2,-6.1758454E-3,-5.303038E-2,-2.1947173E-2,7.657518E-2,3.0958757E-2,-3.71723E-2,1.6413286E-2,3.223234E-2,9.356457E-3,-7.1004773E-3,1.0749859E-2,-6.0566943E-2,-2.084738E-2,9.058814E-2,-1.151487E-2,-1.8887062E-2,-3.4355775E-2,-2.6211794E-4,-1.721864E-2,9.63185E-2,7.715502E-3,-3.6532354E-2,5.4822286E-4],"categories":[],"categories_nodes":[],"categories_segments":[],"categories_sizes":[],"default_left":[0,0,0,0,0,0,0,0,0,0,0,0,0,0,0,0,0,0,0,0,0,0,0,0,0,0,0,0,0,0,0,0,0,0,0,0,0,0,0,0,0,0,0,0,0,0,0,0,0,0,0,0,0,0,0,0,0,0,0,0,0,0,0],"id":1,"left_children":[1,3,5,7,9,11,13,15,17,19,21,23,25,27,29,31,33,35,37,39,41,43,45,47,49,51,53,55,57,59,61,-1,-1,-1,-1,-1,-1,-1,-1,-1,-1,-1,-1,-1,-1,-1,-1,-1,-1,-1,-1,-1,-1,-1,-1,-1,-1,-1,-1,-1,-1,-1,-1],"loss_changes":[8.1602966E2,4.3146542E2,2.1464551E2,2.1827173E3,2.0340752E3,7.057167E2,5.156671E2,1.3277458E3,4.0238525E2,7.980952E2,8.8657385E2,2.2349649E2,1.1446973E2,1.8746545E2,1.3053897E2,1.0564979E3,6.156775E2,2.1542645E2,1.6128911E2,5.383169E2,3.409254E2,4.1455908E2,7.667846E2,1.20449066E2,1.9969002E2,5.8307373E1,3.5920096E2,3.4993774E1,9.9039E1,1.6328665E2,2.4749103E2,0E0,0E0,0E0,0E0,0E0,0E0,0E0,0E0,0E0,0E0,0E0,0E0,0E0,0E0,0E0,0E0,0E0,0E0,0E0,0E0,0E0,0E0,0E0,0E0,0E0,0E0,0E0,0E0,0E0,0E0,0E0,0E0],"parents":[2147483647,0,0,1,1,2,2,3,3,4,4,5,5,6,6,7,7,8,8,9,9,10,10,11,11,12,12,13,13,14,14,15,15,16,16,17,17,18,18,19,19,20,20,21,21,22,22,23,23,24,24,25,25,26,26,27,27,28,28,29,29,30,30],"right_children":[2,4,6,8,10,12,14,16,18,20,22,24,26,28,30,32,34,36,38,40,42,44,46,48,50,52,54,56,58,60,62,-1,-1,-1,-1,-1,-1,-1,-1,-1,-1,-1,-1,-1,-1,-1,-1,-1,-1,-1,-1,-1,-1,-1,-1,-1,-1,-1,-1,-1,-1,-1,-1],"split_conditions":[3.8907215E-1,1E0,1E0,2.7585813E-1,1.2901233E-1,1.6028804E-1,1.2974116E-1,6.3461536E-1,4.9019608E-1,3.6945814E-1,3.5015774E-1,-7.428748E-1,6.744186E-1,-7.428748E-1,4.4E-1,1E1,2E1,2E1,1E1,1E1,1E1,2E1,1E1,5.3608036E-1,4.7058824E-1,3.3453888E-1,1E1,-1.0930888E-2,1.3559322E-1,5.388445E-1,2E1,-2.9503588E-2,2.0892296E-2,8.194281E-2,3.5324525E-2,-4.8101168E-2,-1.8182011E-2,2.4699183E-2,-6.689226E-3,4.777424E-2,-6.1758454E-3,-5.303038E-2,-2.1947173E-2,7.657518E-2,3.0958757E-2,-3.71723E-2,1.6413286E-2,3.223234E-2,9.356457E-3,-7.1004773E-3,1.0749859E-2,-6.0566943E-2,-2.084738E-2,9.058814E-2,-1.151487E-2,-1.8887062E-2,-3.4355775E-2,-2.6211794E-4,-1.721864E-2,9.63185E-2,7.715502E-3,-3.6532354E-2,5.4822286E-4],"split_indices":[13,25,25,20,20,20,20,4,4,4,4,20,4,20,4,9,9,9,9,9,9,9,9,13,4,16,9,0,4,16,9,0,0,0,0,0,0,0,0,0,0,0,0,0,0,0,0,0,0,0,0,0,0,0,0,0,0,0,0,0,0,0,0],"split_type":[0,0,0,0,0,0,0,0,0,0,0,0,0,0,0,0,0,0,0,0,0,0,0,0,0,0,0,0,0,0,0,0,0,0,0,0,0,0,0,0,0,0,0,0,0,0,0,0,0,0,0,0,0,0,0,0,0,0,0,0,0,0,0],"sum_hessian":[6.0310797E4,3.282014E4,2.7490656E4,1.6449377E4,1.6370762E4,1.3813668E4,1.3676989E4,1.0827829E4,5.621549E3,9.40424E3,6.9665215E3,8.595598E3,5.2180713E3,8.1500576E3,5.526931E3,7.6507383E3,3.1770903E3,2.741583E3,2.8799656E3,4.115446E3,5.288795E3,2.4427292E3,4.5237925E3,2.3344888E3,6.2611084E3,3.407526E3,1.8105453E3,2.2895925E3,5.8604653E3,2.3600222E3,3.1669087E3,1.2386809E3,6.4120576E3,1.0769751E3,2.1001152E3,9.0254535E2,1.8390377E3,4.9162836E2,2.3883372E3,5.287234E2,3.5867224E3,1.1246189E3,4.164176E3,7.034602E2,1.7392689E3,8.1159E2,3.7122021E3,1.0718789E3,1.2626097E3,3.1481292E3,3.1129792E3,9.517115E1,3.3123547E3,8.8610214E1,1.721935E3,4.9034518E2,1.7992473E3,1.0565201E3,4.8039453E3,5.1350945E1,2.3086714E3,5.404027E2,2.626506E3],"tree_param":{"num_deleted":"0","num_feature":"33","num_nodes":"63","size_leaf_vector":"1"}},{"base_weights":[-1.3277405E-3,1.12691015E-1,-1.0611793E-1,2.1918242E-1,5.075791E-3,-1.7416287E-2,-1.9599359E-1,4.663095E-1,-2.5964978E-1,-2.9670954E-1,3.9570948E-1,1.30891E-1,-3.0939516E-1,-3.688951E-1,5.8507632E-2,2.0063223E-1,9.272287E-1,-5.3913087E-1,1.0645307E-2,6.788858E-3,-5.9682244E-1,9.0446746E-1,1.4592446E-1,-1.5696739E-1,2.5169328E-1,-4.172611E-1,-1.14931285E-1,-6.2444437E-1,-2.731753E-1,3.286757E-1,-2.984121E-2,-4.6411816E-2,1.3094875E-2,6.8063796E-2,3.4063373E-2,-5.903673E-2,-2.3872087E-2,-1.0313558E-2,1.0324417E-2,-2.1136213E-2,9.417003E-3,-4.4451665E-2,-2.4202209E-2,1.10270314E-1,4.0142406E-2,-4.1939892E-2,9.569574E-3,2.3852339E-2,-1.3445991E-2,3.5452988E-2,8.323711E-3,-5.7515886E-2,-1.9640459E-2,1.2483596E-3,-1.6074387E-2,-2.1523869E-2,-3.873795E-2,8.513849E-3,-1.8191477E-2,2.7571931E-2,6.6456953E-3,-5.32733E-2,-6.0514704E-4],"categories":[],"categories_nodes":[],"categories_segments":[],"categories_sizes":[],"default_left":[0,0,0,0,0,0,0,0,0,0,0,0,0,0,0,0,0,0,0,0,0,0,0,0,0,0,0,0,0,0,0,0,0,0,0,0,0,0,0,0,0,0,0,0,0,0,0,0,0,0,0,0,0,0,0,0,0,0,0,0,0,0,0],"id":2,"left_children":[1,3,5,7,9,11,13,15,17,19,21,23,25,27,29,31,33,35,37,39,41,43,45,47,49,51,53,55,57,59,61,-1,-1,-1,-1,-1,-1,-1,-1,-1,-1,-1,-1,-1,-1,-1,-1,-1,-1,-1,-1,-1,-1,-1,-1,-1,-1,-1,-1,-1,-1,-1,-1],"loss_changes":[7.1969116E2,3.3031683E2,2.5004544E2,1.7153777E3,1.692316E3,6.847564E2,6.862526E2,1.1693137E3,3.732173E2,7.3808374E2,7.939186E2,3.6466925E2,1.1112045E2,2.2586414E2,1.5081465E2,4.1955853E2,3.6912378E2,9.328766E1,1.0663064E2,3.138672E2,1.3198474E2,2.656438E2,1.8775299E2,2.1989151E2,2.8679013E2,5.890271E1,5.541341E1,7.1762146E1,2.721038E2,6.705473E1,8.6161896E1,0E0,0E0,0E0,0E0,0E0,0E0,0E0,0E0,0E0,0E0,0E0,0E0,0E0,0E0,0E0,0E0,0E0,0E0,0E0,0E0,0E0,0E0,0E0,0E0,0E0,0E0,0E0,0E0,0E0,0E0,0E0,0E0],"parents":[2147483647,0,0,1,1,2,2,3,3,4,4,5,5,6,6,7,7,8,8,9,9,10,10,11,11,12,12,13,13,14,14,15,15,16,16,17,17,18,18,19,19,20,20,21,21,22,22,23,23,24,24,25,25,26,26,27,27,28,28,29,29,30,30],"right_children":[2,4,6,8,10,12,14,16,18,20,22,24,26,28,30,32,34,36,38,40,42,44,46,48,50,52,54,56,58,60,62,-1,-1,-1,-1,-1,-1,-1,-1,-1,-1,-1,-1,-1,-1,-1,-1,-1,-1,-1,-1,-1,-1,-1,-1,-1,-1,-1,-1,-1,-1,-1,-1],"split_conditions":[3.6029875E-1,1E0,1E0,2.6610798E-1,1.2835585E-1,2.7585813E-1,1.3192756E-1,5.6363636E-1,5E-1,4.2105263E-1,3.2798165E-1,-2.2029465E-3,6.625E-1,-7.428748E-1,2.4444444E-1,2.6421824E-1,-3.5251486E-1,2.8648928E-1,1.2917875E-3,-5.5948454E-1,-4.9236357E-1,3.4517214E-1,2.2727652E-1,-1.4060901E0,-8.517482E-1,3.294935E-1,1.0224853E0,-3.1562087E-3,-3.2184685E-3,1.8933425E-3,2.8784412E-1,-4.6411816E-2,1.3094875E-2,6.8063796E-2,3.4063373E-2,-5.903673E-2,-2.3872087E-2,-1.0313558E-2,1.0324417E-2,-2.1136213E-2,9.417003E-3,-4.4451665E-2,-2.4202209E-2,1.10270314E-1,4.0142406E-2,-4.1939892E-2,9.569574E-3,2.3852339E-2,-1.3445991E-2,3.5452988E-2,8.323711E-3,-5.7515886E-2,-1.9640459E-2,1.2483596E-3,-1.6074387E-2,-2.1523869E-2,-3.873795E-2,8.513849E-3,-1.8191477E-2,2.7571931E-2,6.6456953E-3,-5.32733E-2,-6.0514704E-4],"split_indices":[13,25,25,20,20,20,20,4,4,4,4,21,4,20,4,16,20,16,21,20,20,16,17,20,20,16,3,21,21,21,17,0,0,0,0,0,0,0,0,0,0,0,0,0,0,0,0,0,0,0,0,0,0,0,0,0,0,0,0,0,0,0,0],"split_type":[0,0,0,0,0,0,0,0,0,0,0,0,0,0,0,0,0,0,0,0,0,0,0,0,0,0,0,0,0,0,0,0,0,0,0,0,0,0,0,0,0,0,0,0,0,0,0,0,0,0,0,0,0,0,0,0,0,0,0,0,0,0,0],"sum_hessian":[6.02316E4,2.8840982E4,3.1390617E4,1.449047E4,1.4350513E4,1.5805297E4,1.5585321E4,9.559115E3,4.9313545E3,8.0947827E3,6.25573E3,1.04798545E4,5.325442E3,9.282239E3,6.3030815E3,6.067058E3,3.4920574E3,2.42532E3,2.5060342E3,4.0240056E3,4.070777E3,2.0569412E3,4.198789E3,3.0952776E3,7.384577E3,3.4206367E3,1.9048054E3,2.5235264E3,6.7587134E3,1.5547087E3,4.748373E3,3.1002057E2,5.7570376E3,1.2583375E3,2.23372E3,2.0813208E2,2.217188E3,1.186571E3,1.3194631E3,1.1931326E3,2.8308733E3,1.1272963E3,2.943481E3,1.4531836E2,1.9116228E3,1.828011E2,4.0159878E3,4.6221066E2,2.633067E3,1.1556871E3,6.22889E3,1.06123405E2,3.3145134E3,1.1338071E3,7.7099835E2,1.1080594E3,1.4154669E3,1.1449905E3,5.6137227E3,7.231142E2,8.3159454E2,7.7022316E1,4.6713506E3],"tree_param":{"num_deleted":"0","num_feature":"33","num_nodes":"63","size_leaf_vector":"1"}},{"base_weights":[-5.351324E-3,9.7664855E-2,-1.167458E-1,1.1645736E-3,1.9231312E-1,-2.0080143E-1,-3.390884E-2,-2.8287056E-1,3.7063152E-1,4.6053955E-1,-1.8721966E-1,-3.5532057E-1,1.8892493E-2,1.1483932E-1,-2.8529033E-1,7.874877E-2,-4.8479825E-1,7.9825693E-1,1.3557833E-1,2.6573122E-1,9.826704E-1,-4.4522035E-1,6.7737885E-2,-1.2675554E-1,-4.5266286E-1,1.9624774E-1,-1.13898546E-1,-1.6212173E-1,2.3656645E-1,-3.8573113E-1,-1.12161696E-1,4.660588E-2,-7.938258E-3,-3.8294606E-2,-1.5327649E-2,6.82992E-2,2.7923707E-2,-3.5426017E-2,1.5868519E-2,-2.5484849E-2,2.0962244E-2,7.933708E-2,3.2660574E-2,-4.3767184E-2,-1.2063854E-2,2.0950118E-2,-4.5210915E-3,-3.6043026E-2,-3.212547E-4,-3.9074745E-2,-1.899077E-2,8.983323E-2,7.885622E-3,-3.5636596E-2,3.948525E-4,2.160331E-2,-1.3999591E-2,3.2530297E-2,7.550824E-3,-5.8335986E-2,-1.819697E-2,7.443182E-2,-1.0327559E-2],"categories":[],"categories_nodes":[],"categories_segments":[],"categories_sizes":[],"default_left":[0,0,0,0,0,0,0,0,0,0,0,0,0,0,0,0,0,0,0,0,0,0,0,0,0,0,0,0,0,0,0,0,0,0,0,0,0,0,0,0,0,0,0,0,0,0,0,0,0,0,0,0,0,0,0,0,0,0,0,0,0,0,0],"id":3,"left_children":[1,3,5,7,9,11,13,15,17,19,21,23,25,27,29,31,33,35,37,39,41,43,45,47,49,51,53,55,57,59,61,-1,-1,-1,-1,-1,-1,-1,-1,-1,-1,-1,-1,-1,-1,-1,-1,-1,-1,-1,-1,-1,-1,-1,-1,-1,-1,-1,-1,-1,-1,-1,-1],"loss_changes":[6.912196E2,2.8558456E2,2.0128842E2,1.626897E3,1.6079514E3,4.878305E2,5.456523E2,6.403491E2,6.7624506E2,9.3952014E2,4.3053864E2,1.8693921E2,1.3975633E2,3.090605E2,9.376065E1,6.3746344E2,2.8029065E2,3.2170044E2,6.679906E2,8.0310315E2,4.9570166E2,2.8373718E2,1.8309753E2,1.7975285E2,1.3983118E2,1.5427484E2,2.4784741E2,1.9592978E2,2.2458069E2,5.5979492E1,3.012949E2,0E0,0E0,0E0,0E0,0E0,0E0,0E0,0E0,0E0,0E0,0E0,0E0,0E0,0E0,0E0,0E0,0E0,0E0,0E0,0E0,0E0,0E0,0E0,0E0,0E0,0E0,0E0,0E0,0E0,0E0,0E0,0E0],"parents":[2147483647,0,0,1,1,2,2,3,3,4,4,5,5,6,6,7,7,8,8,9,9,10,10,11,11,12,12,13,13,14,14,15,15,16,16,17,17,18,18,19,19,20,20,21,21,22,22,23,23,24,24,25,25,26,26,27,27,28,28,29,29,30,30],"right_children":[2,4,6,8,10,12,14,16,18,20,22,24,26,28,30,32,34,36,38,40,42,44,46,48,50,52,54,56,58,60,62,-1,-1,-1,-1,-1,-1,-1,-1,-1,-1,-1,-1,-1,-1,-1,-1,-1,-1,-1,-1,-1,-1,-1,-1,-1,-1,-1,-1,-1,-1,-1,-1],"split_conditions":[3.768624E-1,1E0,1E0,1.2901233E-1,1.2901233E-1,1.2901233E-1,1.6028804E-1,2.9411766E-1,3.4666666E-1,6.5856355E-1,5E-1,-2.2551941E-3,4.4E-1,-2.2029465E-3,6.542516E-1,2E1,2E1,2E1,1E1,1E1,2E1,2E1,2E1,-1.4060901E0,-8.517482E-1,5.10535E-1,2E1,-1.4060901E0,-8.517482E-1,3.294935E-1,1E1,4.660588E-2,-7.938258E-3,-3.8294606E-2,-1.5327649E-2,6.82992E-2,2.7923707E-2,-3.5426017E-2,1.5868519E-2,-2.5484849E-2,2.0962244E-2,7.933708E-2,3.2660574E-2,-4.3767184E-2,-1.2063854E-2,2.0950118E-2,-4.5210915E-3,-3.6043026E-2,-3.212547E-4,-3.9074745E-2,-1.899077E-2,8.983323E-2,7.885622E-3,-3.5636596E-2,3.948525E-4,2.160331E-2,-1.3999591E-2,3.2530297E-2,7.550824E-3,-5.8335986E-2,-1.819697E-2,7.443182E-2,-1.0327559E-2],"split_indices":[13,26,26,20,20,20,20,4,4,4,4,21,4,21,4,9,9,9,9,9,9,9,9,20,20,16,9,20,20,16,9,0,0,0,0,0,0,0,0,0,0,0,0,0,0,0,0,0,0,0,0,0,0,0,0,0,0,0,0,0,0,0,0],"split_type":[0,0,0,0,0,0,0,0,0,0,0,0,0,0,0,0,0,0,0,0,0,0,0,0,0,0,0,0,0,0,0,0,0,0,0,0,0,0,0,0,0,0,0,0,0,0,0,0,0,0,0,0,0,0,0,0,0,0,0,0,0,0,0],"sum_hessian":[6.022908E4,3.1286758E4,2.894232E4,1.5498047E4,1.5788711E4,1.4358085E4,1.4584235E4,8.760782E3,6.737265E3,9.252159E3,6.536552E3,8.431327E3,5.9267583E3,9.16073E3,5.4235044E3,3.1377878E3,5.622994E3,2.38651E3,4.350755E3,6.7417344E3,2.510425E3,3.2500942E3,3.2864575E3,2.5227192E3,5.9086074E3,2.540393E3,3.3863652E3,2.7942356E3,6.3664946E3,3.4270598E3,1.9964448E3,6.828223E2,2.4549653E3,2.177252E3,3.4457424E3,7.0462524E2,1.6818848E3,7.6897E2,3.581785E3,1.1122719E3,5.6294624E3,8.8220746E2,1.6282175E3,1.0416761E3,2.208418E3,1.0212775E3,2.26518E3,4.2181403E2,2.1009053E3,1.0655505E3,4.843057E3,5.6974564E1,2.4834185E3,5.7208704E2,2.814278E3,4.6025516E2,2.3339805E3,1.0859385E3,5.2805566E3,8.893046E1,3.3381294E3,1.0892889E2,1.887516E3],"tree_param":{"num_deleted":"0","num_feature":"33","num_nodes":"63","size_leaf_vector":"1"}},{"base_weights":[-1.293763E-3,9.3387894E-2,-1.0764988E-1,1.9006345E-1,-5.813964E-3,-3.0776585E-2,-1.8598497E-1,4.0430743E-1,-2.3536643E-1,-2.7653757E-1,3.386456E-1,1.2582919E-1,-2.710872E-1,-3.3100328E-1,1.6536755E-2,9.4219065E-1,3.040564E-1,-4.3365142E-1,-6.793153E-2,-6.172966E-1,-1.4698918E-1,6.004831E-1,1.857555E-1,-1.3459286E-1,2.3794034E-1,-1.5988366E-1,-3.926588E-1,-1.01235285E-1,-4.3014845E-1,-7.294235E-2,1.5477948E-1,3.885452E-2,6.486556E-2,5.6184744E-3,2.5456551E-2,-5.012855E-2,-1.5729226E-2,1.4285324E-3,-2.7299384E-2,1.6268407E-3,-3.3182766E-2,5.448886E-3,-1.684485E-2,6.766843E-2,2.3594279E-2,-2.667822E-2,1.7536404E-2,2.2709709E-2,-1.3048892E-2,2.9322242E-2,7.0728674E-3,-1.3109085E-2,4.856371E-3,-2.7288556E-2,-1.2219833E-2,-2.024056E-2,5.533743E-3,-3.784871E-2,-1.7881311E-2,1.5978673E-2,-5.4641445E-3,1.6373781E-2,6.588369E-4],"categories":[],"categories_nodes":[],"categories_segments":[],"categories_sizes":[],"default_left":[0,0,0,0,0,0,0,0,0,0,0,0,0,0,0,0,0,0,0,0,0,0,0,0,0,0,0,0,0,0,0,0,0,0,0,0,0,0,0,0,0,0,0,0,0,0,0,0,0,0,0,0,0,0,0,0,0,0,0,0,0,0,0],"id":4,"left_children":[1,3,5,7,9,11,13,15,17,19,21,23,25,27,29,31,33,35,37,39,41,43,45,47,49,51,53,55,57,59,61,-1,-1,-1,-1,-1,-1,-1,-1,-1,-1,-1,-1,-1,-1,-1,-1,-1,-1,-1,-1,-1,-1,-1,-1,-1,-1,-1,-1,-1,-1,-1,-1],"loss_changes":[6.057982E2,3.0535733E2,1.7041367E2,1.4696842E3,1.464377E3,5.3878577E2,4.1232495E2,5.764374E2,1.786828E2,3.8729333E2,2.7558197E2,2.5310066E2,7.569934E1,1.8567108E2,7.250001E1,9.453601E1,3.5476532E2,1.652768E2,1.3582481E2,7.357141E1,3.1028278E2,2.4318439E2,5.184639E2,1.9394594E2,2.0285516E2,7.799396E1,6.0082764E1,1.5932323E2,1.3365857E2,5.0496056E1,5.6010418E1,0E0,0E0,0E0,0E0,0E0,0E0,0E0,0E0,0E0,0E0,0E0,0E0,0E0,0E0,0E0,0E0,0E0,0E0,0E0,0E0,0E0,0E0,0E0,0E0,0E0,0E0,0E0,0E0,0E0,0E0,0E0,0E0],"parents":[2147483647,0,0,1,1,2,2,3,3,4,4,5,5,6,6,7,7,8,8,9,9,10,10,11,11,12,12,13,13,14,14,15,15,16,16,17,17,18,18,19,19,20,20,21,21,22,22,23,23,24,24,25,25,26,26,27,27,28,28,29,29,30,30],"right_children":[2,4,6,8,10,12,14,16,18,20,22,24,26,28,30,32,34,36,38,40,42,44,46,48,50,52,54,56,58,60,62,-1,-1,-1,-1,-1,-1,-1,-1,-1,-1,-1,-1,-1,-1,-1,-1,-1,-1,-1,-1,-1,-1,-1,-1,-1,-1,-1,-1,-1,-1,-1,-1],"split_conditions":[3.8038886E-1,1E0,1E0,2.6610798E-1,1.2901233E-1,1.2974116E-1,1.2835585E-1,-7.6810795E-1,4.6938777E-1,-5.5948454E-1,3.4146342E-1,-2.2029465E-3,6.1004853E-1,-2.2551941E-3,7.1938425E-1,5.9183675E-1,4.5592704E-1,1E1,1.113574E0,-6.504882E-3,3.4146342E-1,1E1,1E1,-1.4060901E0,-7.428748E-1,3E0,2.923091E-3,-7.6810795E-1,-8.517482E-1,-3.3757903E-3,2.196703E-3,3.885452E-2,6.486556E-2,5.6184744E-3,2.5456551E-2,-5.012855E-2,-1.5729226E-2,1.4285324E-3,-2.7299384E-2,1.6268407E-3,-3.3182766E-2,5.448886E-3,-1.684485E-2,6.766843E-2,2.3594279E-2,-2.667822E-2,1.7536404E-2,2.2709709E-2,-1.3048892E-2,2.9322242E-2,7.0728674E-3,-1.3109085E-2,4.856371E-3,-2.7288556E-2,-1.2219833E-2,-2.024056E-2,5.533743E-3,-3.784871E-2,-1.7881311E-2,1.5978673E-2,-5.4641445E-3,1.6373781E-2,6.588369E-4],"split_indices":[13,25,25,20,20,20,20,20,3,20,3,21,20,21,20,3,3,9,20,21,3,9,9,20,20,24,21,20,20,21,21,0,0,0,0,0,0,0,0,0,0,0,0,0,0,0,0,0,0,0,0,0,0,0,0,0,0,0,0,0,0,0,0],"split_type":[0,0,0,0,0,0,0,0,0,0,0,0,0,0,0,0,0,0,0,0,0,0,0,0,0,0,0,0,0,0,0,0,0,0,0,0,0,0,0,0,0,0,0,0,0,0,0,0,0,0,0,0,0,0,0,0,0,0,0,0,0,0,0],"sum_hessian":[6.015346E4,3.181847E4,2.8334992E4,1.6118601E4,1.569987E4,1.4308777E4,1.4026214E4,1.0721677E4,5.396924E3,8.792676E3,6.9071943E3,8.66122E3,5.6475576E3,8.1756226E3,5.8505913E3,1.6801721E3,9.041505E3,2.4666445E3,2.9302793E3,2.4177834E3,6.374892E3,2.5417803E3,4.365414E3,2.6037263E3,6.0574937E3,2.9562673E3,2.6912903E3,2.4686587E3,5.706964E3,3.5478914E3,2.3027002E3,1.1532181E3,5.2695404E2,4.677414E3,4.364091E3,4.2286984E2,2.0437747E3,2.437937E3,4.9234232E2,1.5960115E2,2.2581824E3,2.7133264E3,3.661566E3,3.6690112E2,2.1748792E3,8.124421E2,3.552972E3,4.578147E2,2.1459116E3,1.3089474E3,4.7485464E3,2.1173499E3,8.389176E2,1.318033E3,1.3732574E3,1.0160275E3,1.4526311E3,1.0304617E3,4.676502E3,2.9698947E2,3.2509019E3,1.0330833E3,1.2696168E3],"tree_param":{"num_deleted":"0","num_feature":"33","num_nodes":"63","size_leaf_vector":"1"}},{"base_weights":[-9.799995E-4,9.59859E-2,-1.0917491E-1,-7.6273996E-3,1.9687895E-1,-1.780104E-1,-4.1948736E-2,-2.6120496E-1,3.346278E-1,3.631227E-1,-3.0089033E-1,4.1588847E-2,-3.1922445E-1,-2.2726096E-1,1.7347057E-1,-6.51947E-1,-1.5554836E-1,5.5939746E-1,1.2070512E-1,1.4348407E-1,5.72711E-1,-4.353088E-1,-3.4602076E-2,1.1249528E0,-7.8620076E-2,-9.7351384E-1,-2.1657935E-1,-1.0579154E0,-1.2276883E-1,6.418204E-1,6.1650206E-3,-2.616632E-2,-4.3408547E-2,9.731332E-3,-1.5971955E-2,8.299899E-2,2.3735425E-2,-4.5866594E-2,1.2505469E-2,-3.0759264E-2,1.6850842E-2,4.269151E-2,1.9211045E-2,-2.845717E-2,-1.0396633E-2,5.9665002E-2,-7.962911E-3,1.2171912E-1,2.6276145E-2,-2.4615638E-2,1.4136801E-3,-1.3700596E-2,-5.611996E-2,-1.7977372E-2,-2.0773713E-3,-5.872944E-2,-3.586013E-2,1.2274545E-3,-1.859548E-2,1.5048459E-2,1.049914E-1,9.341783E-3,-1.1364634E-2],"categories":[],"categories_nodes":[],"categories_segments":[],"categories_sizes":[],"default_left":[0,0,0,0,0,0,0,0,0,0,0,0,0,0,0,0,0,0,0,0,0,0,0,0,0,0,0,0,0,0,0,0,0,0,0,0,0,0,0,0,0,0,0,0,0,0,0,0,0,0,0,0,0,0,0,0,0,0,0,0,0,0,0],"id":5,"left_children":[1,3,5,7,9,11,13,15,17,19,21,23,25,27,29,31,33,35,37,39,41,43,45,47,49,51,53,55,57,59,61,-1,-1,-1,-1,-1,-1,-1,-1,-1,-1,-1,-1,-1,-1,-1,-1,-1,-1,-1,-1,-1,-1,-1,-1,-1,-1,-1,-1,-1,-1,-1,-1],"loss_changes":[6.3149347E2,3.3197717E2,1.3143417E2,1.3587684E3,1.3313357E3,4.3601462E2,5.751736E2,3.7035364E2,3.195025E2,5.54303E2,1.4363113E2,7.1722906E2,5.7289886E2,6.709689E2,5.2120233E2,5.087323E1,4.068766E2,2.9880933E2,4.5892554E2,8.6553577E2,3.2495752E2,8.0335236E1,2.0681587E2,4.2624908E2,2.1938315E2,1.1860364E2,1.8470325E2,3.0781128E1,2.530515E2,8.666782E2,2.0717023E2,0E0,0E0,0E0,0E0,0E0,0E0,0E0,0E0,0E0,0E0,0E0,0E0,0E0,0E0,0E0,0E0,0E0,0E0,0E0,0E0,0E0,0E0,0E0,0E0,0E0,0E0,0E0,0E0,0E0,0E0,0E0,0E0],"parents":[2147483647,0,0,1,1,2,2,3,3,4,4,5,5,6,6,7,7,8,8,9,9,10,10,11,11,12,12,13,13,14,14,15,15,16,16,17,17,18,18,19,19,20,20,21,21,22,22,23,23,24,24,25,25,26,26,27,27,28,28,29,29,30,30],"right_children":[2,4,6,8,10,12,14,16,18,20,22,24,26,28,30,32,34,36,38,40,42,44,46,48,50,52,54,56,58,60,62,-1,-1,-1,-1,-1,-1,-1,-1,-1,-1,-1,-1,-1,-1,-1,-1,-1,-1,-1,-1,-1,-1,-1,-1,-1,-1,-1,-1,-1,-1,-1,-1],"split_conditions":[2.4091352E-2,1E0,1E0,1.2974116E-1,4.0054488E-1,3.544899E-1,5.0877196E-1,-7.428748E-1,4.8214287E-1,4.3636364E-1,6.909091E-1,1E1,1E1,1E1,2E1,-5.007855E-4,2.631579E-1,3.0228084E-1,1E1,2E1,-3.0223697E-1,3.421574E-3,1E1,1.6932908E-1,-5.5948454E-1,4.473684E-1,1.3192756E-1,4.1025642E-1,1.3192756E-1,8.2539684E-1,1.3192756E-1,-2.616632E-2,-4.3408547E-2,9.731332E-3,-1.5971955E-2,8.299899E-2,2.3735425E-2,-4.5866594E-2,1.2505469E-2,-3.0759264E-2,1.6850842E-2,4.269151E-2,1.9211045E-2,-2.845717E-2,-1.0396633E-2,5.9665002E-2,-7.962911E-3,1.2171912E-1,2.6276145E-2,-2.4615638E-2,1.4136801E-3,-1.3700596E-2,-5.611996E-2,-1.7977372E-2,-2.0773713E-3,-5.872944E-2,-3.586013E-2,1.2274545E-3,-1.859548E-2,1.5048459E-2,1.049914E-1,9.341783E-3,-1.1364634E-2],"split_indices":[10,26,26,20,20,4,4,20,4,4,4,9,9,9,9,21,4,16,9,9,20,0,9,4,20,4,20,4,20,4,20,0,0,0,0,0,0,0,0,0,0,0,0,0,0,0,0,0,0,0,0,0,0,0,0,0,0,0,0,0,0,0,0],"split_type":[0,0,0,0,0,0,0,0,0,0,0,0,0,0,0,0,0,0,0,0,0,0,0,0,0,0,0,0,0,0,0,0,0,0,0,0,0,0,0,0,0,0,0,0,0,0,0,0,0,0,0,0,0,0,0,0,0,0,0,0,0,0,0],"sum_hessian":[6.0187336E4,3.1736021E4,2.8451314E4,1.5652965E4,1.6083056E4,1.4048419E4,1.44028955E4,8.993246E3,6.6597188E3,1.2058379E4,4.024677E3,5.49601E3,8.55241E3,7.744931E3,6.657964E3,1.9099636E3,7.0832827E3,3.2436719E3,3.4160466E3,5.8919917E3,6.1663877E3,2.6712456E3,1.3534313E3,5.480847E2,4.947925E3,1.1561387E3,7.396271E3,8.6230054E2,6.8826304E3,1.7493212E3,4.908643E3,1.2047716E3,7.05192E2,2.2561763E3,4.8271064E3,2.2826227E2,3.0154097E3,3.7644302E2,3.0396038E3,1.195597E3,4.6963945E3,2.4700793E3,3.6963083E3,1.6768439E3,9.944018E2,1.2241708E2,1.2310142E3,1.6966595E2,3.7841876E2,1.0164136E3,3.9315112E3,2.0506903E2,9.5106964E2,4.066712E3,3.329559E3,6.365063E2,2.2579422E2,4.323762E3,2.5588687E3,1.420368E3,3.2895312E2,2.7698025E3,2.1388403E3],"tree_param":{"num_deleted":"0","num_feature":"33","num_nodes":"63","size_leaf_vector":"1"}},{"base_weights":[1.0975731E-3,1.2269439E-1,-7.359399E-2,3.7875235E-2,2.0066383E-1,1.0723222E-2,-1.6058215E-1,-1.5973097E-2,3.2114863E-1,3.2492766E-1,1.5526594E-1,1.599125E-1,-2.2075547E-1,-3.1509846E-1,4.6039656E-2,2.4770062E-1,-8.905505E-2,1.3123668E0,-9.131363E-1,4.2531517E-1,2.218903E-1,2.0683868E-1,1.01842135E-1,-9.4618484E-2,2.614503E-1,-3.4956822E-1,-8.162131E-2,-5.7198894E-1,-2.2536701E-1,2.9227468E-1,-2.436767E-2,-3.7956834E-2,5.6101847E-2,-1.4736873E-2,2.847381E-3,7.781209E-2,2.7515102E-2,-5.5252362E-2,-2.041947E-2,4.1148428E-2,3.7508563E-3,-6.335985E-3,3.0243522E-2,1.9611005E-2,-1.6923865E-2,-4.7115698E-3,2.9773274E-2,2.0802407E-2,-9.489071E-3,3.4195684E-2,8.5799135E-3,-4.950307E-2,-1.4672719E-2,2.4309006E-2,-1.0174945E-2,-1.9391533E-2,-3.555485E-2,9.720364E-3,-1.5504E-2,7.041495E-2,6.5420787E-3,-1.8421104E-2,2.9966363E-3],"categories":[],"categories_nodes":[],"categories_segments":[],"categories_sizes":[],"default_left":[0,0,0,0,0,0,0,0,0,0,0,0,0,0,0,0,0,0,0,0,0,0,0,0,0,0,0,0,0,0,0,0,0,0,0,0,0,0,0,0,0,0,0,0,0,0,0,0,0,0,0,0,0,0,0,0,0,0,0,0,0,0,0],"id":6,"left_children":[1,3,5,7,9,11,13,15,17,19,21,23,25,27,29,31,33,35,37,39,41,43,45,47,49,51,53,55,57,59,61,-1,-1,-1,-1,-1,-1,-1,-1,-1,-1,-1,-1,-1,-1,-1,-1,-1,-1,-1,-1,-1,-1,-1,-1,-1,-1,-1,-1,-1,-1,-1,-1],"loss_changes":[5.456438E2,1.50952E2,2.730644E2,1.6748982E2,6.6586426E1,6.5237604E2,5.8519836E2,1.7731981E2,2.148257E3,3.2037933E1,2.3702713E1,2.9719073E2,1.3216626E2,2.4063135E2,1.3615831E2,1.759031E3,2.1691101E2,1.7716821E2,7.331195E1,2.2222812E2,2.11242E2,4.4821393E2,4.1695056E2,1.5910567E2,3.1083533E2,1.3611282E2,2.4659468E2,6.777539E1,2.7677936E2,3.126609E2,1.7708647E2,0E0,0E0,0E0,0E0,0E0,0E0,0E0,0E0,0E0,0E0,0E0,0E0,0E0,0E0,0E0,0E0,0E0,0E0,0E0,0E0,0E0,0E0,0E0,0E0,0E0,0E0,0E0,0E0,0E0,0E0,0E0,0E0],"parents":[2147483647,0,0,1,1,2,2,3,3,4,4,5,5,6,6,7,7,8,8,9,9,10,10,11,11,12,12,13,13,14,14,15,15,16,16,17,17,18,18,19,19,20,20,21,21,22,22,23,23,24,24,25,25,26,26,27,27,28,28,29,29,30,30],"right_children":[2,4,6,8,10,12,14,16,18,20,22,24,26,28,30,32,34,36,38,40,42,44,46,48,50,52,54,56,58,60,62,-1,-1,-1,-1,-1,-1,-1,-1,-1,-1,-1,-1,-1,-1,-1,-1,-1,-1,-1,-1,-1,-1,-1,-1,-1,-1,-1,-1,-1,-1,-1,-1],"split_conditions":[3.2181793E-1,3E1,1E0,7.5E-1,2.3105542E-1,1.2901233E-1,1.2835585E-1,2.4074075E-1,1E0,1E0,1E0,-2.2029465E-3,5.3571427E-1,-7.428748E-1,2.173913E-1,1E0,1E1,2E1,2E1,4.55083E-3,1.2901233E-1,3.990669E-1,4.0054488E-1,-1.4060901E0,-8.517482E-1,1E1,2E1,-3.1562087E-3,-3.2184685E-3,2E1,2E1,-3.7956834E-2,5.6101847E-2,-1.4736873E-2,2.847381E-3,7.781209E-2,2.7515102E-2,-5.5252362E-2,-2.041947E-2,4.1148428E-2,3.7508563E-3,-6.335985E-3,3.0243522E-2,1.9611005E-2,-1.6923865E-2,-4.7115698E-3,2.9773274E-2,2.0802407E-2,-9.489071E-3,3.4195684E-2,8.5799135E-3,-4.950307E-2,-1.4672719E-2,2.4309006E-2,-1.0174945E-2,-1.9391533E-2,-3.555485E-2,9.720364E-3,-1.5504E-2,7.041495E-2,6.5420787E-3,-1.8421104E-2,2.9966363E-3],"split_indices":[13,9,25,4,13,20,20,4,25,25,25,21,4,20,4,25,9,9,9,20,20,20,20,20,20,9,9,21,21,9,9,0,0,0,0,0,0,0,0,0,0,0,0,0,0,0,0,0,0,0,0,0,0,0,0,0,0,0,0,0,0,0,0],"split_type":[0,0,0,0,0,0,0,0,0,0,0,0,0,0,0,0,0,0,0,0,0,0,0,0,0,0,0,0,0,0,0,0,0,0,0,0,0,0,0,0,0,0,0,0,0,0,0,0,0,0,0,0,0,0,0,0,0,0,0,0,0,0,0],"sum_hessian":[6.006861E4,2.2861883E4,3.7206723E4,1.0957524E4,1.1904359E4,1.8888475E4,1.831825E4,9.205902E3,1.7516218E3,3.176166E3,8.728193E3,1.1488812E4,7.3996636E3,1.0482784E4,7.8354653E3,1.9938375E3,7.212065E3,9.718451E2,7.797768E2,1.600685E3,1.5754808E3,4.428589E3,4.2996045E3,3.2734192E3,8.215393E3,3.8370479E3,3.5626155E3,2.708054E3,7.77473E3,1.7440194E3,6.091446E3,9.262914E2,1.0675461E3,2.9960989E3,4.2159663E3,7.336629E2,2.3818222E2,5.6181E2,2.1796678E2,7.470693E2,8.536158E2,8.2408215E2,7.513987E2,3.3068223E3,1.1217665E3,3.0769807E3,1.2226239E3,5.1147458E2,2.7619446E3,1.4365789E3,6.778814E3,3.0496915E2,3.5320789E3,6.2706616E2,2.9355493E3,1.1716836E3,1.5363704E3,1.3031075E3,6.4716226E3,2.1765793E2,1.5263615E3,1.1998069E3,4.891639E3],"tree_param":{"num_deleted":"0","num_feature":"33","num_nodes":"63","size_leaf_vector":"1"}},{"base_weights":[2.2278486E-3,8.279173E-2,-1.0135198E-1,-5.8224113E-3,1.6822639E-1,-1.649826E-1,-3.9929844E-2,-2.1429893E-1,3.5823134E-1,4.922724E-1,-4.133483E-2,-2.9318503E-1,1.0150969E-2,7.899816E-2,-2.52115E-1,5.6499094E-2,-4.3580595E-1,6.5935004E-1,1.4747255E-1,3.2818592E-1,9.3885857E-1,-2.6402125E-1,1.9971274E-1,-1.6805409E-1,-4.3541157E-1,1.5902276E-1,-1.0223141E-1,-1.561774E-1,1.81724E-1,-3.529311E-1,-8.3468236E-2,4.2253442E-2,-3.3292153E-3,-4.796211E-2,-1.5317659E-2,8.0429755E-2,2.846474E-2,-3.8199365E-2,1.5747001E-2,-2.3280313E-2,2.3396319E-2,6.916262E-2,3.3426773E-2,-3.6894225E-2,-2.9764823E-3,2.0293979E-2,-3.2241677E-3,-2.0616645E-2,-2.1524176E-3,-3.762856E-2,-1.8444661E-2,7.323026E-2,6.1523314E-3,-3.240619E-2,7.1763985E-5,1.6640443E-2,-1.2984536E-2,-4.4833805E-4,1.5799103E-2,-4.791167E-2,-1.632302E-2,7.255899E-2,-8.923103E-3],"categories":[],"categories_nodes":[],"categories_segments":[],"categories_sizes":[],"default_left":[0,0,0,0,0,0,0,0,0,0,0,0,0,0,0,0,0,0,0,0,0,0,0,0,0,0,0,0,0,0,0,0,0,0,0,0,0,0,0,0,0,0,0,0,0,0,0,0,0,0,0,0,0,0,0,0,0,0,0,0,0,0,0],"id":7,"left_children":[1,3,5,7,9,11,13,15,17,19,21,23,25,27,29,31,33,35,37,39,41,43,45,47,49,51,53,55,57,59,61,-1,-1,-1,-1,-1,-1,-1,-1,-1,-1,-1,-1,-1,-1,-1,-1,-1,-1,-1,-1,-1,-1,-1,-1,-1,-1,-1,-1,-1,-1,-1,-1],"loss_changes":[5.0117572E2,2.5597313E2,1.0245953E2,1.2585414E3,1.169115E3,2.8981738E2,3.3781274E2,6.330806E2,3.821338E2,4.9351526E2,5.6113666E2,1.318103E2,9.1248375E1,2.07162E2,8.126349E1,4.6146664E2,3.9141382E2,2.0826294E2,5.428096E2,5.493669E2,2.139917E2,5.2579175E2,2.7368314E2,1.2071883E2,7.1763794E1,1.0835722E2,1.7620601E2,1.319054E2,1.5314688E2,4.6242065E1,2.62446E2,0E0,0E0,0E0,0E0,0E0,0E0,0E0,0E0,0E0,0E0,0E0,0E0,0E0,0E0,0E0,0E0,0E0,0E0,0E0,0E0,0E0,0E0,0E0,0E0,0E0,0E0,0E0,0E0,0E0,0E0,0E0,0E0],"parents":[2147483647,0,0,1,1,2,2,3,3,4,4,5,5,6,6,7,7,8,8,9,9,10,10,11,11,12,12,13,13,14,14,15,15,16,16,17,17,18,18,19,19,20,20,21,21,22,22,23,23,24,24,25,25,26,26,27,27,28,28,29,29,30,30],"right_children":[2,4,6,8,10,12,14,16,18,20,22,24,26,28,30,32,34,36,38,40,42,44,46,48,50,52,54,56,58,60,62,-1,-1,-1,-1,-1,-1,-1,-1,-1,-1,-1,-1,-1,-1,-1,-1,-1,-1,-1,-1,-1,-1,-1,-1,-1,-1,-1,-1,-1,-1,-1,-1],"split_conditions":[3.9454386E-1,1E0,1E0,2.7585813E-1,-1.4955647E-1,1.2901233E-1,1.6028804E-1,3.6945814E-1,4E-1,6.625E-1,5.125E-1,-2.0935916E-4,4.3243244E-1,-2.2029465E-3,6.542516E-1,1E1,1E1,3.4517214E-1,1E1,1E1,2E1,2E1,4.0054488E-1,-7.428748E-1,-8.543147E-1,5.792809E-1,2E1,-1.4060901E0,3.2E-1,4.607486E-1,1E1,4.2253442E-2,-3.3292153E-3,-4.796211E-2,-1.5317659E-2,8.0429755E-2,2.846474E-2,-3.8199365E-2,1.5747001E-2,-2.3280313E-2,2.3396319E-2,6.916262E-2,3.3426773E-2,-3.6894225E-2,-2.9764823E-3,2.0293979E-2,-3.2241677E-3,-2.0616645E-2,-2.1524176E-3,-3.762856E-2,-1.8444661E-2,7.323026E-2,6.1523314E-3,-3.240619E-2,7.1763985E-5,1.6640443E-2,-1.2984536E-2,-4.4833805E-4,1.5799103E-2,-4.791167E-2,-1.632302E-2,7.255899E-2,-8.923103E-3],"split_indices":[13,26,26,20,20,20,20,4,4,4,4,21,4,21,4,9,9,16,9,9,9,9,20,20,20,16,9,20,4,16,9,0,0,0,0,0,0,0,0,0,0,0,0,0,0,0,0,0,0,0,0,0,0,0,0,0,0,0,0,0,0,0,0],"split_type":[0,0,0,0,0,0,0,0,0,0,0,0,0,0,0,0,0,0,0,0,0,0,0,0,0,0,0,0,0,0,0,0,0,0,0,0,0,0,0,0,0,0,0,0,0,0,0,0,0,0,0,0,0,0,0,0,0,0,0,0,0,0,0],"sum_hessian":[6.005672E4,3.378723E4,2.6269488E4,1.6580176E4,1.7207055E4,1.2893124E4,1.3376363E4,1.0545075E4,6.0351006E3,6.7584653E3,1.0448589E4,7.446471E3,5.4466533E3,8.569675E3,4.8066885E3,4.743275E3,5.8018003E3,2.4811665E3,3.553934E3,4.946655E3,1.8118105E3,5.4332036E3,5.0153857E3,3.9673713E3,3.4790999E3,2.3464297E3,3.1002236E3,2.602002E3,5.967673E3,3.0032483E3,1.80344E3,6.399083E2,4.103366E3,1.1462888E3,4.655511E3,2.1110844E2,2.270058E3,5.4959717E2,3.004337E3,7.386951E2,4.2079595E3,6.807569E2,1.1310537E3,1.6348048E3,3.7983987E3,2.8185935E3,2.1967922E3,1.3387225E3,2.6286487E3,5.9699E2,2.8821099E3,6.004824E1,2.2863816E3,4.9464484E2,2.6055786E3,4.521239E2,2.149878E3,2.463338E3,3.504335E3,1.21300865E2,2.8819475E3,1.0284669E2,1.7005933E3],"tree_param":{"num_deleted":"0","num_feature":"33","num_nodes":"63","size_leaf_vector":"1"}},{"base_weights":[1.7585605E-3,8.6814776E-2,-9.412875E-2,1.7639263E-1,-6.2663937E-3,-5.2935142E-2,-1.7997728E-1,3.5571188E-1,-2.2225496E-1,-2.377854E-1,2.8990078E-1,1.9227333E-2,-1.2783283E-1,-1.6716413E-1,-2.9848E-1,1.5097228E-1,5.531284E-1,-1.4119889E-1,-6.222109E-1,-6.1450094E-1,-1.3697852E-1,5.2604216E-1,1.413326E-1,-1.4623728E-1,3.3851308E-1,1.8617558E-1,-2.87532E-1,-1.8078703E-1,1.4248897E-2,-1.9969359E-2,-3.2320333E-1,2.6842639E-2,1.9662508E-3,6.3731536E-2,2.3791514E-2,-1.3734271E-2,6.9933287E-3,-4.5609754E-2,-2.6379783E-2,-2.270062E-2,-3.64258E-2,9.0687685E-3,-1.4609279E-2,3.6824886E-2,9.5092645E-3,7.455829E-4,1.900497E-2,-4.5462888E-2,-4.6662414E-3,3.2145515E-2,7.042107E-3,6.0681492E-2,5.0950977E-3,-2.2708975E-2,-2.817685E-3,-1.1510122E-2,-7.4257627E-3,2.1582346E-2,-2.1232476E-2,-1.2066969E-2,1.9958824E-2,-2.0472468E-3,-1.7069941E-2],"categories":[],"categories_nodes":[],"categories_segments":[],"categories_sizes":[],"default_left":[0,0,0,0,0,0,0,0,0,0,0,0,0,0,0,0,0,0,0,0,0,0,0,0,0,0,0,0,0,0,0,0,0,0,0,0,0,0,0,0,0,0,0,0,0,0,0,0,0,0,0,0,0,0,0,0,0,0,0,0,0,0,0],"id":8,"left_children":[1,3,5,7,9,11,13,15,17,19,21,23,25,27,29,31,33,35,37,39,41,43,45,47,49,51,53,55,57,59,61,-1,-1,-1,-1,-1,-1,-1,-1,-1,-1,-1,-1,-1,-1,-1,-1,-1,-1,-1,-1,-1,-1,-1,-1,-1,-1,-1,-1,-1,-1,-1,-1],"loss_changes":[4.8966876E2,2.655091E2,9.953702E1,1.1599233E3,1.0699272E3,1.0323012E2,1.3314026E1,4.5147693E2,1.6220923E2,3.3174667E2,2.3931122E2,5.1336584E2,4.7003375E2,2.0587982E1,5.7154846E0,2.3629568E2,3.146173E2,1.573818E2,2.0792084E1,3.1945435E1,3.4191293E2,1.8538947E2,1.26571175E2,2.5705737E2,1.986604E2,2.7184796E2,2.3880951E2,1.1815323E1,1.0548203E2,7.209213E0,3.7314453E0,0E0,0E0,0E0,0E0,0E0,0E0,0E0,0E0,0E0,0E0,0E0,0E0,0E0,0E0,0E0,0E0,0E0,0E0,0E0,0E0,0E0,0E0,0E0,0E0,0E0,0E0,0E0,0E0,0E0,0E0,0E0,0E0],"parents":[2147483647,0,0,1,1,2,2,3,3,4,4,5,5,6,6,7,7,8,8,9,9,10,10,11,11,12,12,13,13,14,14,15,15,16,16,17,17,18,18,19,19,20,20,21,21,22,22,23,23,24,24,25,25,26,26,27,27,28,28,29,29,30,30],"right_children":[2,4,6,8,10,12,14,16,18,20,22,24,26,28,30,32,34,36,38,40,42,44,46,48,50,52,54,56,58,60,62,-1,-1,-1,-1,-1,-1,-1,-1,-1,-1,-1,-1,-1,-1,-1,-1,-1,-1,-1,-1,-1,-1,-1,-1,-1,-1,-1,-1,-1,-1,-1,-1],"split_conditions":[2.4091352E-2,1E0,5.895427E-1,2.7585813E-1,1.2901233E-1,1E0,1.1333333E0,4.3636364E-1,1.113574E0,-7.428748E-1,3.8E-1,6.2222224E-1,2.9411766E-1,8.804348E-1,-1.0204081E-2,-7.428748E-1,3.497241E-1,6.9503546E-1,3.015873E-1,2.9032257E-1,2.631579E-1,3.1611267E-1,6.777256E-1,3.8371414E-1,4.054613E-3,6.4580226E-1,1.7284256E-1,2.4664225E-2,1E0,1.6583587E0,1.5385842E-2,2.6842639E-2,1.9662508E-3,6.3731536E-2,2.3791514E-2,-1.3734271E-2,6.9933287E-3,-4.5609754E-2,-2.6379783E-2,-2.270062E-2,-3.64258E-2,9.0687685E-3,-1.4609279E-2,3.6824886E-2,9.5092645E-3,7.455829E-4,1.900497E-2,-4.5462888E-2,-4.6662414E-3,3.2145515E-2,7.042107E-3,6.0681492E-2,5.0950977E-3,-2.2708975E-2,-2.817685E-3,-1.1510122E-2,-7.4257627E-3,2.1582346E-2,-2.1232476E-2,-1.2066969E-2,1.9958824E-2,-2.0472468E-3,-1.7069941E-2],"split_indices":[10,25,13,20,20,25,3,4,20,20,4,4,4,4,5,20,17,4,4,4,4,13,20,16,8,16,20,2,25,18,2,0,0,0,0,0,0,0,0,0,0,0,0,0,0,0,0,0,0,0,0,0,0,0,0,0,0,0,0,0,0,0,0],"split_type":[0,0,0,0,0,0,0,0,0,0,0,0,0,0,0,0,0,0,0,0,0,0,0,0,0,0,0,0,0,0,0,0,0,0,0,0,0,0,0,0,0,0,0,0,0,0,0,0,0,0,0,0,0,0,0,0,0,0,0,0,0,0,0],"sum_hessian":[6.0036137E4,3.1820547E4,2.821559E4,1.6219987E4,1.5600559E4,1.9076697E4,9.138892E3,1.1189474E4,5.030514E3,8.758027E3,6.8425312E3,9.709712E3,9.366985E3,8.25913E3,8.7976184E2,5.497079E3,5.692395E3,4.1871436E3,8.433706E2,1.844609E3,6.9134185E3,2.6379055E3,4.2046255E3,6.3940513E3,3.315661E3,3.1556318E3,6.2113535E3,7.6873794E3,5.717507E2,7.532148E1,8.0444037E2,1.2298478E3,4.267231E3,5.4659076E2,5.145804E3,2.8413184E3,1.345825E3,2.0062589E2,6.427447E2,7.739398E2,1.0706692E3,2.2636135E3,4.649805E3,1.6184099E3,1.0194956E3,2.7531934E3,1.4514325E3,4.1132343E2,5.982728E3,1.3016545E3,2.0140063E3,2.362789E2,2.919353E3,3.6058096E3,2.6055437E3,3.0199285E3,4.6674507E3,2.94238E2,2.7751263E2,5.1405903E1,2.3915573E1,5.243896E1,7.520014E2],"tree_param":{"num_deleted":"0","num_feature":"33","num_nodes":"63","size_leaf_vector":"1"}},{"base_weights":[-8.328932E-4,1.2574607E-1,-5.579089E-2,2.0692724E-1,4.0088862E-2,7.081235E-3,-1.2146148E-1,4.5523476E-2,3.1786823E-1,1.948565E-1,-1.14237435E-1,-1.4107019E-1,2.2320794E-1,1.3472699E-1,-2.3028187E-1,-6.9174683E-1,2.1271537E-1,5.52622E-1,2.016554E-1,8.4701353E-1,1.0896217E-1,-8.3724624E-1,-1.0778547E-2,-8.7780154E-1,-4.7940515E-2,7.290963E-1,4.758893E-2,1.042108E0,-6.1306026E-2,-5.4546237E-1,-1.0999769E-1,-5.2683678E-2,-1.8090589E-2,9.713004E-3,6.787348E-2,4.2813964E-2,1.8200152E-2,1.6289257E-3,1.5869379E-2,6.9454834E-2,1.3922189E-2,3.9614243E-3,4.5800727E-2,-1.759816E-2,-5.2215572E-2,-3.238194E-2,1.187061E-3,-5.4096933E-2,-1.5104549E-2,-1.7077226E-2,1.1582432E-4,1.9088143E-2,8.6747035E-2,1.41462E-2,-2.2956417E-3,9.413125E-2,2.8561104E-2,8.624497E-3,-5.7559772E-3,-1.2300014E-2,-4.9959816E-2,-8.042937E-3,-5.658612E-6],"categories":[],"categories_nodes":[],"categories_segments":[],"categories_sizes":[],"default_left":[0,0,0,0,0,0,0,0,0,0,0,0,0,0,0,0,0,0,0,0,0,0,0,0,0,0,0,0,0,0,0,0,0,0,0,0,0,0,0,0,0,0,0,0,0,0,0,0,0,0,0,0,0,0,0,0,0,0,0,0,0,0,0],"id":9,"left_children":[1,3,5,7,9,11,13,15,17,19,21,23,25,27,29,31,33,35,37,39,41,43,45,47,49,51,53,55,57,59,61,-1,-1,-1,-1,-1,-1,-1,-1,-1,-1,-1,-1,-1,-1,-1,-1,-1,-1,-1,-1,-1,-1,-1,-1,-1,-1,-1,-1,-1,-1,-1,-1],"loss_changes":[4.1701974E2,1.2591632E2,1.7274736E2,1.6631042E2,2.1121486E2,6.839126E2,5.705038E2,4.6802386E2,1.4943506E2,2.4626195E2,3.3000153E2,8.6817993E2,7.710681E2,1.0857578E3,5.4372473E2,8.159006E1,6.338994E1,1.0248926E2,7.190759E1,1.5547205E2,9.259628E1,5.338437E1,8.579504E1,1.6488782E2,1.6634076E2,7.7820337E2,1.4225902E2,4.245669E2,6.3083176E1,5.369321E2,5.7963448E1,0E0,0E0,0E0,0E0,0E0,0E0,0E0,0E0,0E0,0E0,0E0,0E0,0E0,0E0,0E0,0E0,0E0,0E0,0E0,0E0,0E0,0E0,0E0,0E0,0E0,0E0,0E0,0E0,0E0,0E0,0E0,0E0],"parents":[2147483647,0,0,1,1,2,2,3,3,4,4,5,5,6,6,7,7,8,8,9,9,10,10,11,11,12,12,13,13,14,14,15,15,16,16,17,17,18,18,19,19,20,20,21,21,22,22,23,23,24,24,25,25,26,26,27,27,28,28,29,29,30,30],"right_children":[2,4,6,8,10,12,14,16,18,20,22,24,26,28,30,32,34,36,38,40,42,44,46,48,50,52,54,56,58,60,62,-1,-1,-1,-1,-1,-1,-1,-1,-1,-1,-1,-1,-1,-1,-1,-1,-1,-1,-1,-1,-1,-1,-1,-1,-1,-1,-1,-1,-1,-1,-1,-1],"split_conditions":[1.7721519E-2,1E0,1E0,3.8E-1,4.4E-1,5.714286E-1,2.596154E-1,2E1,4.454343E-4,1E1,1E1,1E1,2E1,2E1,2E1,1E1,1.0809838E-2,2E1,7.030303E-1,2.7480915E-1,4.3396226E-1,5.6363636E-1,4.4230768E-1,4.632353E-1,2E1,8.148571E-1,1.2064901E-2,1.4E-1,3.2037416E-1,6.101695E-1,6E1,-5.2683678E-2,-1.8090589E-2,9.713004E-3,6.787348E-2,4.2813964E-2,1.8200152E-2,1.6289257E-3,1.5869379E-2,6.9454834E-2,1.3922189E-2,3.9614243E-3,4.5800727E-2,-1.759816E-2,-5.2215572E-2,-3.238194E-2,1.187061E-3,-5.4096933E-2,-1.5104549E-2,-1.7077226E-2,1.1582432E-4,1.9088143E-2,8.6747035E-2,1.41462E-2,-2.2956417E-3,9.413125E-2,2.8561104E-2,8.624497E-3,-5.7559772E-3,-1.2300014E-2,-4.9959816E-2,-8.042937E-3,-5.658612E-6],"split_indices":[10,25,25,4,4,4,4,9,8,9,9,9,9,9,9,9,21,9,4,4,3,4,3,4,9,4,2,4,13,4,9,0,0,0,0,0,0,0,0,0,0,0,0,0,0,0,0,0,0,0,0,0,0,0,0,0,0,0,0,0,0,0,0],"split_type":[0,0,0,0,0,0,0,0,0,0,0,0,0,0,0,0,0,0,0,0,0,0,0,0,0,0,0,0,0,0,0,0,0,0,0,0,0,0,0,0,0,0,0,0,0,0,0,0,0,0,0,0,0,0,0,0,0,0,0,0,0,0,0],"sum_hessian":[5.9952582E4,1.814359E4,4.1808992E4,9.307731E3,8.835858E3,2.1352732E4,2.045626E4,3.7963716E3,5.5113604E3,4.414594E3,4.421264E3,1.2666272E4,8.686461E3,6.0957603E3,1.4360499E4,6.995024E2,3.0968691E3,1.8195972E3,3.6917632E3,5.1035245E2,3.9042417E3,5.5047705E2,3.870787E3,1.4183538E3,1.1247919E4,2.23534E3,6.451121E3,1.082348E3,5.013412E3,3.9624124E3,1.0398087E4,3.3004117E2,3.694612E2,3.0508967E3,4.5972424E1,6.9244727E2,1.1271499E3,1.5047006E3,2.1870625E3,2.588837E2,2.5146873E2,3.768825E3,1.3541687E2,1.6769405E2,3.82783E2,1.9868394E2,3.6721033E3,1.0444973E3,3.7385638E2,1.6451534E3,9.602766E3,1.6643633E3,5.709768E2,1.8362065E3,4.6149146E3,3.8572357E2,6.9662445E2,9.3373834E2,4.0796738E3,2.3901882E3,1.5722241E3,7.101202E3,3.2968845E3],"tree_param":{"num_deleted":"0","num_feature":"33","num_nodes":"63","size_leaf_vector":"1"}},{"base_weights":[-1.4102678E-3,1.3203996E-1,-5.5269457E-2,2.0181555E-1,5.8272146E-2,-6.420774E-3,-1.3619311E-1,8.9312114E-2,6.545808E-1,1.7164303E-1,-4.8798084E-1,6.926767E-2,-8.61012E-2,-9.3592286E-2,-1.7914791E-1,-2.6644316E-1,1.9234173E-1,3.9983773E-1,9.0841603E-1,5.0605583E-1,5.3569663E-2,1.1457088E-1,-5.739609E-1,-7.97807E-2,4.015678E-1,1.9430707E-1,-2.3423868E-1,-3.5796005E-2,-1.5356211E-1,-2.2507349E-1,-1.5619649E-1,-2.3989651E-2,-5.9292945E-3,2.863503E-4,1.6140698E-2,2.5952224E-2,-2.2122134E-2,2.7417434E-2,5.6548327E-2,-3.44078E-2,2.762918E-2,1.3847864E-2,-6.8272403E-3,4.8860695E-2,-1.129204E-2,-1.8542206E-2,-3.5297602E-2,-4.3686762E-2,-1.0686226E-3,4.7241483E-2,1.4574294E-2,5.0496537E-2,5.6505282E-3,-5.2852273E-2,-9.490288E-3,1.995649E-3,-1.4412462E-2,-4.7163838E-3,-1.8542226E-2,-8.112312E-3,-1.4460841E-2,-4.7730203E-3,-9.667375E-3],"categories":[],"categories_nodes":[],"categories_segments":[],"categories_sizes":[],"default_left":[0,0,0,0,0,0,0,0,0,0,0,0,0,0,0,0,0,0,0,0,0,0,0,0,0,0,0,0,0,0,0,0,0,0,0,0,0,0,0,0,0,0,0,0,0,0,0,0,0,0,0,0,0,0,0,0,0,0,0,0,0,0,0],"id":10,"left_children":[1,3,5,7,9,11,13,15,17,19,21,23,25,27,29,31,33,35,37,39,41,43,45,47,49,51,53,55,57,59,61,-1,-1,-1,-1,-1,-1,-1,-1,-1,-1,-1,-1,-1,-1,-1,-1,-1,-1,-1,-1,-1,-1,-1,-1,-1,-1,-1,-1,-1,-1,-1,-1],"loss_changes":[4.3051288E2,8.835449E1,1.6859892E2,4.4953134E2,5.188577E2,1.6062396E2,2.9082886E1,2.597655E2,1.1162384E2,2.7354178E2,7.516269E1,6.765113E2,5.392914E2,2.7802856E1,7.9630737E0,4.9446075E1,1.3354004E2,8.91765E1,6.734796E1,1.0115967E2,2.1833348E2,5.4038578E1,3.2218414E1,4.3607758E2,2.5114844E2,2.9606976E2,3.0896826E2,7.91185E1,5.0381042E1,1.0098236E1,1.1732559E1,0E0,0E0,0E0,0E0,0E0,0E0,0E0,0E0,0E0,0E0,0E0,0E0,0E0,0E0,0E0,0E0,0E0,0E0,0E0,0E0,0E0,0E0,0E0,0E0,0E0,0E0,0E0,0E0,0E0,0E0,0E0,0E0],"parents":[2147483647,0,0,1,1,2,2,3,3,4,4,5,5,6,6,7,7,8,8,9,9,10,10,11,11,12,12,13,13,14,14,15,15,16,16,17,17,18,18,19,19,20,20,21,21,22,22,23,23,24,24,25,25,26,26,27,27,28,28,29,29,30,30],"right_children":[2,4,6,8,10,12,14,16,18,20,22,24,26,28,30,32,34,36,38,40,42,44,46,48,50,52,54,56,58,60,62,-1,-1,-1,-1,-1,-1,-1,-1,-1,-1,-1,-1,-1,-1,-1,-1,-1,-1,-1,-1,-1,-1,-1,-1,-1,-1,-1,-1,-1,-1,-1,-1],"split_conditions":[1.7351897E-2,1E0,4.8416644E-1,1E0,1E0,1E0,6.368748E-1,1E0,-1.1464909E-3,1E0,-4.5123757E-3,6.5856355E-1,2.9761904E-1,1E0,2.4664225E-2,1.0503405E-3,3.9130434E-1,-1.5943237E-3,2.4857143E-1,-1.5882319E-3,4E-1,9.469037E-3,2.4444444E-1,3.131004E-1,7.2851753E-1,5.792809E-1,2.522639E-1,1E0,1E0,1.1590038E-2,3.6656704E0,-2.3989651E-2,-5.9292945E-3,2.863503E-4,1.6140698E-2,2.5952224E-2,-2.2122134E-2,2.7417434E-2,5.6548327E-2,-3.44078E-2,2.762918E-2,1.3847864E-2,-6.8272403E-3,4.8860695E-2,-1.129204E-2,-1.8542206E-2,-3.5297602E-2,-4.3686762E-2,-1.0686226E-3,4.7241483E-2,1.4574294E-2,5.0496537E-2,5.6505282E-3,-5.2852273E-2,-9.490288E-3,1.995649E-3,-1.4412462E-2,-4.7163838E-3,-1.8542226E-2,-8.112312E-3,-1.4460841E-2,-4.7730203E-3,-9.667375E-3],"split_indices":[10,25,13,30,30,25,13,31,21,31,21,4,4,25,2,21,4,21,4,21,4,1,4,16,17,16,17,32,30,6,15,0,0,0,0,0,0,0,0,0,0,0,0,0,0,0,0,0,0,0,0,0,0,0,0,0,0,0,0,0,0,0,0],"split_type":[0,0,0,0,0,0,0,0,0,0,0,0,0,0,0,0,0,0,0,0,0,0,0,0,0,0,0,0,0,0,0,0,0,0,0,0,0,0,0,0,0,0,0,0,0,0,0,0,0,0,0,0,0,0,0,0,0,0,0,0,0,0,0],"sum_hessian":[5.9903914E4,1.7218674E4,4.268524E4,8.840029E3,8.3786455E3,2.6626785E4,1.6058452E4,7.084316E3,1.7557129E3,6.9412427E3,1.437403E3,1.3649159E4,1.2977626E4,8.077325E3,7.9811274E3,1.5880375E3,5.496279E3,8.8082635E2,8.7488654E2,1.807348E3,5.1338945E3,1.779596E2,1.2594434E3,9.421703E3,4.2274565E3,4.48349E3,8.494136E3,4.12332E3,3.9540051E3,2.63911E3,5.3420176E3,6.454441E2,9.425934E2,2.265574E3,3.2307046E3,7.733325E2,1.0749385E2,3.385551E2,5.363315E2,6.59354E1,1.7414126E3,2.3623918E3,2.7715027E3,5.0127335E1,1.2783227E2,5.020502E2,7.573931E2,6.425368E2,8.779166E3,7.081984E2,3.519258E3,4.0319623E2,4.080294E3,4.3170786E2,8.062428E3,3.1702935E3,9.530265E2,3.1128625E3,8.411425E2,1.3446743E3,1.2944357E3,2.0403771E3,3.3016404E3],"tree_param":{"num_deleted":"0","num_feature":"33","num_nodes":"63","size_leaf_vector":"1"}},{"base_weights":[-6.9943786E-4,7.415601E-2,-8.582029E-2,1.505523E-1,-6.42774E-3,-4.591315E-2,-1.6958953E-1,2.8646109E-1,-2.841265E-1,-1.9114067E-1,3.1897172E-1,-5.897456E-2,2.9432476E-1,-2.089752E-1,-1.456522E-1,1.04757704E-1,4.503017E-1,-1.9756745E-1,-6.0206527E-1,-5.1491857E-1,-7.961104E-2,6.5294534E-1,2.2030964E-1,4.5982157E-3,-1.259121E-1,5.849004E-1,1.3659967E-1,-1.8728979E-1,-3.2887086E-1,-8.956651E-2,-1.893728E-1,2.0715151E-2,-8.728571E-4,3.3302505E-2,1.5089144E-2,-1.6858097E-2,3.5034255E-3,-4.385886E-2,-2.5868515E-2,-3.772447E-2,-2.2001429E-2,6.178887E-3,-1.2827861E-2,4.3981906E-2,1.5369828E-2,-9.46512E-3,1.3595042E-2,7.986518E-3,-1.1487883E-2,8.263621E-3,-1.253214E-2,3.6146637E-2,9.202775E-3,3.5161232E-3,2.8811982E-2,-6.5086335E-3,-1.2080233E-2,-1.8168004E-2,2.5115446E-3,-1.6057879E-3,-9.732147E-3,-0E0,-1.0222266E-2],"categories":[],"categories_nodes":[],"categories_segments":[],"categories_sizes":[],"default_left":[0,0,0,0,0,0,0,0,0,0,0,0,0,0,0,0,0,0,0,0,0,0,0,0,0,0,0,0,0,0,0,0,0,0,0,0,0,0,0,0,0,0,0,0,0,0,0,0,0,0,0,0,0,0,0,0,0,0,0,0,0,0,0],"id":11,"left_children":[1,3,5,7,9,11,13,15,17,19,21,23,25,27,29,31,33,35,37,39,41,43,45,47,49,51,53,55,57,59,61,-1,-1,-1,-1,-1,-1,-1,-1,-1,-1,-1,-1,-1,-1,-1,-1,-1,-1,-1,-1,-1,-1,-1,-1,-1,-1,-1,-1,-1,-1,-1,-1],"loss_changes":[3.8150577E2,1.9623064E2,9.34449E1,9.664697E2,9.314042E2,8.419331E1,8.100708E0,3.703938E2,1.0616272E2,3.5639587E2,1.8369226E2,7.7966644E1,3.1181305E1,8.185699E0,1.3518814E1,2.2418578E2,2.085227E2,1.1490575E2,1.7039825E1,4.3547607E1,2.6479407E2,9.822778E1,9.181537E1,3.4089966E2,3.2408234E2,1.2288193E1,1.2626067E1,8.518845E0,7.0201607E0,1.4760595E1,8.903679E0,0E0,0E0,0E0,0E0,0E0,0E0,0E0,0E0,0E0,0E0,0E0,0E0,0E0,0E0,0E0,0E0,0E0,0E0,0E0,0E0,0E0,0E0,0E0,0E0,0E0,0E0,0E0,0E0,0E0,0E0,0E0,0E0],"parents":[2147483647,0,0,1,1,2,2,3,3,4,4,5,5,6,6,7,7,8,8,9,9,10,10,11,11,12,12,13,13,14,14,15,15,16,16,17,17,18,18,19,19,20,20,21,21,22,22,23,23,24,24,25,25,26,26,27,27,28,28,29,29,30,30],"right_children":[2,4,6,8,10,12,14,16,18,20,22,24,26,28,30,32,34,36,38,40,42,44,46,48,50,52,54,56,58,60,62,-1,-1,-1,-1,-1,-1,-1,-1,-1,-1,-1,-1,-1,-1,-1,-1,-1,-1,-1,-1,-1,-1,-1,-1,-1,-1,-1,-1,-1,-1,-1,-1],"split_conditions":[2.4091352E-2,1E0,5.895427E-1,4.0054488E-1,2.7585813E-1,2.9973159E-2,2.4429476E-2,4.3243244E-1,1.113574E0,-5.5948454E-1,2.3333333E-1,1E0,1.7783216E0,1.2995359E0,7.8890693E-1,-5.6356996E-1,-3.0223697E-1,3.421574E-3,2.9761904E-1,-1.1722935E0,3.9130434E-1,3.2037416E-1,-4.4167317E-3,1.3192756E-1,2.5581396E-1,1.7118756E-2,4.2648084E-2,1.0904948E-2,2.3149284E-2,1.0492327E0,8.372093E-3,2.0715151E-2,-8.728571E-4,3.3302505E-2,1.5089144E-2,-1.6858097E-2,3.5034255E-3,-4.385886E-2,-2.5868515E-2,-3.772447E-2,-2.2001429E-2,6.178887E-3,-1.2827861E-2,4.3981906E-2,1.5369828E-2,-9.46512E-3,1.3595042E-2,7.986518E-3,-1.1487883E-2,8.263621E-3,-1.253214E-2,3.6146637E-2,9.202775E-3,3.5161232E-3,2.8811982E-2,-6.5086335E-3,-1.2080233E-2,-1.8168004E-2,2.5115446E-3,-1.6057879E-3,-9.732147E-3,-0E0,-1.0222266E-2],"split_indices":[10,25,13,20,20,2,2,4,20,20,4,25,15,14,13,20,20,0,4,20,4,13,8,20,4,6,2,6,1,14,6,0,0,0,0,0,0,0,0,0,0,0,0,0,0,0,0,0,0,0,0,0,0,0,0,0,0,0,0,0,0,0,0],"split_type":[0,0,0,0,0,0,0,0,0,0,0,0,0,0,0,0,0,0,0,0,0,0,0,0,0,0,0,0,0,0,0,0,0,0,0,0,0,0,0,0,0,0,0,0,0,0,0,0,0,0,0,0,0,0,0,0,0,0,0,0,0,0,0],"sum_hessian":[5.9868652E4,3.1849047E4,2.8019604E4,1.635479E4,1.5494258E4,1.8988592E4,9.031012E3,1.24615E4,3.8932903E3,9.886236E3,5.6080215E3,1.829101E4,6.9758215E2,3.3922642E3,5.6387476E3,5.913103E3,6.548397E3,3.0651807E3,8.281095E2,2.5287903E3,7.357446E3,1.2740289E3,4.333992E3,9.374584E3,8.916427E3,2.4129306E2,4.5628906E2,2.884087E3,5.0817734E2,2.4827693E3,3.1559783E3,1.674737E3,4.2383657E3,2.6643225E3,3.8840742E3,2.0165819E3,1.0485989E3,1.8774446E2,6.4036505E2,5.947384E2,1.9340519E3,3.4224124E3,3.9350332E3,7.6570996E2,5.0831903E2,4.8204437E2,3.851948E3,5.6436606E3,3.7309236E3,2.6713887E3,6.245038E3,1.7643521E2,6.485786E1,4.0050595E2,5.5783123E1,1.4180648E3,1.4660221E3,4.6829456E2,3.9882767E1,1.6129912E3,8.697781E2,2.3545624E2,2.920522E3],"tree_param":{"num_deleted":"0","num_feature":"33","num_nodes":"63","size_leaf_vector":"1"}},{"base_weights":[4.8415596E-4,8.700583E-2,-6.426476E-2,1.631927E-1,6.066536E-3,-2.6433254E-2,-1.5031861E-1,2.5962248E-1,-2.73669E-1,-9.555651E-2,3.5695934E-1,-8.405144E-2,3.916356E-2,-1.342924E-1,-2.4991465E-1,5.755589E-1,1.5403648E-1,-4.502292E-1,-1.497983E-1,-4.3247747E-1,-1.9122576E-3,-6.355055E-1,3.9872018E-1,-1.3401672E-1,1.5619513E-1,9.165514E-2,-1.5981313E-2,-1.427184E-1,2.5027055E-2,-1.4911687E-1,-3.073861E-1,1.853939E-2,3.850351E-2,3.0837506E-3,1.601622E-2,3.3920356E-3,-2.4447937E-2,-2.3662694E-2,-5.1792497E-3,4.3717483E-3,-2.5600279E-2,5.5535533E-3,-9.905321E-3,-4.0540695E-2,4.2341612E-2,3.398205E-2,1.1246508E-2,-1.391951E-2,-4.1657602E-3,2.0703834E-2,2.5775165E-3,1.0218394E-2,-1.5457305E-2,-6.372952E-3,1.5276313E-2,-7.650132E-3,-8.407679E-4,5.186679E-2,-1.6825959E-3,-6.2250732E-3,-3.104268E-2,-9.859972E-3,-2.1000458E-2],"categories":[],"categories_nodes":[],"categories_segments":[],"categories_sizes":[],"default_left":[0,0,0,0,0,0,0,0,0,0,0,0,0,0,0,0,0,0,0,0,0,0,0,0,0,0,0,0,0,0,0,0,0,0,0,0,0,0,0,0,0,0,0,0,0,0,0,0,0,0,0,0,0,0,0,0,0,0,0,0,0,0,0],"id":12,"left_children":[1,3,5,7,9,11,13,15,17,19,21,23,25,27,29,31,33,35,37,39,41,43,45,47,49,51,53,55,57,59,61,-1,-1,-1,-1,-1,-1,-1,-1,-1,-1,-1,-1,-1,-1,-1,-1,-1,-1,-1,-1,-1,-1,-1,-1,-1,-1,-1,-1,-1,-1,-1,-1],"loss_changes":[3.357596E2,1.5805229E2,1.113866E2,5.566545E2,4.442697E2,9.0065994E1,1.6239655E1,3.6019733E2,5.1489624E1,3.0412833E2,1.1625699E2,1.5232489E2,3.2296535E1,1.2234329E1,7.784836E0,1.0616492E2,1.24268005E2,2.0155243E1,2.0396667E1,8.722635E1,1.6766713E2,3.0651241E1,1.3000613E2,7.650961E1,5.837313E1,2.5805753E2,1.9416946E2,1.0926437E1,2.7735916E1,5.2839537E0,1.0484016E1,0E0,0E0,0E0,0E0,0E0,0E0,0E0,0E0,0E0,0E0,0E0,0E0,0E0,0E0,0E0,0E0,0E0,0E0,0E0,0E0,0E0,0E0,0E0,0E0,0E0,0E0,0E0,0E0,0E0,0E0,0E0,0E0],"parents":[2147483647,0,0,1,1,2,2,3,3,4,4,5,5,6,6,7,7,8,8,9,9,10,10,11,11,12,12,13,13,14,14,15,15,16,16,17,17,18,18,19,19,20,20,21,21,22,22,23,23,24,24,25,25,26,26,27,27,28,28,29,29,30,30],"right_children":[2,4,6,8,10,12,14,16,18,20,22,24,26,28,30,32,34,36,38,40,42,44,46,48,50,52,54,56,58,60,62,-1,-1,-1,-1,-1,-1,-1,-1,-1,-1,-1,-1,-1,-1,-1,-1,-1,-1,-1,-1,-1,-1,-1,-1,-1,-1,-1,-1,-1,-1,-1,-1],"split_conditions":[2.092415E-2,1E0,5.673442E-1,1E0,1E0,4E1,1.0076336E0,1E0,1.2406276E-3,1E0,-1.5882319E-3,2.144481E-2,1E0,9.212963E-1,1.0002E-2,-1.1464909E-3,1.6008146E-3,5.5438224E-3,5.7472643E-3,-4.5123757E-3,1.6008146E-3,2.6603231E0,1.0503405E-3,1E1,3.9454386E-1,1E0,1E0,4.9594257E-2,1E1,8.422165E0,1E0,1.853939E-2,3.850351E-2,3.0837506E-3,1.601622E-2,3.3920356E-3,-2.4447937E-2,-2.3662694E-2,-5.1792497E-3,4.3717483E-3,-2.5600279E-2,5.5535533E-3,-9.905321E-3,-4.0540695E-2,4.2341612E-2,3.398205E-2,1.1246508E-2,-1.391951E-2,-4.1657602E-3,2.0703834E-2,2.5775165E-3,1.0218394E-2,-1.5457305E-2,-6.372952E-3,1.5276313E-2,-7.650132E-3,-8.407679E-4,5.186679E-2,-1.6825959E-3,-6.2250732E-3,-3.104268E-2,-9.859972E-3,-2.1000458E-2],"split_indices":[10,25,13,32,32,9,3,31,21,31,21,2,25,3,6,21,21,2,1,21,21,7,21,9,13,32,32,2,9,15,25,0,0,0,0,0,0,0,0,0,0,0,0,0,0,0,0,0,0,0,0,0,0,0,0,0,0,0,0,0,0,0,0],"split_type":[0,0,0,0,0,0,0,0,0,0,0,0,0,0,0,0,0,0,0,0,0,0,0,0,0,0,0,0,0,0,0,0,0,0,0,0,0,0,0,0,0,0,0,0,0,0,0,0,0,0,0,0,0,0,0,0,0,0,0,0,0,0,0],"sum_hessian":[5.9925645E4,2.5656512E4,3.4269133E4,1.3208847E4,1.2447666E4,2.381408E4,1.0455051E4,1.0822963E4,2.385884E3,9.651169E3,2.7964968E3,1.2685881E4,1.1128198E4,9.018587E3,1.4364637E3,2.706412E3,8.1165503E3,9.7822296E2,1.407661E3,2.0951504E3,7.5560186E3,1.1080424E2,2.6856924E3,1.0505952E4,2.1799292E3,5.709869E3,5.4183296E3,8.571734E3,4.4685294E2,5.305444E2,9.059194E2,1.3237704E3,1.3826417E3,5.223829E3,2.8927212E3,6.614208E1,9.120809E2,1.7096004E2,1.2367009E3,2.7627017E2,1.8188802E3,4.7921245E3,2.7638943E3,1.00499344E2,1.03048935E1,1.022045E3,1.6636475E3,2.7231191E3,7.782833E3,6.247805E2,1.5551486E3,4.459305E3,1.250564E3,4.0265156E3,1.3918138E3,7.9166963E3,6.5503796E2,2.3589027E1,4.2326392E2,5.0865048E2,2.189392E1,4.6518192E2,4.4073746E2],"tree_param":{"num_deleted":"0","num_feature":"33","num_nodes":"63","size_leaf_vector":"1"}},{"base_weights":[-1.4588644E-3,1.0101071E-1,-5.646255E-2,9.1718584E-2,5.9912974E-1,-1.192071E-1,2.726299E-3,4.1373547E-2,1.9984144E-1,-1.031442E-3,6.3108516E-1,-2.624461E-1,6.431584E-2,1.97102E-1,-1.1677463E-1,-9.172545E-2,9.47257E-2,2.587454E-1,1.3890417E-1,5.09945E-1,8.46068E-1,-3.9682094E-2,-3.5121813E-1,1.9320078E-1,-4.1173995E-2,7.523256E-2,4.3741113E-1,-2.417968E-1,6.1153523E-3,-1.0243213E-2,1.5558678E-2,9.651354E-3,2.049481E-3,1.00936545E-2,1.5791116E-2,1.2599938E-2,5.6486516E-3,5.5182666E-2,-9.596408E-3,-1.8047668E-2,8.494901E-2,-2.9689778E-2,2.5591417E-3,-3.6954664E-2,-1.4356556E-2,8.10772E-3,4.6435174E-2,-8.588119E-3,6.9184913E-3,-8.890442E-3,9.644032E-3,3.4506958E-2,1.5005077E-2,-3.3027682E-2,-1.0094791E-2,7.31431E-2,-6.462872E-4],"categories":[],"categories_nodes":[],"categories_segments":[],"categories_sizes":[],"default_left":[0,0,0,0,0,0,0,0,0,0,0,0,0,0,0,0,0,0,0,0,0,0,0,0,0,0,0,0,0,0,0,0,0,0,0,0,0,0,0,0,0,0,0,0,0,0,0,0,0,0,0,0,0,0,0,0,0],"id":13,"left_children":[1,3,5,7,9,11,13,15,17,-1,19,21,23,25,27,29,31,33,35,37,39,41,43,45,47,49,51,53,55,-1,-1,-1,-1,-1,-1,-1,-1,-1,-1,-1,-1,-1,-1,-1,-1,-1,-1,-1,-1,-1,-1,-1,-1,-1,-1,-1,-1],"loss_changes":[3.3740958E2,9.596677E1,1.4482843E2,1.1148523E2,8.172653E0,4.9767654E2,4.6573157E2,9.954323E1,2.2915314E1,0E0,7.2467957E0,2.0982062E2,1.1292909E2,2.2303894E2,1.9092674E2,1.8262917E2,5.263202E1,1.0073517E1,9.006134E0,1.015451E2,1.312341E2,1.5340874E2,1.8743268E2,8.3953094E1,1.0695287E2,1.5105966E2,8.764459E1,1.0173691E2,1.7504417E2,0E0,0E0,0E0,0E0,0E0,0E0,0E0,0E0,0E0,0E0,0E0,0E0,0E0,0E0,0E0,0E0,0E0,0E0,0E0,0E0,0E0,0E0,0E0,0E0,0E0,0E0,0E0,0E0],"parents":[2147483647,0,0,1,1,2,2,3,3,4,4,5,5,6,6,7,7,8,8,10,10,11,11,12,12,13,13,14,14,15,15,16,16,17,17,18,18,19,19,20,20,21,21,22,22,23,23,24,24,25,25,26,26,27,27,28,28],"right_children":[2,4,6,8,10,12,14,16,18,-1,20,22,24,26,28,30,32,34,36,38,40,42,44,46,48,50,52,54,56,-1,-1,-1,-1,-1,-1,-1,-1,-1,-1,-1,-1,-1,-1,-1,-1,-1,-1,-1,-1,-1,-1,-1,-1,-1,-1,-1,-1],"split_conditions":[3.0923405E-1,2.0954728E-2,1E0,1E1,-3.655099E-3,1.2835585E-1,-1.8897125E-1,2.5E1,2.5711322E-1,-1.031442E-3,6.1904764E-1,-2.2551941E-3,4.437811E-1,9.56667E-5,5.0877196E-1,7.155963E-1,2.3443224E-1,8.6294464E-4,1E0,1E0,1E0,-1.4060901E0,-8.551663E-1,4.4230768E-1,1E1,2.596154E-1,-8.543147E-1,-2.5334712E-3,4.1879943E-1,-1.0243213E-2,1.5558678E-2,9.651354E-3,2.049481E-3,1.00936545E-2,1.5791116E-2,1.2599938E-2,5.6486516E-3,5.5182666E-2,-9.596408E-3,-1.8047668E-2,8.494901E-2,-2.9689778E-2,2.5591417E-3,-3.6954664E-2,-1.4356556E-2,8.10772E-3,4.6435174E-2,-8.588119E-3,6.9184913E-3,-8.890442E-3,9.644032E-3,3.4506958E-2,1.5005077E-2,-3.3027682E-2,-1.0094791E-2,7.31431E-2,-6.462872E-4],"split_indices":[13,2,26,22,21,20,20,23,13,0,3,21,4,21,4,4,13,21,24,26,26,20,20,3,22,4,20,21,17,0,0,0,0,0,0,0,0,0,0,0,0,0,0,0,0,0,0,0,0,0,0,0,0,0,0,0,0],"split_type":[0,0,0,0,0,0,0,0,0,0,0,0,0,0,0,0,0,0,0,0,0,0,0,0,0,0,0,0,0,0,0,0,0,0,0,0,0,0,0,0,0,0,0,0,0,0,0,0,0,0,0,0,0,0,0,0,0],"sum_hessian":[5.9868562E4,2.09045E4,3.8964062E4,2.0525975E4,3.7852457E2,1.8921133E4,2.004293E4,1.4013098E4,6.512877E3,1.7060478E1,3.6146408E2,1.0629463E4,8.29167E3,7.6335522E3,1.2409378E4,4.0040095E3,1.0009088E4,3.3000437E3,3.2128333E3,2.3847949E2,1.229846E2,3.032894E3,7.596569E3,3.7355195E3,4.556151E3,5.0694424E3,2.5641099E3,6.1543994E3,6.2549785E3,3.1288552E3,8.751544E2,3.5292002E3,6.4798877E3,1.6663054E3,1.6337384E3,5.888139E2,2.6240195E3,1.2934639E2,1.091331E2,5.0913765E1,7.207082E1,4.2726678E2,2.6056272E3,1.0719733E3,6.5245957E3,3.5878718E3,1.4764754E2,2.6409521E3,1.9151987E3,1.6058989E3,3.4635432E3,8.9727545E2,1.6668345E3,5.305159E2,5.623884E3,7.9424706E1,6.1755537E3],"tree_param":{"num_deleted":"0","num_feature":"33","num_nodes":"57","size_leaf_vector":"1"}},{"base_weights":[-2.9878386E-3,1.3420938E-1,-3.9411508E-2,1.9751312E-1,6.605471E-2,-5.5865534E-3,-1.327755E-1,4.9217555E-1,-4.9729504E-2,-2.9101422E-1,3.080998E-1,5.8634065E-2,-7.375687E-2,-1.15481E-1,-2.1378708E-1,1.9938697E-1,6.3942146E-1,3.8437275E-3,-6.511403E-1,4.5268975E-2,-3.9452627E-1,1.3712326E-1,4.6077195E-1,1.981072E-1,-2.3945394E-1,-2.204021E-1,1.6690393E-1,-1.0573609E-1,-2.5268644E-1,-1.744896E-1,-2.949198E-1,-4.048158E-2,1.5978446E-2,-4.2164838E-4,3.5049748E-2,-1.3721293E-3,5.9435304E-2,-5.1637102E-2,-2.6567573E-2,-1.9001327E-2,1.4579882E-2,-3.889353E-2,-1.5516857E-2,2.5264284E-2,-4.3076873E-4,1.9590702E-2,4.3331567E-2,7.5585696E-5,1.9847685E-2,-2.2648891E-2,-3.2871105E-3,-2.044549E-3,-2.076406E-2,1.8212153E-2,-1.954941E-3,-8.641964E-3,-4.2455955E-3,1.6456124E-4,-1.5558952E-2,-4.28924E-3,-1.3282612E-2,2.4605847E-3,-1.6048778E-2],"categories":[],"categories_nodes":[],"categories_segments":[],"categories_sizes":[],"default_left":[0,0,0,0,0,0,0,0,0,0,0,0,0,0,0,0,0,0,0,0,0,0,0,0,0,0,0,0,0,0,0,0,0,0,0,0,0,0,0,0,0,0,0,0,0,0,0,0,0,0,0,0,0,0,0,0,0,0,0,0,0,0,0],"id":14,"left_children":[1,3,5,7,9,11,13,15,17,19,21,23,25,27,29,31,33,35,37,39,41,43,45,47,49,51,53,55,57,59,61,-1,-1,-1,-1,-1,-1,-1,-1,-1,-1,-1,-1,-1,-1,-1,-1,-1,-1,-1,-1,-1,-1,-1,-1,-1,-1,-1,-1,-1,-1,-1,-1],"loss_changes":[2.9925897E2,5.3905884E1,1.4936919E2,4.7431796E2,5.2390454E2,1.5220985E2,1.725003E1,1.2692261E2,1.1459548E2,8.557921E1,9.361606E1,7.4396466E2,5.955314E2,1.3471268E1,6.445282E0,1.2114877E2,7.939221E1,1.2161745E2,1.063121E1,6.0430573E1,5.8905792E1,9.2298645E1,5.1386963E1,4.7625488E2,2.1092068E2,3.6636023E2,2.599749E2,1.3274437E1,1.0496254E1,1.1700672E1,6.6429176E0,0E0,0E0,0E0,0E0,0E0,0E0,0E0,0E0,0E0,0E0,0E0,0E0,0E0,0E0,0E0,0E0,0E0,0E0,0E0,0E0,0E0,0E0,0E0,0E0,0E0,0E0,0E0,0E0,0E0,0E0,0E0,0E0],"parents":[2147483647,0,0,1,1,2,2,3,3,4,4,5,5,6,6,7,7,8,8,9,9,10,10,11,11,12,12,13,13,14,14,15,15,16,16,17,17,18,18,19,19,20,20,21,21,22,22,23,23,24,24,25,25,26,26,27,27,28,28,29,29,30,30],"right_children":[2,4,6,8,10,12,14,16,18,20,22,24,26,28,30,32,34,36,38,40,42,44,46,48,50,52,54,56,58,60,62,-1,-1,-1,-1,-1,-1,-1,-1,-1,-1,-1,-1,-1,-1,-1,-1,-1,-1,-1,-1,-1,-1,-1,-1,-1,-1,-1,-1,-1,-1,-1,-1],"split_conditions":[1.53689915E-2,1E0,5.396726E-1,-1.1166221E-1,-8.6120814E-2,1E0,9.268795E-3,2.4857143E-1,1.113574E0,-2.5742194E-3,3.7300876E-1,2.7585813E-1,2.7585813E-1,1.313253E0,3.218573E-1,2E1,-4.5123757E-3,9.387085E-3,2.6564673E-1,-7.168808E-1,-8.517482E-1,-2.0935916E-4,1.2381784E0,4.5945945E-1,4.7474748E-1,4.3636364E-1,4.9019608E-1,-1.3826497E0,2.3879583E0,6.101695E-1,6.0910404E-1,-4.048158E-2,1.5978446E-2,-4.2164838E-4,3.5049748E-2,-1.3721293E-3,5.9435304E-2,-5.1637102E-2,-2.6567573E-2,-1.9001327E-2,1.4579882E-2,-3.889353E-2,-1.5516857E-2,2.5264284E-2,-4.3076873E-4,1.9590702E-2,4.3331567E-2,7.5585696E-5,1.9847685E-2,-2.2648891E-2,-3.2871105E-3,-2.044549E-3,-2.076406E-2,1.8212153E-2,-1.954941E-3,-8.641964E-3,-4.2455955E-3,1.6456124E-4,-1.5558952E-2,-4.28924E-3,-1.3282612E-2,2.4605847E-3,-1.6048778E-2],"split_indices":[10,25,13,20,20,25,5,4,20,21,20,20,20,3,20,9,21,21,3,20,20,21,20,4,4,4,4,19,17,4,17,0,0,0,0,0,0,0,0,0,0,0,0,0,0,0,0,0,0,0,0,0,0,0,0,0,0,0,0,0,0,0,0],"split_type":[0,0,0,0,0,0,0,0,0,0,0,0,0,0,0,0,0,0,0,0,0,0,0,0,0,0,0,0,0,0,0,0,0,0,0,0,0,0,0,0,0,0,0,0,0,0,0,0,0,0,0,0,0,0,0,0,0,0,0,0,0,0,0],"sum_hessian":[5.989987E4,1.2559419E4,4.7340453E4,6.5018613E3,6.0575576E3,3.476003E4,1.2580422E4,2.967397E3,3.5344644E3,2.4454514E3,3.6121064E3,1.7891115E4,1.6868916E4,1.0381379E4,2.199043E3,9.96809E2,1.9705879E3,3.2456672E3,2.887972E2,5.735627E2,1.8718887E3,1.7087898E3,1.9033165E3,1.2191044E4,5.700072E3,1.0484544E4,6.384371E3,9.703058E3,6.783216E2,1.4940238E3,7.0501917E2,1.0398466E2,8.9282434E2,1.6977367E2,1.8008142E3,3.1632512E3,8.2416016E1,6.3361332E1,2.2543587E2,2.0847601E2,3.6508667E2,3.3196628E2,1.5399224E3,4.8514703E2,1.2236428E3,1.632363E3,2.709535E2,6.133762E3,6.0572812E3,2.5529958E3,3.1470762E3,5.4613877E3,5.0231567E3,3.2624473E3,3.121924E3,2.2831826E3,7.419875E3,1.2334138E2,5.549802E2,7.6474677E2,7.2927704E2,4.679658E1,6.582226E2],"tree_param":{"num_deleted":"0","num_feature":"33","num_nodes":"63","size_leaf_vector":"1"}},{"base_weights":[-4.9125345E-4,4.3456074E-2,-9.8463655E-2,1.0087877E-1,-1.7605834E-2,-5.9866223E-2,-1.3935642E-1,2.3562872E-1,-1.948364E-1,-3.5911348E-1,1.0985931E-1,2.1942671E-2,-2.1389787E-1,-4.007012E-1,-8.683001E-2,6.065884E-2,4.2272785E-1,-3.8280383E-1,-1.2791788E-2,2.5332838E-1,-4.3234685E-1,3.061863E-1,-7.433761E-2,-1.1714369E-1,1.8292762E-1,-3.1121093E-1,-1.0197694E-1,-2.616716E-1,-5.4390275E-1,2.3559147E-1,-1.318858E-1,-5.303347E-2,4.6152268E-3,5.2671384E-2,1.7216943E-2,-2.877506E-2,-9.77685E-3,3.9101206E-3,-2.042698E-2,4.337653E-2,-8.306444E-3,-1.2094661E-2,-3.0631294E-2,6.541716E-2,1.2366637E-2,-1.0106591E-2,7.6759146E-3,1.2931372E-2,-8.792541E-3,2.4328304E-2,5.387444E-3,-2.6710972E-2,-1.0868984E-2,8.751657E-2,-5.8709714E-3,-2.55979E-2,-4.508635E-3,-2.9609192E-2,-0E0,1.760154E-2,-1.6967573E-3,-1.0252641E-2,2.5200641E-3],"categories":[],"categories_nodes":[],"categories_segments":[],"categories_sizes":[],"default_left":[0,0,0,0,0,0,0,0,0,0,0,0,0,0,0,0,0,0,0,0,0,0,0,0,0,0,0,0,0,0,0,0,0,0,0,0,0,0,0,0,0,0,0,0,0,0,0,0,0,0,0,0,0,0,0,0,0,0,0,0,0,0,0],"id":15,"left_children":[1,3,5,7,9,11,13,15,17,19,21,23,25,27,29,31,33,35,37,39,41,43,45,47,49,51,53,55,57,59,61,-1,-1,-1,-1,-1,-1,-1,-1,-1,-1,-1,-1,-1,-1,-1,-1,-1,-1,-1,-1,-1,-1,-1,-1,-1,-1,-1,-1,-1,-1,-1,-1],"loss_changes":[2.576044E2,1.448524E2,2.903128E1,8.4833673E2,8.710485E2,1.2052603E2,1.22763275E2,4.7827698E2,2.275601E2,2.4435437E2,5.2700244E2,1.3969295E2,3.564673E1,2.8766586E1,1.0870448E2,2.6760745E2,3.4716907E2,1.1718286E2,1.2243912E2,1.5060643E2,1.6573346E2,4.1381927E2,2.1890305E2,7.374211E1,6.535441E1,3.601973E1,4.3123997E1,3.228408E1,1.948616E1,2.9083614E1,8.782866E1,0E0,0E0,0E0,0E0,0E0,0E0,0E0,0E0,0E0,0E0,0E0,0E0,0E0,0E0,0E0,0E0,0E0,0E0,0E0,0E0,0E0,0E0,0E0,0E0,0E0,0E0,0E0,0E0,0E0,0E0,0E0,0E0],"parents":[2147483647,0,0,1,1,2,2,3,3,4,4,5,5,6,6,7,7,8,8,9,9,10,10,11,11,12,12,13,13,14,14,15,15,16,16,17,17,18,18,19,19,20,20,21,21,22,22,23,23,24,24,25,25,26,26,27,27,28,28,29,29,30,30],"right_children":[2,4,6,8,10,12,14,16,18,20,22,24,26,28,30,32,34,36,38,40,42,44,46,48,50,52,54,56,58,60,62,-1,-1,-1,-1,-1,-1,-1,-1,-1,-1,-1,-1,-1,-1,-1,-1,-1,-1,-1,-1,-1,-1,-1,-1,-1,-1,-1,-1,-1,-1,-1,-1],"split_conditions":[4.6255115E-1,1E0,1E0,2.7585813E-1,-3.0223697E-1,1.6028804E-1,-7.075848E-1,4.7058824E-1,5.2E-1,-4.3438394E-3,4.3636364E-1,-1.8695525E-4,5.714286E-1,-2.2029465E-3,-3.3618647E-3,2.7596438E-1,3.9246467E-1,1.7515428E-3,1.113574E0,4.1025642E-1,3.544899E-1,3.0228084E-1,1E1,-1.4060901E0,-8.543147E-1,3.861832E-4,5.9713703E-1,-1.4060901E0,3.6838453E-3,7.5484496E-1,6.1004853E-1,-5.303347E-2,4.6152268E-3,5.2671384E-2,1.7216943E-2,-2.877506E-2,-9.77685E-3,3.9101206E-3,-2.042698E-2,4.337653E-2,-8.306444E-3,-1.2094661E-2,-3.0631294E-2,6.541716E-2,1.2366637E-2,-1.0106591E-2,7.6759146E-3,1.2931372E-2,-8.792541E-3,2.4328304E-2,5.387444E-3,-2.6710972E-2,-1.0868984E-2,8.751657E-2,-5.8709714E-3,-2.55979E-2,-4.508635E-3,-2.9609192E-2,-0E0,1.760154E-2,-1.6967573E-3,-1.0252641E-2,2.5200641E-3],"split_indices":[13,25,25,20,20,20,20,4,4,21,4,21,4,21,21,16,17,21,20,4,4,16,22,20,20,0,17,20,21,4,20,0,0,0,0,0,0,0,0,0,0,0,0,0,0,0,0,0,0,0,0,0,0,0,0,0,0,0,0,0,0,0,0],"split_type":[0,0,0,0,0,0,0,0,0,0,0,0,0,0,0,0,0,0,0,0,0,0,0,0,0,0,0,0,0,0,0,0,0,0,0,0,0,0,0,0,0,0,0,0,0,0,0,0,0,0,0,0,0,0,0,0,0,0,0,0,0,0,0],"sum_hessian":[5.9812973E4,4.1284816E4,1.8528158E4,2.12842E4,2.0000615E4,9.546699E3,8.981458E3,1.4624136E4,6.660063E3,5.4372407E3,1.4563375E4,6.231999E3,3.3147004E3,1.4976442E3,7.4838145E3,7.5611514E3,7.062985E3,3.2729397E3,3.3871233E3,5.787394E2,4.8585015E3,7.051554E3,7.511821E3,3.3403584E3,2.8916406E3,1.7663754E3,1.5483251E3,7.663035E2,7.313406E2,9.138199E2,6.5699946E3,2.0487871E2,7.3562725E3,7.766449E2,6.2863403E3,1.6084055E3,1.664534E3,2.7531663E3,6.339569E2,2.3495193E2,3.437874E2,2.3675562E3,2.4909456E3,3.878473E2,6.6637065E3,4.8155874E3,2.6962334E3,4.481306E2,2.8922278E3,5.6905316E2,2.3225876E3,5.171713E2,1.249204E3,1.0408351E1,1.5379167E3,3.0759558E2,4.5870795E2,6.722025E2,5.9138096E1,6.4029944E2,2.7352042E2,4.6919565E3,1.8780377E3],"tree_param":{"num_deleted":"0","num_feature":"33","num_nodes":"63","size_leaf_vector":"1"}},{"base_weights":[-1.8031292E-3,6.640178E-2,-6.7396425E-2,5.9549946E-2,5.0037503E-1,-3.8914144E-2,-1.4645375E-1,1.1421776E-1,1.1058273E-3,5.8219534E-1,-1.01884276E-1,1.7783085E-2,-9.9689655E-2,-1.3360353E-1,-2.479092E-1,2.4572212E-2,5.027081E-1,8.195052E-2,-4.5828918E-1,6.59156E-1,7.145528E-2,1.4977591E-2,-2.2917318E-1,8.928138E-2,-2.4658464E-1,-1.7621808E-1,1.20759025E-1,-1.8753862E-1,-1.0267868E-1,-2.9188502E-1,-6.92991E-2,-4.3235696E-3,1.5394668E-2,1.8583903E-2,4.7251515E-2,1.8160304E-2,-2.6053626E-3,-7.2953925E-3,-3.1905577E-2,2.6382325E-2,4.7430493E-2,3.0833945E-2,-9.4809765E-3,2.27071E-3,-2.6449004E-2,-2.2634636E-3,9.176202E-3,-2.5272517E-2,-8.43223E-3,-5.68844E-3,-1.7439978E-2,1.4805823E-2,2.456686E-3,-6.9656107E-3,-1.2631859E-2,-4.565449E-3,-1.5811458E-2,3.4988986E-3,-1.5868949E-2,-1.0831298E-2,4.019394E-3],"categories":[],"categories_nodes":[],"categories_segments":[],"categories_sizes":[],"default_left":[0,0,0,0,0,0,0,0,0,0,0,0,0,0,0,0,0,0,0,0,0,0,0,0,0,0,0,0,0,0,0,0,0,0,0,0,0,0,0,0,0,0,0,0,0,0,0,0,0,0,0,0,0,0,0,0,0,0,0,0,0],"id":16,"left_children":[1,3,5,7,9,11,13,15,17,19,21,23,25,27,29,31,33,35,37,39,41,-1,43,45,47,49,51,53,55,57,59,-1,-1,-1,-1,-1,-1,-1,-1,-1,-1,-1,-1,-1,-1,-1,-1,-1,-1,-1,-1,-1,-1,-1,-1,-1,-1,-1,-1,-1,-1],"loss_changes":[2.670303E2,8.6367035E1,6.833194E1,9.1912476E1,2.2880005E1,7.722072E1,1.0047852E1,5.174486E2,5.171237E2,1.4891556E1,2.8426561E0,2.1866418E2,1.8251775E2,1.1611229E1,6.619892E0,3.8061603E2,1.5947858E2,4.4716885E2,1.1605539E2,1.0675751E1,8.675516E0,0E0,4.175909E0,1.1573576E2,4.88183E1,8.6009415E1,3.4595364E1,7.6830826E0,1.0620995E1,6.8622284E0,4.222858E0,0E0,0E0,0E0,0E0,0E0,0E0,0E0,0E0,0E0,0E0,0E0,0E0,0E0,0E0,0E0,0E0,0E0,0E0,0E0,0E0,0E0,0E0,0E0,0E0,0E0,0E0,0E0,0E0,0E0,0E0],"parents":[2147483647,0,0,1,1,2,2,3,3,4,4,5,5,6,6,7,7,8,8,9,9,10,10,11,11,12,12,13,13,14,14,15,15,16,16,17,17,18,18,19,19,20,20,22,22,23,23,24,24,25,25,26,26,27,27,28,28,29,29,30,30],"right_children":[2,4,6,8,10,12,14,16,18,20,22,24,26,28,30,32,34,36,38,40,42,-1,44,46,48,50,52,54,56,58,60,-1,-1,-1,-1,-1,-1,-1,-1,-1,-1,-1,-1,-1,-1,-1,-1,-1,-1,-1,-1,-1,-1,-1,-1,-1,-1,-1,-1,-1,-1],"split_conditions":[3.6029875E-1,2.3561122E-2,6.368748E-1,1E0,1.5748877E-2,1E0,1.1622957E0,1E0,1E0,2.03868E0,-1.0930888E-2,1E0,1E0,2.4664225E-2,6.492538E1,6.9503546E-1,6.865672E-1,2.8269824E-1,2.4857143E-1,2.5261285E-2,-1.3861359E-5,1.4977591E-2,1E0,3.6945814E-1,2.3684211E-1,1E0,1E0,1.2458472E-2,1.0468482E0,-3.3290157E-1,5.387931E-2,-4.3235696E-3,1.5394668E-2,1.8583903E-2,4.7251515E-2,1.8160304E-2,-2.6053626E-3,-7.2953925E-3,-3.1905577E-2,2.6382325E-2,4.7430493E-2,3.0833945E-2,-9.4809765E-3,2.27071E-3,-2.6449004E-2,-2.2634636E-3,9.176202E-3,-2.5272517E-2,-8.43223E-3,-5.68844E-3,-1.7439978E-2,1.4805823E-2,2.456686E-3,-6.9656107E-3,-1.2631859E-2,-4.565449E-3,-1.5811458E-2,3.4988986E-3,-1.5868949E-2,-1.0831298E-2,4.019394E-3],"split_indices":[13,2,13,25,6,25,13,30,30,15,0,32,32,2,12,4,4,4,4,1,0,0,25,4,4,30,24,6,4,3,2,0,0,0,0,0,0,0,0,0,0,0,0,0,0,0,0,0,0,0,0,0,0,0,0,0,0,0,0,0,0],"split_type":[0,0,0,0,0,0,0,0,0,0,0,0,0,0,0,0,0,0,0,0,0,0,0,0,0,0,0,0,0,0,0,0,0,0,0,0,0,0,0,0,0,0,0,0,0,0,0,0,0,0,0,0,0,0,0,0,0,0,0,0,0],"sum_hessian":[5.968357E4,2.9251816E4,3.0431756E4,2.8801658E4,4.501591E2,2.2383281E4,8.048474E3,1.4871782E4,1.3929875E4,3.9783768E2,5.2321434E1,1.1572398E4,1.0810883E4,7.1565273E3,8.9194666E2,1.2087296E4,2.7844866E3,1.1848573E4,2.0813015E3,3.4353336E2,5.4304306E1,1.0053264E1,4.226817E1,9.112916E3,2.4594824E3,8.0286772E3,2.7822058E3,2.5925225E3,4.564005E3,7.102162E2,1.8173045E2,8.682268E3,3.4050283E3,2.1527227E3,6.3176404E2,3.8258706E3,8.022703E3,7.637408E2,1.3175607E3,2.4247061E2,1.0106275E2,1.7941593E1,3.6362713E1,2.1206816E1,2.1061354E1,3.7497747E3,5.363141E3,5.6364E2,1.8958425E3,5.902094E3,2.126583E3,8.0097644E2,1.9812292E3,1.5016838E3,1.0908387E3,4.3404517E3,2.2355324E2,4.3931667E1,6.6628455E2,9.4503365E1,8.72271E1],"tree_param":{"num_deleted":"0","num_feature":"33","num_nodes":"61","size_leaf_vector":"1"}},{"base_weights":[-2.9957944E-3,9.9579096E-2,-4.4412255E-2,1.5679596E-1,3.7543584E-2,-4.960311E-4,-9.121353E-2,2.343383E-1,-2.2080117E-1,-6.115512E-2,3.7272736E-1,-1.2532102E-1,1.7586184E-1,4.472479E-2,-2.2630647E-1,5.043676E-1,1.4392893E-1,-8.437959E-2,-4.3607637E-1,-4.1346675E-1,2.8923117E-2,-7.4177706E-1,4.122627E-1,-9.50926E-1,-8.8921994E-2,9.1027963E-1,1.182946E-1,9.775592E-1,-9.338779E-3,-3.6003172E-1,-1.8642263E-3,1.32215945E-2,3.6835775E-2,-8.286205E-4,1.1676716E-2,1.8945798E-2,-6.649453E-3,-3.4501005E-2,-1.2555744E-2,6.782943E-3,-2.4809396E-2,9.345592E-3,-8.019873E-3,-4.78462E-2,7.8607835E-3,3.5661757E-2,1.0810698E-2,-4.731527E-3,-6.0842324E-2,-1.60939E-3,-1.6437095E-2,2.0389298E-2,7.443346E-2,-9.1199216E-4,1.2703276E-2,3.1391095E-2,9.89318E-2,4.7625857E-3,-7.756725E-3,-5.0915565E-2,-9.975121E-3,1.888995E-2,-2.9964766E-3],"categories":[],"categories_nodes":[],"categories_segments":[],"categories_sizes":[],"default_left":[0,0,0,0,0,0,0,0,0,0,0,0,0,0,0,0,0,0,0,0,0,0,0,0,0,0,0,0,0,0,0,0,0,0,0,0,0,0,0,0,0,0,0,0,0,0,0,0,0,0,0,0,0,0,0,0,0,0,0,0,0,0,0],"id":17,"left_children":[1,3,5,7,9,11,13,15,17,19,21,23,25,27,29,31,33,35,37,39,41,43,45,47,49,51,53,55,57,59,61,-1,-1,-1,-1,-1,-1,-1,-1,-1,-1,-1,-1,-1,-1,-1,-1,-1,-1,-1,-1,-1,-1,-1,-1,-1,-1,-1,-1,-1,-1,-1,-1],"loss_changes":[2.5371175E2,6.0754166E1,8.738203E1,2.6144434E2,2.733266E2,4.8362686E2,3.7835806E2,1.8005356E2,4.402858E1,2.026812E2,8.310004E1,3.8551233E2,3.8360568E2,5.185144E2,3.0974E2,1.0199646E2,8.011891E1,2.0919851E1,2.6239128E1,5.9555115E1,1.518973E2,1.35253105E1,1.05993866E2,1.21881805E2,1.6736214E2,1.8873676E2,1.5678705E2,1.9208911E2,1.4801292E2,6.8226117E2,8.4874756E1,0E0,0E0,0E0,0E0,0E0,0E0,0E0,0E0,0E0,0E0,0E0,0E0,0E0,0E0,0E0,0E0,0E0,0E0,0E0,0E0,0E0,0E0,0E0,0E0,0E0,0E0,0E0,0E0,0E0,0E0,0E0,0E0],"parents":[2147483647,0,0,1,1,2,2,3,3,4,4,5,5,6,6,7,7,8,8,9,9,10,10,11,11,12,12,13,13,14,14,15,15,16,16,17,17,18,18,19,19,20,20,21,21,22,22,23,23,24,24,25,25,26,26,27,27,28,28,29,29,30,30],"right_children":[2,4,6,8,10,12,14,16,18,20,22,24,26,28,30,32,34,36,38,40,42,44,46,48,50,52,54,56,58,60,62,-1,-1,-1,-1,-1,-1,-1,-1,-1,-1,-1,-1,-1,-1,-1,-1,-1,-1,-1,-1,-1,-1,-1,-1,-1,-1,-1,-1,-1,-1,-1,-1],"split_conditions":[1.724964E-2,1E0,1E0,1E0,1E0,5.714286E-1,4.437811E-1,1E0,3E0,1E0,-1.5882319E-3,3.504549E-1,5.6145155E-1,4.4926414E-1,1E1,-1.1464909E-3,3.4666666E-1,5.8315336E-3,4.8018253E-1,-4.5123757E-3,4.7058824E-1,1.6845313E0,1.0503405E-3,7.867495E-3,1E0,1.1810512E-2,7.873563E-1,1.9725122E-2,1.3526807E-3,2.5E1,-3.3618647E-3,1.32215945E-2,3.6835775E-2,-8.286205E-4,1.1676716E-2,1.8945798E-2,-6.649453E-3,-3.4501005E-2,-1.2555744E-2,6.782943E-3,-2.4809396E-2,9.345592E-3,-8.019873E-3,-4.78462E-2,7.8607835E-3,3.5661757E-2,1.0810698E-2,-4.731527E-3,-6.0842324E-2,-1.60939E-3,-1.6437095E-2,2.0389298E-2,7.443346E-2,-9.1199216E-4,1.2703276E-2,3.1391095E-2,9.89318E-2,4.7625857E-3,-7.756725E-3,-5.0915565E-2,-9.975121E-3,1.888995E-2,-2.9964766E-3],"split_indices":[10,25,25,32,32,4,4,31,24,31,21,16,17,16,22,21,4,2,17,21,4,7,21,2,32,2,4,2,21,23,21,0,0,0,0,0,0,0,0,0,0,0,0,0,0,0,0,0,0,0,0,0,0,0,0,0,0,0,0,0,0,0,0],"split_type":[0,0,0,0,0,0,0,0,0,0,0,0,0,0,0,0,0,0,0,0,0,0,0,0,0,0,0,0,0,0,0,0,0,0,0,0,0,0,0,0,0,0,0,0,0,0,0,0,0,0,0,0,0,0,0,0,0,0,0,0,0,0,0],"sum_hessian":[5.972983E4,1.7172434E4,4.2557395E4,8.923186E3,8.249247E3,2.1967482E4,2.0589914E4,7.405765E3,1.5174208E3,6.3716836E3,1.8775636E3,1.2866736E4,9.100746E3,1.0259822E4,1.0330091E4,1.8525277E3,5.5532373E3,9.3336755E2,5.840532E2,1.2981836E3,5.0735E3,6.2238445E1,1.8153252E3,5.4002954E2,1.2326707E4,6.5809247E2,8.442653E3,5.611883E2,9.698634E3,6.4697036E3,3.8603877E3,9.156035E2,9.369242E2,1.986136E3,3.5671013E3,8.538673E1,8.4798083E2,2.4154929E2,3.4250394E2,1.6820757E2,1.1299761E3,2.7684912E3,2.3050088E3,5.1013397E1,1.1225049E1,7.119573E2,1.1033679E3,1.2949911E2,4.1053043E2,9.973674E3,2.3530337E3,3.5490063E2,3.0319183E2,4.206681E3,4.2359727E3,4.1904385E2,1.4214444E2,5.6437627E3,4.0548708E3,1.2650835E3,5.20462E3,5.0834045E2,3.352047E3],"tree_param":{"num_deleted":"0","num_feature":"33","num_nodes":"63","size_leaf_vector":"1"}},{"base_weights":[-8.3545444E-4,7.1720496E-2,-5.158373E-2,1.801512E-1,4.240268E-2,-1.0611724E-1,-7.2986406E-4,1.1965245E-1,2.2931819E-1,1.3624587E-3,1.3232748E-1,-4.730915E-2,-3.3613533E-1,-5.9442427E-2,1.8206482E-1,2.3714098E-1,6.934309E-2,2.1528421E-1,5.671965E-1,-1.1040873E-1,4.9025837E-2,1.8006554E-1,8.2729705E-2,1.5495513E-1,-1.0006787E-1,-4.327046E-2,-4.263945E-1,-2.3423474E-1,1.5072739E-2,2.9817408E-1,1.145655E-2,1.9144468E-2,4.2182636E-3,-1.3150834E-3,7.601794E-3,1.628265E-2,9.028141E-3,3.963495E-2,8.650458E-3,-1.0547363E-2,1.6550979E-2,3.3090462E-3,-3.778717E-3,1.74648E-2,7.193432E-3,-1.8831264E-3,6.370696E-3,1.8106125E-2,-1.8447004E-3,-4.3614052E-2,-3.8451056E-3,8.671091E-3,-7.622625E-3,-1.546689E-2,-2.47851E-2,-1.9104019E-2,-3.0016813E-3,4.5181334E-2,-1.9397936E-4,2.36806E-2,8.817489E-3,-1.1787578E-2,4.21565E-3],"categories":[],"categories_nodes":[],"categories_segments":[],"categories_sizes":[],"default_left":[0,0,0,0,0,0,0,0,0,0,0,0,0,0,0,0,0,0,0,0,0,0,0,0,0,0,0,0,0,0,0,0,0,0,0,0,0,0,0,0,0,0,0,0,0,0,0,0,0,0,0,0,0,0,0,0,0,0,0,0,0,0,0],"id":18,"left_children":[1,3,5,7,9,11,13,15,17,19,21,23,25,27,29,31,33,35,37,39,41,43,45,47,49,51,53,55,57,59,61,-1,-1,-1,-1,-1,-1,-1,-1,-1,-1,-1,-1,-1,-1,-1,-1,-1,-1,-1,-1,-1,-1,-1,-1,-1,-1,-1,-1,-1,-1,-1,-1],"loss_changes":[2.1914041E2,7.761092E1,9.704479E1,1.5076324E1,7.104376E1,2.2812029E2,1.9457321E2,1.3530464E1,1.2533295E1,7.055046E1,1.3999199E1,1.4361777E2,9.0324615E1,1.7911899E2,8.696504E1,1.4982651E1,1.319788E1,9.921165E0,8.535873E0,1.7559781E2,1.987588E1,1.817376E1,1.610042E1,1.1090574E2,1.8998962E2,1.9298706E1,2.017508E1,1.0534755E2,1.6303662E2,5.5141647E1,3.2125084E1,0E0,0E0,0E0,0E0,0E0,0E0,0E0,0E0,0E0,0E0,0E0,0E0,0E0,0E0,0E0,0E0,0E0,0E0,0E0,0E0,0E0,0E0,0E0,0E0,0E0,0E0,0E0,0E0,0E0,0E0,0E0,0E0],"parents":[2147483647,0,0,1,1,2,2,3,3,4,4,5,5,6,6,7,7,8,8,9,9,10,10,11,11,12,12,13,13,14,14,15,15,16,16,17,17,18,18,19,19,20,20,21,21,22,22,23,23,24,24,25,25,26,26,27,27,28,28,29,29,30,30],"right_children":[2,4,6,8,10,12,14,16,18,20,22,24,26,28,30,32,34,36,38,40,42,44,46,48,50,52,54,56,58,60,62,-1,-1,-1,-1,-1,-1,-1,-1,-1,-1,-1,-1,-1,-1,-1,-1,-1,-1,-1,-1,-1,-1,-1,-1,-1,-1,-1,-1,-1,-1,-1,-1],"split_conditions":[3.3043635E-1,1.2376396E-2,1E0,1.3764625E-4,1E1,1E0,1E0,2.6666668E-1,6.844507E-3,2.5E1,2.7675277E-1,1.7318435E-1,-7.4525746E-3,2.9032257E-1,5.3608036E-1,1E0,1E0,3.3635327E-3,2.4700046E-1,7.5E-1,1.2488749E-2,1E0,1.4876033E-1,1E1,2.4217263E-1,4.7302765E-1,2.3333333E-1,1E1,2.976581E-1,2E0,-1.3398487E-2,1.9144468E-2,4.2182636E-3,-1.3150834E-3,7.601794E-3,1.628265E-2,9.028141E-3,3.963495E-2,8.650458E-3,-1.0547363E-2,1.6550979E-2,3.3090462E-3,-3.778717E-3,1.74648E-2,7.193432E-3,-1.8831264E-3,6.370696E-3,1.8106125E-2,-1.8447004E-3,-4.3614052E-2,-3.8451056E-3,8.671091E-3,-7.622625E-3,-1.546689E-2,-2.47851E-2,-1.9104019E-2,-3.0016813E-3,4.5181334E-2,-1.9397936E-4,2.36806E-2,8.817489E-3,-1.1787578E-2,4.21565E-3],"split_indices":[13,10,26,0,22,30,30,4,11,23,13,4,0,4,13,26,26,6,18,4,1,24,4,22,17,14,4,22,17,24,0,0,0,0,0,0,0,0,0,0,0,0,0,0,0,0,0,0,0,0,0,0,0,0,0,0,0,0,0,0,0,0,0],"split_type":[0,0,0,0,0,0,0,0,0,0,0,0,0,0,0,0,0,0,0,0,0,0,0,0,0,0,0,0,0,0,0,0,0,0,0,0,0,0,0,0,0,0,0,0,0,0,0,0,0,0,0,0,0,0,0,0,0,0,0,0,0,0,0],"sum_hessian":[5.951669E4,2.4486814E4,3.502988E4,5.202221E3,1.9284592E4,1.6892861E4,1.813702E4,2.3445354E3,2.8576855E3,1.3250451E4,6.034141E3,1.3458677E4,3.4341838E3,1.373291E4,4.404109E3,6.94755E2,1.6497805E3,2.7497087E3,1.0797687E2,3.9541975E3,9.296254E3,3.0617607E3,2.9723801E3,2.7795852E3,1.0679092E4,8.123572E2,2.6218267E3,4.1073403E3,9.625569E3,2.6162412E3,1.7878674E3,3.506634E2,3.4409158E2,7.600067E2,8.897738E2,6.4712756E2,2.102581E3,6.578467E1,4.21922E1,3.2233628E3,7.3083484E2,8.1791084E3,1.1171453E3,5.315752E2,2.5301855E3,7.98615E2,2.1737654E3,1.3380912E3,1.4414941E3,3.0764075E2,1.0371451E4,2.6871198E2,5.436452E2,9.844678E2,1.637359E3,2.217341E3,1.8899993E3,2.0017227E2,9.425397E3,1.0664597E3,1.5497814E3,4.028308E2,1.3850366E3],"tree_param":{"num_deleted":"0","num_feature":"33","num_nodes":"63","size_leaf_vector":"1"}},{"base_weights":[-4.916517E-4,4.3493576E-2,-8.1814356E-2,1.3658762E-1,1.6185062E-2,-5.2615706E-2,-1.5497139E-1,1.962316E-1,7.208289E-2,6.054874E-2,-4.105245E-2,-7.598107E-2,9.117999E-2,-1.7396262E-1,-5.9840146E-2,4.6560302E-1,-3.6165226E-2,-1.0439447E-1,4.6352202E-1,1.10016555E-1,7.2314083E-3,-6.5393314E-2,7.827577E-2,-2.0887214E-1,-2.9103996E-2,2.2070947E-1,5.219659E-4,-7.975343E-2,-1.9108684E-1,2.372634E-1,-1.2832527E-1,5.2207694E-3,2.8358731E-2,-3.680525E-3,5.6630176E-2,-2.0516044E-2,-3.1700596E-4,6.257925E-3,2.7415136E-2,1.2836981E-2,-7.431023E-3,-6.8997964E-3,1.2430749E-2,-5.2626445E-3,-1.812656E-4,1.779618E-2,-1.2722394E-2,-1.40964305E-2,2.5097778E-2,-5.586756E-3,-1.6665412E-4,1.7928109E-2,5.1406524E-3,-1.4703029E-3,1.3633891E-2,-8.0622025E-3,3.9686924E-3,-7.9601575E-3,-1.1937662E-2,-3.1041412E-2,1.5938973E-2,2.138347E-2,-7.1688774E-3],"categories":[],"categories_nodes":[],"categories_segments":[],"categories_sizes":[],"default_left":[0,0,0,0,0,0,0,0,0,0,0,0,0,0,0,0,0,0,0,0,0,0,0,0,0,0,0,0,0,0,0,0,0,0,0,0,0,0,0,0,0,0,0,0,0,0,0,0,0,0,0,0,0,0,0,0,0,0,0,0,0,0,0],"id":19,"left_children":[1,3,5,7,9,11,13,15,17,19,21,23,25,27,29,31,33,35,37,39,41,43,45,47,49,51,53,55,57,59,61,-1,-1,-1,-1,-1,-1,-1,-1,-1,-1,-1,-1,-1,-1,-1,-1,-1,-1,-1,-1,-1,-1,-1,-1,-1,-1,-1,-1,-1,-1,-1,-1],"loss_changes":[2.1331538E2,9.8196205E1,4.4499832E1,3.342943E1,7.600762E1,5.0320103E1,1.0516495E1,2.8501306E2,2.9215814E2,4.4370537E1,3.7922676E1,8.0054405E1,2.4302652E1,7.7003937E0,2.037921E1,7.652246E1,1.0589669E2,8.68815E1,3.6892273E1,3.3185138E2,2.851814E2,2.6611092E1,2.0408597E2,1.7432124E2,2.0193699E1,1.3365875E1,1.0319309E1,1.0161169E1,5.888809E0,1.3106402E1,6.7001085E0,0E0,0E0,0E0,0E0,0E0,0E0,0E0,0E0,0E0,0E0,0E0,0E0,0E0,0E0,0E0,0E0,0E0,0E0,0E0,0E0,0E0,0E0,0E0,0E0,0E0,0E0,0E0,0E0,0E0,0E0,0E0,0E0],"parents":[2147483647,0,0,1,1,2,2,3,3,4,4,5,5,6,6,7,7,8,8,9,9,10,10,11,11,12,12,13,13,14,14,15,15,16,16,17,17,18,18,19,19,20,20,21,21,22,22,23,23,24,24,25,25,26,26,27,27,28,28,29,29,30,30],"right_children":[2,4,6,8,10,12,14,16,18,20,22,24,26,28,30,32,34,36,38,40,42,44,46,48,50,52,54,56,58,60,62,-1,-1,-1,-1,-1,-1,-1,-1,-1,-1,-1,-1,-1,-1,-1,-1,-1,-1,-1,-1,-1,-1,-1,-1,-1,-1,-1,-1,-1,-1,-1,-1],"split_conditions":[2.819549E-2,1.36818E-2,6.6259396E-1,1E0,6.650385E-1,2.4664225E-2,4.464772E-2,-1.1166221E-1,3.7300876E-1,1E0,8.4615386E-1,2E1,2.2060652E0,2.1860912E0,2E1,-5.678519E-1,9.387085E-3,-4.734243E-1,-2.4314972E-3,1.3192756E-1,2.7585813E-1,3E1,1E0,8.148571E-1,-5.4436713E-1,4.7857708E-1,3.885375E-2,2.6644746E-2,3.0139594E-3,-2.6786458E0,7.142857E0,5.2207694E-3,2.8358731E-2,-3.680525E-3,5.6630176E-2,-2.0516044E-2,-3.1700596E-4,6.257925E-3,2.7415136E-2,1.2836981E-2,-7.431023E-3,-6.8997964E-3,1.2430749E-2,-5.2626445E-3,-1.812656E-4,1.779618E-2,-1.2722394E-2,-1.40964305E-2,2.5097778E-2,-5.586756E-3,-1.6665412E-4,1.7928109E-2,5.1406524E-3,-1.4703029E-3,1.3633891E-2,-8.0622025E-3,3.9686924E-3,-7.9601575E-3,-1.1937662E-2,-3.1041412E-2,1.5938973E-2,2.138347E-2,-7.1688774E-3],"split_indices":[10,10,13,25,14,2,2,20,20,25,4,9,15,15,9,19,21,20,5,20,20,9,25,4,19,13,2,2,5,20,12,0,0,0,0,0,0,0,0,0,0,0,0,0,0,0,0,0,0,0,0,0,0,0,0,0,0,0,0,0,0,0,0],"split_type":[0,0,0,0,0,0,0,0,0,0,0,0,0,0,0,0,0,0,0,0,0,0,0,0,0,0,0,0,0,0,0,0,0,0,0,0,0,0,0,0,0,0,0,0,0,0,0,0,0,0,0,0,0,0,0,0,0,0,0,0,0,0,0],"sum_hessian":[5.962061E4,3.868538E4,2.093523E4,8.764113E3,2.9921266E4,1.4975339E4,5.959893E3,4.5434487E3,4.2206646E3,1.6866062E4,1.3055201E4,1.2888916E4,2.0864226E3,4.957957E3,1.0019358E3,2.1053877E3,2.438061E3,2.9083628E3,1.3123015E3,8.738034E3,8.1280293E3,1.085106E4,2.2041418E3,3.3536016E3,9.535314E3,8.53322E2,1.2331006E3,7.733071E2,4.18465E3,1.8403233E2,8.1790344E2,4.651653E2,1.6402225E3,2.3650198E3,7.30414E1,7.018976E2,2.2064653E3,2.6628687E2,1.0460146E3,5.577715E3,3.1603196E3,5.072747E3,3.055282E3,6.5844463E3,4.2666133E3,1.2030767E3,1.00106506E3,3.0434224E3,3.1017905E2,2.2560632E3,7.279251E3,3.8757623E2,4.6574582E2,1.1092318E3,1.238688E2,5.155478E2,2.5775934E2,2.5252124E3,1.6594375E3,1.3753578E1,1.7027875E2,1.8362902E1,7.995405E2],"tree_param":{"num_deleted":"0","num_feature":"33","num_nodes":"63","size_leaf_vector":"1"}},{"base_weights":[-1.0648724E-3,5.8680363E-2,-5.904639E-2,9.892431E-2,4.866782E-3,-2.338102E-2,-1.0868566E-1,1.6380596E-1,7.1629666E-2,-2.5636146E-2,1.5274946E-1,3.01152E-2,-8.158123E-2,-1.00041464E-1,-2.583377E-1,9.6247226E-2,2.1498099E-1,3.541984E-2,1.0996341E-1,1.071136E-1,-5.873796E-2,5.425127E-1,-3.4359136E-1,3.593104E-1,-3.5508852E-2,-4.9838138E-1,-2.0282907E-2,-1.6330594E-1,-8.484789E-2,7.050384E-3,-3.022547E-1,1.2808007E-2,2.280411E-3,6.991926E-3,1.4091487E-2,-5.362171E-3,2.986879E-3,5.8880756E-3,-1.1730058E-2,-1.3616604E-2,2.2760147E-2,-8.742344E-3,4.7245566E-4,4.392452E-2,7.701292E-3,-3.480513E-2,-1.8995838E-3,2.7534043E-2,1.0128197E-2,9.813533E-4,-1.8277682E-2,-1.1514397E-2,-3.329328E-2,-4.2210836E-3,1.160312E-2,-8.874747E-3,6.3426406E-3,-2.5721348E-3,-5.991797E-3,-8.488811E-3,2.0105101E-2,-1.7882455E-2,-5.622139E-3],"categories":[],"categories_nodes":[],"categories_segments":[],"categories_sizes":[],"default_left":[0,0,0,0,0,0,0,0,0,0,0,0,0,0,0,0,0,0,0,0,0,0,0,0,0,0,0,0,0,0,0,0,0,0,0,0,0,0,0,0,0,0,0,0,0,0,0,0,0,0,0,0,0,0,0,0,0,0,0,0,0,0,0],"id":20,"left_children":[1,3,5,7,9,11,13,15,17,19,21,23,25,27,29,31,33,35,37,39,41,43,45,47,49,51,53,55,57,59,61,-1,-1,-1,-1,-1,-1,-1,-1,-1,-1,-1,-1,-1,-1,-1,-1,-1,-1,-1,-1,-1,-1,-1,-1,-1,-1,-1,-1,-1,-1,-1,-1],"loss_changes":[2.0627328E2,6.3388954E1,5.3377342E1,2.942752E1,5.6777752E1,5.486537E1,1.5922668E1,1.6766052E1,1.6245125E1,4.5690548E1,4.1709457E2,1.983429E2,2.1511292E2,1.1206512E1,8.246727E0,1.7053947E1,1.3601013E1,2.109853E1,1.5319168E1,2.7404547E2,6.616876E1,1.5635822E2,1.0124682E2,4.48004E1,1.3940569E2,4.729181E1,1.1905673E2,9.55835E0,1.1094322E1,7.0427127E0,5.63554E0,0E0,0E0,0E0,0E0,0E0,0E0,0E0,0E0,0E0,0E0,0E0,0E0,0E0,0E0,0E0,0E0,0E0,0E0,0E0,0E0,0E0,0E0,0E0,0E0,0E0,0E0,0E0,0E0,0E0,0E0,0E0,0E0],"parents":[2147483647,0,0,1,1,2,2,3,3,4,4,5,5,6,6,7,7,8,8,9,9,10,10,11,11,12,12,13,13,14,14,15,15,16,16,17,17,18,18,19,19,20,20,21,21,22,22,23,23,24,24,25,25,26,26,27,27,28,28,29,29,30,30],"right_children":[2,4,6,8,10,12,14,16,18,20,22,24,26,28,30,32,34,36,38,40,42,44,46,48,50,52,54,56,58,60,62,-1,-1,-1,-1,-1,-1,-1,-1,-1,-1,-1,-1,-1,-1,-1,-1,-1,-1,-1,-1,-1,-1,-1,-1,-1,-1,-1,-1,-1,-1,-1,-1],"split_conditions":[3.6029875E-1,6.436779E-1,5.396726E-1,2.377469E-1,8.059361E-1,1E0,1.0697675E0,5.1666194E-1,1E1,1.654321E-1,1E0,-7.428748E-1,-7.428748E-1,-9.6744925E-1,9.701492E-3,-3.4340754E-1,4.898121E-4,2.5E1,1.6189307E0,1E0,2.5E1,1.0076336E0,1E0,2E0,8.767647E-1,-3.1562087E-3,7.080821E-1,1.301634E1,1E0,-2.5902453E-3,8.198529E1,1.2808007E-2,2.280411E-3,6.991926E-3,1.4091487E-2,-5.362171E-3,2.986879E-3,5.8880756E-3,-1.1730058E-2,-1.3616604E-2,2.2760147E-2,-8.742344E-3,4.7245566E-4,4.392452E-2,7.701292E-3,-3.480513E-2,-1.8995838E-3,2.7534043E-2,1.0128197E-2,9.813533E-4,-1.8277682E-2,-1.1514397E-2,-3.329328E-2,-4.2210836E-3,1.160312E-2,-8.874747E-3,6.3426406E-3,-2.5721348E-3,-5.991797E-3,-8.488811E-3,2.0105101E-2,-1.7882455E-2,-5.622139E-3],"split_indices":[13,14,13,13,4,25,4,7,22,4,25,20,20,18,8,20,21,23,20,25,23,3,3,24,20,21,20,7,25,5,12,0,0,0,0,0,0,0,0,0,0,0,0,0,0,0,0,0,0,0,0,0,0,0,0,0,0,0,0,0,0,0,0],"split_type":[0,0,0,0,0,0,0,0,0,0,0,0,0,0,0,0,0,0,0,0,0,0,0,0,0,0,0,0,0,0,0,0,0,0,0,0,0,0,0,0,0,0,0,0,0,0,0,0,0,0,0,0,0,0,0,0,0,0,0,0,0,0,0],"sum_hessian":[5.9541555E4,2.9316262E4,3.0225293E4,1.6761262E4,1.2555001E4,1.7601709E4,1.2623583E4,4.949425E3,1.1811837E4,1.0403932E4,2.151069E3,9.163044E3,8.438665E3,1.194371E4,6.79873E2,2.1441396E3,2.805285E3,6.0895854E3,5.7222515E3,2.0695674E3,8.334364E3,1.2059205E3,9.4514856E2,1.5240613E3,7.638983E3,1.0780245E3,7.360641E3,2.2964043E3,9.647306E3,9.353778E1,5.863352E2,5.0897684E2,1.6351627E3,1.3306681E3,1.474617E3,8.7985535E2,5.20973E3,5.5997383E3,1.2251313E2,9.8901886E2,1.0805485E3,3.0878728E3,5.246491E3,6.4392975E2,5.6199084E2,4.3618192E2,5.089666E2,6.8110254E2,8.4295874E2,6.5445317E3,1.0944513E3,4.1863397E2,6.593905E2,5.873152E3,1.487489E3,2.1933696E3,1.0303457E2,4.952437E3,4.694869E3,6.365482E1,2.9882963E1,4.484294E2,1.3790575E2],"tree_param":{"num_deleted":"0","num_feature":"33","num_nodes":"63","size_leaf_vector":"1"}},{"base_weights":[5.2835315E-4,5.1109254E-2,-6.222841E-2,1.097939E-1,9.389363E-3,-3.596015E-2,-1.2180315E-1,4.3342613E-2,1.7335357E-1,5.7749365E-2,-4.3297403E-2,-4.830969E-2,2.5227505E-1,-1.1109514E-1,-2.2054563E-1,1.2030068E-2,4.3549713E-1,1.31648E-1,2.2366382E-1,1.2195667E-1,-2.3351513E-1,-1.2700155E-1,2.1737213E-1,-1.1490516E-1,2.333468E-2,4.47506E-1,7.794693E-2,-1.2414402E-1,5.6283716E-2,-2.4647082E-1,4.5916554E-2,8.005341E-3,-1.8221084E-3,4.6135105E-2,1.7292446E-2,7.426671E-3,6.102991E-4,1.4584844E-2,7.662914E-3,-3.2138661E-3,8.472747E-3,-1.9169321E-2,-5.721235E-3,-2.2846113E-3,-1.4847936E-2,-2.8420676E-2,1.272406E-2,-7.7024437E-3,1.0664922E-2,-2.7913451E-3,2.484299E-3,2.6862655E-2,-6.727168E-3,7.418488E-3,-8.458288E-3,-8.78084E-3,-4.7838413E-3,1.9115033E-2,-1.5165147E-2,-7.4346038E-3,-1.568469E-2,1.2424092E-2,-1.46730235E-2],"categories":[],"categories_nodes":[],"categories_segments":[],"categories_sizes":[],"default_left":[0,0,0,0,0,0,0,0,0,0,0,0,0,0,0,0,0,0,0,0,0,0,0,0,0,0,0,0,0,0,0,0,0,0,0,0,0,0,0,0,0,0,0,0,0,0,0,0,0,0,0,0,0,0,0,0,0,0,0,0,0,0,0],"id":21,"left_children":[1,3,5,7,9,11,13,15,17,19,21,23,25,27,29,31,33,35,37,39,41,43,45,47,49,51,53,55,57,59,61,-1,-1,-1,-1,-1,-1,-1,-1,-1,-1,-1,-1,-1,-1,-1,-1,-1,-1,-1,-1,-1,-1,-1,-1,-1,-1,-1,-1,-1,-1,-1,-1],"loss_changes":[1.8926662E2,8.073662E1,4.146424E1,5.7685562E1,4.923324E1,6.55887E1,8.2133255E0,8.1988266E1,1.4274338E1,1.8848975E2,2.0147113E2,8.46537E1,2.5138107E1,1.6126099E1,5.6392937E0,4.479561E1,1.9671997E1,7.586899E0,1.4597885E1,7.3237076E1,3.1878937E1,9.6290985E1,6.536866E1,1.1810198E2,1.779719E1,1.9015205E1,7.0697317E0,9.689552E0,6.2104095E1,4.1653137E0,4.7606797E0,0E0,0E0,0E0,0E0,0E0,0E0,0E0,0E0,0E0,0E0,0E0,0E0,0E0,0E0,0E0,0E0,0E0,0E0,0E0,0E0,0E0,0E0,0E0,0E0,0E0,0E0,0E0,0E0,0E0,0E0,0E0,0E0],"parents":[2147483647,0,0,1,1,2,2,3,3,4,4,5,5,6,6,7,7,8,8,9,9,10,10,11,11,12,12,13,13,14,14,15,15,16,16,17,17,18,18,19,19,20,20,21,21,22,22,23,23,24,24,25,25,26,26,27,27,28,28,29,29,30,30],"right_children":[2,4,6,8,10,12,14,16,18,20,22,24,26,28,30,32,34,36,38,40,42,44,46,48,50,52,54,56,58,60,62,-1,-1,-1,-1,-1,-1,-1,-1,-1,-1,-1,-1,-1,-1,-1,-1,-1,-1,-1,-1,-1,-1,-1,-1,-1,-1,-1,-1,-1,-1,-1,-1],"split_conditions":[2.4564184E-2,2.7801412E-1,6.041475E-1,3E1,1E0,2.9973159E-2,1.1333333E0,1.5930694E-2,9.302326E-4,1E0,1E0,4E1,5.0557595E-1,8.804348E-1,1.4241486E-2,1.1808669E-2,1.654321E-1,1.0508474E0,1E0,-2.5742194E-3,1.7515428E-3,1.3972558E-3,-1.5882319E-3,8.2539684E-1,1.4432989E-1,1.8700084E-2,3.0348136E0,2.4224248E-2,1E0,1.0496454E-2,6.2935944E-3,8.005341E-3,-1.8221084E-3,4.6135105E-2,1.7292446E-2,7.426671E-3,6.102991E-4,1.4584844E-2,7.662914E-3,-3.2138661E-3,8.472747E-3,-1.9169321E-2,-5.721235E-3,-2.2846113E-3,-1.4847936E-2,-2.8420676E-2,1.272406E-2,-7.7024437E-3,1.0664922E-2,-2.7913451E-3,2.484299E-3,2.6862655E-2,-6.727168E-3,7.418488E-3,-8.458288E-3,-8.78084E-3,-4.7838413E-3,1.9115033E-2,-1.5165147E-2,-7.4346038E-3,-1.568469E-2,1.2424092E-2,-1.46730235E-2],"split_indices":[10,13,13,9,25,2,3,2,0,32,32,9,13,4,0,10,4,3,25,21,21,21,21,4,4,8,16,2,25,6,21,0,0,0,0,0,0,0,0,0,0,0,0,0,0,0,0,0,0,0,0,0,0,0,0,0,0,0,0,0,0,0,0],"split_type":[0,0,0,0,0,0,0,0,0,0,0,0,0,0,0,0,0,0,0,0,0,0,0,0,0,0,0,0,0,0,0,0,0,0,0,0,0,0,0,0,0,0,0,0,0,0,0,0,0,0,0,0,0,0,0,0,0,0,0,0,0,0,0],"sum_hessian":[5.9624293E4,3.3023895E4,2.66004E4,1.3710707E4,1.9313188E4,1.8474457E4,8.1259424E3,6.7122173E3,6.9984897E3,1.0079879E4,9.233308E3,1.7720357E4,7.54101E2,7.3439175E3,7.8202484E2,6.2201646E3,4.9205304E2,3.841293E3,3.1571968E3,8.262961E3,1.8169185E3,6.9927217E3,2.240586E3,9.190384E3,8.529973E3,3.515396E2,4.025614E2,6.818813E3,5.251047E2,7.1624176E2,6.5783134E1,1.5379475E3,4.682217E3,7.184772E1,4.2020532E2,3.3577512E3,4.8354172E2,1.595231E3,1.5619657E3,1.6747485E3,6.5882124E3,7.9880884E2,1.0181097E3,4.7355874E3,2.257134E3,9.8534424E1,2.1420515E3,8.214748E3,9.7563635E2,2.1202803E3,6.4096924E3,3.061984E2,4.5341206E1,3.1705276E2,8.550863E1,2.4120364E3,4.4067764E3,2.768002E2,2.4830449E2,3.0048E2,4.1576172E2,4.3375607E1,2.2407532E1],"tree_param":{"num_deleted":"0","num_feature":"33","num_nodes":"63","size_leaf_vector":"1"}},{"base_weights":[1.1216186E-3,7.025353E-2,-4.165915E-2,6.079495E-2,4.2571884E-1,1.5482088E-3,-8.84715E-2,1.720324E-2,1.5037785E-1,4.8208907E-1,-1.266028E-1,5.2421987E-2,-1.9319753E-1,-1.5065986E-1,8.9145206E-2,1.0622202E-1,-2.4413634E-2,2.034721E-1,9.703972E-2,4.2112482E-1,8.559928E-1,7.27887E-2,-4.516508E-1,-1.6302209E-1,1.14571206E-1,-4.0064338E-1,-1.3462296E-1,6.1557062E-2,-2.1906315E-1,-6.1665624E-1,1.3010341E-1,8.8903E-3,2.8040966E-3,-2.4486624E-3,1.1124053E-2,1.2212047E-2,6.950771E-3,-0E0,5.912936E-3,4.060025E-2,1.7655924E-2,4.8451714E-2,1.6059881E-2,1.8583566E-2,-9.2957495E-3,-3.721917E-3,-3.379676E-2,-1.2096263E-2,2.8853784E-3,1.633516E-2,2.4181406E-3,-6.017273E-3,-2.3322344E-2,-1.2388815E-2,3.6573174E-4,2.398934E-2,-9.88783E-4,-2.4114273E-2,-7.7220746E-3,-2.1158269E-2,-3.9863613E-2,1.8585825E-2,9.97565E-4],"categories":[],"categories_nodes":[],"categories_segments":[],"categories_sizes":[],"default_left":[0,0,0,0,0,0,0,0,0,0,0,0,0,0,0,0,0,0,0,0,0,0,0,0,0,0,0,0,0,0,0,0,0,0,0,0,0,0,0,0,0,0,0,0,0,0,0,0,0,0,0,0,0,0,0,0,0,0,0,0,0,0,0],"id":22,"left_children":[1,3,5,7,9,11,13,15,17,19,21,23,25,27,29,31,33,35,37,39,41,43,45,47,49,51,53,55,57,59,61,-1,-1,-1,-1,-1,-1,-1,-1,-1,-1,-1,-1,-1,-1,-1,-1,-1,-1,-1,-1,-1,-1,-1,-1,-1,-1,-1,-1,-1,-1,-1,-1],"loss_changes":[1.7640392E2,7.614011E1,7.458154E1,8.6597946E1,1.8785988E1,1.8954242E2,1.9547357E2,5.5496284E1,2.0235367E1,1.0211807E1,3.9703193E0,2.0329822E2,4.749243E1,1.9044302E2,1.3219864E2,1.6876713E1,6.161118E1,9.087387E0,7.4284325E0,1.0669731E1,2.3707848E0,2.9167361E0,1.0836005E0,5.9370193E1,1.6517332E2,1.5301407E1,4.996714E1,1.0908481E2,1.6787906E2,6.8573837E0,1.14988815E2,0E0,0E0,0E0,0E0,0E0,0E0,0E0,0E0,0E0,0E0,0E0,0E0,0E0,0E0,0E0,0E0,0E0,0E0,0E0,0E0,0E0,0E0,0E0,0E0,0E0,0E0,0E0,0E0,0E0,0E0,0E0,0E0],"parents":[2147483647,0,0,1,1,2,2,3,3,4,4,5,5,6,6,7,7,8,8,9,9,10,10,11,11,12,12,13,13,14,14,15,15,16,16,17,17,18,18,19,19,20,20,21,21,22,22,23,23,24,24,25,25,26,26,27,27,28,28,29,29,30,30],"right_children":[2,4,6,8,10,12,14,16,18,20,22,24,26,28,30,32,34,36,38,40,42,44,46,48,50,52,54,56,58,60,62,-1,-1,-1,-1,-1,-1,-1,-1,-1,-1,-1,-1,-1,-1,-1,-1,-1,-1,-1,-1,-1,-1,-1,-1,-1,-1,-1,-1,-1,-1,-1,-1],"split_conditions":[3.1894565E-1,1.9725122E-2,1E0,1E1,1.46E-2,1E0,1E0,1.3903259E-2,2.6153204E-1,2.5612472E-2,2.2518322E-2,-2.5742194E-3,2.3333333E-1,-2.2551941E-3,-1.5882319E-3,2.0925002E-1,8.4615386E-1,8.071025E-3,-7.2876713E-3,1.3559322E-1,1E0,1E0,-1.183899E-3,7.6363635E-1,1E0,-1.8146016E-2,2.923091E-3,1.5686275E-1,1E0,-2.5742194E-3,1.0503405E-3,8.8903E-3,2.8040966E-3,-2.4486624E-3,1.1124053E-2,1.2212047E-2,6.950771E-3,-0E0,5.912936E-3,4.060025E-2,1.7655924E-2,4.8451714E-2,1.6059881E-2,1.8583566E-2,-9.2957495E-3,-3.721917E-3,-3.379676E-2,-1.2096263E-2,2.8853784E-3,1.633516E-2,2.4181406E-3,-6.017273E-3,-2.3322344E-2,-1.2388815E-2,3.6573174E-4,2.398934E-2,-9.88783E-4,-2.4114273E-2,-7.7220746E-3,-2.1158269E-2,-3.9863613E-2,1.8585825E-2,9.97565E-4],"split_indices":[13,2,25,22,6,32,32,10,13,1,10,21,4,21,21,13,4,2,8,4,32,25,8,4,31,8,21,4,31,21,21,0,0,0,0,0,0,0,0,0,0,0,0,0,0,0,0,0,0,0,0,0,0,0,0,0,0,0,0,0,0,0,0],"split_type":[0,0,0,0,0,0,0,0,0,0,0,0,0,0,0,0,0,0,0,0,0,0,0,0,0,0,0,0,0,0,0,0,0,0,0,0,0,0,0,0,0,0,0,0,0,0,0,0,0,0,0,0,0,0,0,0,0,0,0,0,0,0,0],"sum_hessian":[5.9632324E4,2.2804045E4,3.682828E4,2.2218002E4,5.8604346E2,1.9141463E4,1.7686816E4,1.4954552E4,7.26345E3,5.3364435E2,5.2399136E1,1.5182031E4,3.9594329E3,1.3104511E4,4.5823057E3,4.7707686E3,1.0183783E4,3.6278306E3,3.6356194E3,4.6478854E2,6.885578E1,3.1532242E1,2.0866894E1,3.394713E3,1.1787318E4,8.6548956E2,3.093943E3,3.1908088E3,9.913702E3,2.4844888E2,4.333857E3,1.9548431E3,2.8159255E3,9.267556E3,9.162276E2,2.2093337E3,1.4184967E3,6.571074E2,2.9785122E3,6.345918E1,4.0132938E2,5.395691E1,1.48988695E1,1.6018276E1,1.5513966E1,1.0436571E1,1.0430324E1,2.5039695E3,8.907434E2,2.7983665E3,8.988951E3,1.6851863E2,6.9697095E2,1.7246211E3,1.3693221E3,5.198955E2,2.6709133E3,1.948502E3,7.9652E3,1.2585017E2,1.2259872E2,1.3527783E3,2.9810784E3],"tree_param":{"num_deleted":"0","num_feature":"33","num_nodes":"63","size_leaf_vector":"1"}},{"base_weights":[-1.077923E-3,1.06700264E-1,-2.4336904E-2,1.7529327E-1,6.942026E-2,1.3756822E-2,-6.554973E-2,1.9426592E-1,-1.053737E-1,-1.6055787E-1,7.898902E-2,1.0729657E-1,-1.9456618E-1,-3.0348343E-1,2.6591534E-2,5.747091E-2,2.1287745E-1,5.07819E-2,-2.9778257E-1,6.967184E-2,-3.5871008E-1,8.284782E-2,-5.3422445E-1,-3.3769775E-2,2.4586311E-1,-2.99745E-1,1.222491E-2,2.6498618E-2,-3.7780482E-1,2.7784166E-1,-6.1747685E-2,3.0915746E-2,5.3471205E-4,7.4542896E-3,1.3063356E-2,4.764957E-2,-3.421345E-3,2.8385494E-3,-2.9130911E-2,3.3086035E-2,-2.0479371E-3,-3.6423262E-2,-0E0,1.2331548E-2,3.4829837E-3,-3.500839E-2,-0E0,-3.20107E-2,5.9669325E-3,4.79411E-2,9.42865E-3,-5.181808E-2,-1.2939609E-2,5.4562606E-2,-6.111967E-3,-1.4674556E-2,1.725002E-2,-3.075705E-2,-1.43433055E-2,5.7534423E-2,4.0604468E-3,-2.6031334E-2,1.6863423E-4],"categories":[],"categories_nodes":[],"categories_segments":[],"categories_sizes":[],"default_left":[0,0,0,0,0,0,0,0,0,0,0,0,0,0,0,0,0,0,0,0,0,0,0,0,0,0,0,0,0,0,0,0,0,0,0,0,0,0,0,0,0,0,0,0,0,0,0,0,0,0,0,0,0,0,0,0,0,0,0,0,0,0,0],"id":23,"left_children":[1,3,5,7,9,11,13,15,17,19,21,23,25,27,29,31,33,35,37,39,41,43,45,47,49,51,53,55,57,59,61,-1,-1,-1,-1,-1,-1,-1,-1,-1,-1,-1,-1,-1,-1,-1,-1,-1,-1,-1,-1,-1,-1,-1,-1,-1,-1,-1,-1,-1,-1,-1,-1],"loss_changes":[1.4921776E2,2.6744202E1,7.697157E1,1.988012E1,1.5033009E1,4.9587466E2,5.1651385E2,8.560486E0,7.27205E0,1.2674052E1,1.5227215E1,3.4362976E2,1.7176233E2,1.6165186E2,3.7695258E2,1.0526318E1,8.940414E0,1.4711548E1,1.1443951E1,8.823584E0,1.9842957E1,1.3798656E1,2.960617E0,8.0881854E2,3.6063904E2,1.5590735E2,3.8668454E2,1.23398445E2,1.1464526E2,7.5690875E2,3.7571857E2,0E0,0E0,0E0,0E0,0E0,0E0,0E0,0E0,0E0,0E0,0E0,0E0,0E0,0E0,0E0,0E0,0E0,0E0,0E0,0E0,0E0,0E0,0E0,0E0,0E0,0E0,0E0,0E0,0E0,0E0,0E0,0E0],"parents":[2147483647,0,0,1,1,2,2,3,3,4,4,5,5,6,6,7,7,8,8,9,9,10,10,11,11,12,12,13,13,14,14,15,15,16,16,17,17,18,18,19,19,20,20,21,21,22,22,23,23,24,24,25,25,26,26,27,27,28,28,29,29,30,30],"right_children":[2,4,6,8,10,12,14,16,18,20,22,24,26,28,30,32,34,36,38,40,42,44,46,48,50,52,54,56,58,60,62,-1,-1,-1,-1,-1,-1,-1,-1,-1,-1,-1,-1,-1,-1,-1,-1,-1,-1,-1,-1,-1,-1,-1,-1,-1,-1,-1,-1,-1,-1,-1,-1],"split_conditions":[1.4451883E-2,1.0981025E-2,1E0,4.6645165E-3,1.9257121E-1,2.7585813E-1,-3.0223697E-1,-4.172854E-1,-9.6432015E-4,-1.15078926E-1,3.1411848E0,4.5945945E-1,6.909091E-1,-4.2898543E-3,2.3333333E-1,9.680542E0,4.3336946E-5,7.2525423E-3,-3.5868006E-4,-1.980198E-3,1E0,-8.596187E-3,3.3695651E-3,2E1,4.1879943E-1,2.373686E-1,1E1,-1.0680931E0,-8.551663E-1,2E1,1E1,3.0915746E-2,5.3471205E-4,7.4542896E-3,1.3063356E-2,4.764957E-2,-3.421345E-3,2.8385494E-3,-2.9130911E-2,3.3086035E-2,-2.0479371E-3,-3.6423262E-2,-0E0,1.2331548E-2,3.4829837E-3,-3.500839E-2,-0E0,-3.20107E-2,5.9669325E-3,4.79411E-2,9.42865E-3,-5.181808E-2,-1.2939609E-2,5.4562606E-2,-6.111967E-3,-1.4674556E-2,1.725002E-2,-3.075705E-2,-1.43433055E-2,5.7534423E-2,4.0604468E-3,-2.6031334E-2,1.6863423E-4],"split_indices":[10,10,25,21,7,20,20,18,11,20,16,4,4,21,4,12,0,2,8,0,25,11,11,9,17,16,9,20,20,9,9,0,0,0,0,0,0,0,0,0,0,0,0,0,0,0,0,0,0,0,0,